digraph Tree {
node [shape=box, style="filled, rounded", color="black", fontname="helvetica"] ;
edge [fontname="helvetica"] ;
0 [label=<Age &le; 31.5<br/>gini = 0.469<br/>samples = 391<br/>value = [383.0, 231.0]<br/>class = 0>, fillcolor="#f5cdb0"] ;
1 [label=<Glucose &le; 127.5<br/>gini = 0.374<br/>samples = 226<br/>value = [274, 91]<br/>class = 0>, fillcolor="#eeab7b"] ;
0 -> 1 [labeldistance=2.5, labelangle=45, headlabel="True"] ;
2 [label=<BMI &le; 45.55<br/>gini = 0.19<br/>samples = 159<br/>value = [227, 27]<br/>class = 0>, fillcolor="#e89051"] ;
1 -> 2 ;
3 [label=<BMI &le; 32.25<br/>gini = 0.156<br/>samples = 155<br/>value = [226, 21]<br/>class = 0>, fillcolor="#e78d4b"] ;
2 -> 3 ;
4 [label=<Glucose &le; 105.5<br/>gini = 0.051<br/>samples = 100<br/>value = [148, 4]<br/>class = 0>, fillcolor="#e6843e"] ;
3 -> 4 ;
5 [label=<gini = 0.0<br/>samples = 61<br/>value = [91, 0]<br/>class = 0>, fillcolor="#e58139"] ;
4 -> 5 ;
6 [label=<BMI &le; 23.0<br/>gini = 0.123<br/>samples = 39<br/>value = [57, 4]<br/>class = 0>, fillcolor="#e78a47"] ;
4 -> 6 ;
7 [label=<Glucose &le; 110.0<br/>gini = 0.408<br/>samples = 5<br/>value = [5, 2]<br/>class = 0>, fillcolor="#efb388"] ;
6 -> 7 ;
8 [label=<gini = 0.0<br/>samples = 1<br/>value = [0, 2]<br/>class = 1>, fillcolor="#399de5"] ;
7 -> 8 ;
9 [label=<gini = 0.0<br/>samples = 4<br/>value = [5, 0]<br/>class = 0>, fillcolor="#e58139"] ;
7 -> 9 ;
10 [label=<Pregnancies &le; 5.5<br/>gini = 0.071<br/>samples = 34<br/>value = [52, 2]<br/>class = 0>, fillcolor="#e68641"] ;
6 -> 10 ;
11 [label=<gini = 0.0<br/>samples = 31<br/>value = [50, 0]<br/>class = 0>, fillcolor="#e58139"] ;
10 -> 11 ;
12 [label=<BMI &le; 25.15<br/>gini = 0.5<br/>samples = 3<br/>value = [2, 2]<br/>class = 0>, fillcolor="#ffffff"] ;
10 -> 12 ;
13 [label=<gini = 0.0<br/>samples = 1<br/>value = [2, 0]<br/>class = 0>, fillcolor="#e58139"] ;
12 -> 13 ;
14 [label=<gini = 0.0<br/>samples = 2<br/>value = [0, 2]<br/>class = 1>, fillcolor="#399de5"] ;
12 -> 14 ;
15 [label=<Glucose &le; 99.5<br/>gini = 0.294<br/>samples = 55<br/>value = [78, 17]<br/>class = 0>, fillcolor="#eb9c64"] ;
3 -> 15 ;
16 [label=<Age &le; 24.0<br/>gini = 0.071<br/>samples = 17<br/>value = [26, 1]<br/>class = 0>, fillcolor="#e68641"] ;
15 -> 16 ;
17 [label=<Age &le; 22.5<br/>gini = 0.18<br/>samples = 8<br/>value = [9, 1]<br/>class = 0>, fillcolor="#e88f4f"] ;
16 -> 17 ;
18 [label=<gini = 0.0<br/>samples = 6<br/>value = [8, 0]<br/>class = 0>, fillcolor="#e58139"] ;
17 -> 18 ;
19 [label=<BMI &le; 40.75<br/>gini = 0.5<br/>samples = 2<br/>value = [1, 1]<br/>class = 0>, fillcolor="#ffffff"] ;
17 -> 19 ;
20 [label=<gini = 0.0<br/>samples = 1<br/>value = [0, 1]<br/>class = 1>, fillcolor="#399de5"] ;
19 -> 20 ;
21 [label=<gini = 0.0<br/>samples = 1<br/>value = [1, 0]<br/>class = 0>, fillcolor="#e58139"] ;
19 -> 21 ;
22 [label=<gini = 0.0<br/>samples = 9<br/>value = [17, 0]<br/>class = 0>, fillcolor="#e58139"] ;
16 -> 22 ;
23 [label=<BMI &le; 33.05<br/>gini = 0.36<br/>samples = 38<br/>value = [52, 16]<br/>class = 0>, fillcolor="#eda876"] ;
15 -> 23 ;
24 [label=<Age &le; 27.0<br/>gini = 0.444<br/>samples = 3<br/>value = [2, 4]<br/>class = 1>, fillcolor="#9ccef2"] ;
23 -> 24 ;
25 [label=<Age &le; 25.0<br/>gini = 0.444<br/>samples = 2<br/>value = [2, 1]<br/>class = 0>, fillcolor="#f2c09c"] ;
24 -> 25 ;
26 [label=<gini = 0.0<br/>samples = 1<br/>value = [0, 1]<br/>class = 1>, fillcolor="#399de5"] ;
25 -> 26 ;
27 [label=<gini = 0.0<br/>samples = 1<br/>value = [2, 0]<br/>class = 0>, fillcolor="#e58139"] ;
25 -> 27 ;
28 [label=<gini = 0.0<br/>samples = 1<br/>value = [0, 3]<br/>class = 1>, fillcolor="#399de5"] ;
24 -> 28 ;
29 [label=<Pregnancies &le; 6.0<br/>gini = 0.312<br/>samples = 35<br/>value = [50, 12]<br/>class = 0>, fillcolor="#eb9f69"] ;
23 -> 29 ;
30 [label=<Glucose &le; 121.5<br/>gini = 0.278<br/>samples = 34<br/>value = [50, 10]<br/>class = 0>, fillcolor="#ea9a61"] ;
29 -> 30 ;
31 [label=<Glucose &le; 120.5<br/>gini = 0.34<br/>samples = 27<br/>value = [36, 10]<br/>class = 0>, fillcolor="#eca470"] ;
30 -> 31 ;
32 [label=<BMI &le; 34.1<br/>gini = 0.25<br/>samples = 25<br/>value = [35, 6]<br/>class = 0>, fillcolor="#e9975b"] ;
31 -> 32 ;
33 [label=<Glucose &le; 115.0<br/>gini = 0.463<br/>samples = 6<br/>value = [7, 4]<br/>class = 0>, fillcolor="#f4c9aa"] ;
32 -> 33 ;
34 [label=<Pregnancies &le; 1.5<br/>gini = 0.32<br/>samples = 4<br/>value = [1, 4]<br/>class = 1>, fillcolor="#6ab6ec"] ;
33 -> 34 ;
35 [label=<gini = 0.0<br/>samples = 2<br/>value = [0, 3]<br/>class = 1>, fillcolor="#399de5"] ;
34 -> 35 ;
36 [label=<Age &le; 26.0<br/>gini = 0.5<br/>samples = 2<br/>value = [1, 1]<br/>class = 0>, fillcolor="#ffffff"] ;
34 -> 36 ;
37 [label=<gini = 0.0<br/>samples = 1<br/>value = [1, 0]<br/>class = 0>, fillcolor="#e58139"] ;
36 -> 37 ;
38 [label=<gini = 0.0<br/>samples = 1<br/>value = [0, 1]<br/>class = 1>, fillcolor="#399de5"] ;
36 -> 38 ;
39 [label=<gini = 0.0<br/>samples = 2<br/>value = [6, 0]<br/>class = 0>, fillcolor="#e58139"] ;
33 -> 39 ;
40 [label=<Age &le; 21.5<br/>gini = 0.124<br/>samples = 19<br/>value = [28, 2]<br/>class = 0>, fillcolor="#e78a47"] ;
32 -> 40 ;
41 [label=<Pregnancies &le; 1.5<br/>gini = 0.444<br/>samples = 3<br/>value = [2, 1]<br/>class = 0>, fillcolor="#f2c09c"] ;
40 -> 41 ;
42 [label=<gini = 0.0<br/>samples = 2<br/>value = [2, 0]<br/>class = 0>, fillcolor="#e58139"] ;
41 -> 42 ;
43 [label=<gini = 0.0<br/>samples = 1<br/>value = [0, 1]<br/>class = 1>, fillcolor="#399de5"] ;
41 -> 43 ;
44 [label=<Age &le; 25.5<br/>gini = 0.071<br/>samples = 16<br/>value = [26, 1]<br/>class = 0>, fillcolor="#e68641"] ;
40 -> 44 ;
45 [label=<BMI &le; 36.05<br/>gini = 0.142<br/>samples = 9<br/>value = [12, 1]<br/>class = 0>, fillcolor="#e78c49"] ;
44 -> 45 ;
46 [label=<gini = 0.0<br/>samples = 4<br/>value = [7, 0]<br/>class = 0>, fillcolor="#e58139"] ;
45 -> 46 ;
47 [label=<BMI &le; 37.2<br/>gini = 0.278<br/>samples = 5<br/>value = [5, 1]<br/>class = 0>, fillcolor="#ea9a61"] ;
45 -> 47 ;
48 [label=<gini = 0.0<br/>samples = 1<br/>value = [0, 1]<br/>class = 1>, fillcolor="#399de5"] ;
47 -> 48 ;
49 [label=<gini = 0.0<br/>samples = 4<br/>value = [5, 0]<br/>class = 0>, fillcolor="#e58139"] ;
47 -> 49 ;
50 [label=<gini = 0.0<br/>samples = 7<br/>value = [14, 0]<br/>class = 0>, fillcolor="#e58139"] ;
44 -> 50 ;
51 [label=<Age &le; 26.5<br/>gini = 0.32<br/>samples = 2<br/>value = [1, 4]<br/>class = 1>, fillcolor="#6ab6ec"] ;
31 -> 51 ;
52 [label=<gini = 0.0<br/>samples = 1<br/>value = [0, 4]<br/>class = 1>, fillcolor="#399de5"] ;
51 -> 52 ;
53 [label=<gini = 0.0<br/>samples = 1<br/>value = [1, 0]<br/>class = 0>, fillcolor="#e58139"] ;
51 -> 53 ;
54 [label=<gini = 0.0<br/>samples = 7<br/>value = [14, 0]<br/>class = 0>, fillcolor="#e58139"] ;
30 -> 54 ;
55 [label=<gini = 0.0<br/>samples = 1<br/>value = [0, 2]<br/>class = 1>, fillcolor="#399de5"] ;
29 -> 55 ;
56 [label=<Pregnancies &le; 0.5<br/>gini = 0.245<br/>samples = 4<br/>value = [1, 6]<br/>class = 1>, fillcolor="#5aade9"] ;
2 -> 56 ;
57 [label=<BMI &le; 46.3<br/>gini = 0.375<br/>samples = 2<br/>value = [1, 3]<br/>class = 1>, fillcolor="#7bbeee"] ;
56 -> 57 ;
58 [label=<gini = 0.0<br/>samples = 1<br/>value = [0, 3]<br/>class = 1>, fillcolor="#399de5"] ;
57 -> 58 ;
59 [label=<gini = 0.0<br/>samples = 1<br/>value = [1, 0]<br/>class = 0>, fillcolor="#e58139"] ;
57 -> 59 ;
60 [label=<gini = 0.0<br/>samples = 2<br/>value = [0, 3]<br/>class = 1>, fillcolor="#399de5"] ;
56 -> 60 ;
61 [label=<Glucose &le; 160.0<br/>gini = 0.488<br/>samples = 67<br/>value = [47, 64]<br/>class = 1>, fillcolor="#cae5f8"] ;
1 -> 61 ;
62 [label=<Age &le; 24.5<br/>gini = 0.497<br/>samples = 50<br/>value = [41, 35]<br/>class = 0>, fillcolor="#fbede2"] ;
61 -> 62 ;
63 [label=<Pregnancies &le; 2.5<br/>gini = 0.414<br/>samples = 28<br/>value = [29, 12]<br/>class = 0>, fillcolor="#f0b58b"] ;
62 -> 63 ;
64 [label=<Glucose &le; 136.0<br/>gini = 0.293<br/>samples = 19<br/>value = [23, 5]<br/>class = 0>, fillcolor="#eb9c64"] ;
63 -> 64 ;
65 [label=<BMI &le; 31.45<br/>gini = 0.408<br/>samples = 9<br/>value = [10, 4]<br/>class = 0>, fillcolor="#efb388"] ;
64 -> 65 ;
66 [label=<gini = 0.0<br/>samples = 5<br/>value = [8, 0]<br/>class = 0>, fillcolor="#e58139"] ;
65 -> 66 ;
67 [label=<Glucose &le; 129.5<br/>gini = 0.444<br/>samples = 4<br/>value = [2, 4]<br/>class = 1>, fillcolor="#9ccef2"] ;
65 -> 67 ;
68 [label=<BMI &le; 40.25<br/>gini = 0.444<br/>samples = 2<br/>value = [2, 1]<br/>class = 0>, fillcolor="#f2c09c"] ;
67 -> 68 ;
69 [label=<gini = 0.0<br/>samples = 1<br/>value = [2, 0]<br/>class = 0>, fillcolor="#e58139"] ;
68 -> 69 ;
70 [label=<gini = 0.0<br/>samples = 1<br/>value = [0, 1]<br/>class = 1>, fillcolor="#399de5"] ;
68 -> 70 ;
71 [label=<gini = 0.0<br/>samples = 2<br/>value = [0, 3]<br/>class = 1>, fillcolor="#399de5"] ;
67 -> 71 ;
72 [label=<Pregnancies &le; 0.5<br/>gini = 0.133<br/>samples = 10<br/>value = [13, 1]<br/>class = 0>, fillcolor="#e78b48"] ;
64 -> 72 ;
73 [label=<Glucose &le; 144.0<br/>gini = 0.5<br/>samples = 2<br/>value = [1, 1]<br/>class = 0>, fillcolor="#ffffff"] ;
72 -> 73 ;
74 [label=<gini = 0.0<br/>samples = 1<br/>value = [1, 0]<br/>class = 0>, fillcolor="#e58139"] ;
73 -> 74 ;
75 [label=<gini = 0.0<br/>samples = 1<br/>value = [0, 1]<br/>class = 1>, fillcolor="#399de5"] ;
73 -> 75 ;
76 [label=<gini = 0.0<br/>samples = 8<br/>value = [12, 0]<br/>class = 0>, fillcolor="#e58139"] ;
72 -> 76 ;
77 [label=<Glucose &le; 131.0<br/>gini = 0.497<br/>samples = 9<br/>value = [6, 7]<br/>class = 1>, fillcolor="#e3f1fb"] ;
63 -> 77 ;
78 [label=<gini = 0.0<br/>samples = 3<br/>value = [3, 0]<br/>class = 0>, fillcolor="#e58139"] ;
77 -> 78 ;
79 [label=<Age &le; 22.5<br/>gini = 0.42<br/>samples = 6<br/>value = [3, 7]<br/>class = 1>, fillcolor="#8ec7f0"] ;
77 -> 79 ;
80 [label=<Glucose &le; 145.0<br/>gini = 0.245<br/>samples = 4<br/>value = [1, 6]<br/>class = 1>, fillcolor="#5aade9"] ;
79 -> 80 ;
81 [label=<gini = 0.0<br/>samples = 3<br/>value = [0, 6]<br/>class = 1>, fillcolor="#399de5"] ;
80 -> 81 ;
82 [label=<gini = 0.0<br/>samples = 1<br/>value = [1, 0]<br/>class = 0>, fillcolor="#e58139"] ;
80 -> 82 ;
83 [label=<Glucose &le; 143.0<br/>gini = 0.444<br/>samples = 2<br/>value = [2, 1]<br/>class = 0>, fillcolor="#f2c09c"] ;
79 -> 83 ;
84 [label=<gini = 0.0<br/>samples = 1<br/>value = [0, 1]<br/>class = 1>, fillcolor="#399de5"] ;
83 -> 84 ;
85 [label=<gini = 0.0<br/>samples = 1<br/>value = [2, 0]<br/>class = 0>, fillcolor="#e58139"] ;
83 -> 85 ;
86 [label=<Age &le; 28.5<br/>gini = 0.451<br/>samples = 22<br/>value = [12, 23]<br/>class = 1>, fillcolor="#a0d0f3"] ;
62 -> 86 ;
87 [label=<BMI &le; 28.2<br/>gini = 0.355<br/>samples = 15<br/>value = [6, 20]<br/>class = 1>, fillcolor="#74baed"] ;
86 -> 87 ;
88 [label=<gini = 0.0<br/>samples = 3<br/>value = [0, 7]<br/>class = 1>, fillcolor="#399de5"] ;
87 -> 88 ;
89 [label=<Pregnancies &le; 3.5<br/>gini = 0.432<br/>samples = 12<br/>value = [6, 13]<br/>class = 1>, fillcolor="#94caf1"] ;
87 -> 89 ;
90 [label=<Glucose &le; 149.5<br/>gini = 0.245<br/>samples = 9<br/>value = [2, 12]<br/>class = 1>, fillcolor="#5aade9"] ;
89 -> 90 ;
91 [label=<BMI &le; 34.75<br/>gini = 0.153<br/>samples = 7<br/>value = [1, 11]<br/>class = 1>, fillcolor="#4ba6e7"] ;
90 -> 91 ;
92 [label=<Pregnancies &le; 2.5<br/>gini = 0.375<br/>samples = 3<br/>value = [1, 3]<br/>class = 1>, fillcolor="#7bbeee"] ;
91 -> 92 ;
93 [label=<Glucose &le; 136.5<br/>gini = 0.444<br/>samples = 2<br/>value = [1, 2]<br/>class = 1>, fillcolor="#9ccef2"] ;
92 -> 93 ;
94 [label=<gini = 0.0<br/>samples = 1<br/>value = [1, 0]<br/>class = 0>, fillcolor="#e58139"] ;
93 -> 94 ;
95 [label=<gini = 0.0<br/>samples = 1<br/>value = [0, 2]<br/>class = 1>, fillcolor="#399de5"] ;
93 -> 95 ;
96 [label=<gini = 0.0<br/>samples = 1<br/>value = [0, 1]<br/>class = 1>, fillcolor="#399de5"] ;
92 -> 96 ;
97 [label=<gini = 0.0<br/>samples = 4<br/>value = [0, 8]<br/>class = 1>, fillcolor="#399de5"] ;
91 -> 97 ;
98 [label=<Glucose &le; 153.5<br/>gini = 0.5<br/>samples = 2<br/>value = [1, 1]<br/>class = 0>, fillcolor="#ffffff"] ;
90 -> 98 ;
99 [label=<gini = 0.0<br/>samples = 1<br/>value = [1, 0]<br/>class = 0>, fillcolor="#e58139"] ;
98 -> 99 ;
100 [label=<gini = 0.0<br/>samples = 1<br/>value = [0, 1]<br/>class = 1>, fillcolor="#399de5"] ;
98 -> 100 ;
101 [label=<Pregnancies &le; 4.5<br/>gini = 0.32<br/>samples = 3<br/>value = [4, 1]<br/>class = 0>, fillcolor="#eca06a"] ;
89 -> 101 ;
102 [label=<gini = 0.0<br/>samples = 2<br/>value = [4, 0]<br/>class = 0>, fillcolor="#e58139"] ;
101 -> 102 ;
103 [label=<gini = 0.0<br/>samples = 1<br/>value = [0, 1]<br/>class = 1>, fillcolor="#399de5"] ;
101 -> 103 ;
104 [label=<BMI &le; 40.9<br/>gini = 0.444<br/>samples = 7<br/>value = [6, 3]<br/>class = 0>, fillcolor="#f2c09c"] ;
86 -> 104 ;
105 [label=<gini = 0.0<br/>samples = 5<br/>value = [6, 0]<br/>class = 0>, fillcolor="#e58139"] ;
104 -> 105 ;
106 [label=<gini = 0.0<br/>samples = 2<br/>value = [0, 3]<br/>class = 1>, fillcolor="#399de5"] ;
104 -> 106 ;
107 [label=<Age &le; 22.5<br/>gini = 0.284<br/>samples = 17<br/>value = [6.0, 29.0]<br/>class = 1>, fillcolor="#62b1ea"] ;
61 -> 107 ;
108 [label=<gini = 0.0<br/>samples = 3<br/>value = [0, 11]<br/>class = 1>, fillcolor="#399de5"] ;
107 -> 108 ;
109 [label=<BMI &le; 28.2<br/>gini = 0.375<br/>samples = 14<br/>value = [6, 18]<br/>class = 1>, fillcolor="#7bbeee"] ;
107 -> 109 ;
110 [label=<gini = 0.0<br/>samples = 1<br/>value = [2, 0]<br/>class = 0>, fillcolor="#e58139"] ;
109 -> 110 ;
111 [label=<Glucose &le; 196.5<br/>gini = 0.298<br/>samples = 13<br/>value = [4, 18]<br/>class = 1>, fillcolor="#65b3eb"] ;
109 -> 111 ;
112 [label=<Age &le; 26.5<br/>gini = 0.245<br/>samples = 12<br/>value = [3, 18]<br/>class = 1>, fillcolor="#5aade9"] ;
111 -> 112 ;
113 [label=<BMI &le; 36.2<br/>gini = 0.397<br/>samples = 7<br/>value = [3, 8]<br/>class = 1>, fillcolor="#83c2ef"] ;
112 -> 113 ;
114 [label=<Age &le; 25.0<br/>gini = 0.444<br/>samples = 2<br/>value = [2, 1]<br/>class = 0>, fillcolor="#f2c09c"] ;
113 -> 114 ;
115 [label=<gini = 0.0<br/>samples = 1<br/>value = [0, 1]<br/>class = 1>, fillcolor="#399de5"] ;
114 -> 115 ;
116 [label=<gini = 0.0<br/>samples = 1<br/>value = [2, 0]<br/>class = 0>, fillcolor="#e58139"] ;
114 -> 116 ;
117 [label=<BMI &le; 48.2<br/>gini = 0.219<br/>samples = 5<br/>value = [1, 7]<br/>class = 1>, fillcolor="#55abe9"] ;
113 -> 117 ;
118 [label=<gini = 0.0<br/>samples = 3<br/>value = [0, 6]<br/>class = 1>, fillcolor="#399de5"] ;
117 -> 118 ;
119 [label=<Glucose &le; 172.5<br/>gini = 0.5<br/>samples = 2<br/>value = [1, 1]<br/>class = 0>, fillcolor="#ffffff"] ;
117 -> 119 ;
120 [label=<gini = 0.0<br/>samples = 1<br/>value = [1, 0]<br/>class = 0>, fillcolor="#e58139"] ;
119 -> 120 ;
121 [label=<gini = 0.0<br/>samples = 1<br/>value = [0, 1]<br/>class = 1>, fillcolor="#399de5"] ;
119 -> 121 ;
122 [label=<gini = 0.0<br/>samples = 5<br/>value = [0, 10]<br/>class = 1>, fillcolor="#399de5"] ;
112 -> 122 ;
123 [label=<gini = 0.0<br/>samples = 1<br/>value = [1, 0]<br/>class = 0>, fillcolor="#e58139"] ;
111 -> 123 ;
124 [label=<Glucose &le; 162.5<br/>gini = 0.492<br/>samples = 165<br/>value = [109, 140]<br/>class = 1>, fillcolor="#d3e9f9"] ;
0 -> 124 [labeldistance=2.5, labelangle=-45, headlabel="False"] ;
125 [label=<BMI &le; 28.1<br/>gini = 0.498<br/>samples = 132<br/>value = [105.0, 92.0]<br/>class = 0>, fillcolor="#fcefe6"] ;
124 -> 125 ;
126 [label=<BMI &le; 23.7<br/>gini = 0.387<br/>samples = 40<br/>value = [45, 16]<br/>class = 0>, fillcolor="#eeae7f"] ;
125 -> 126 ;
127 [label=<gini = 0.0<br/>samples = 12<br/>value = [13, 0]<br/>class = 0>, fillcolor="#e58139"] ;
126 -> 127 ;
128 [label=<BMI &le; 27.5<br/>gini = 0.444<br/>samples = 28<br/>value = [32, 16]<br/>class = 0>, fillcolor="#f2c09c"] ;
126 -> 128 ;
129 [label=<BMI &le; 23.9<br/>gini = 0.48<br/>samples = 21<br/>value = [21, 14]<br/>class = 0>, fillcolor="#f6d5bd"] ;
128 -> 129 ;
130 [label=<gini = 0.0<br/>samples = 1<br/>value = [0, 1]<br/>class = 1>, fillcolor="#399de5"] ;
129 -> 130 ;
131 [label=<Age &le; 42.5<br/>gini = 0.472<br/>samples = 20<br/>value = [21, 13]<br/>class = 0>, fillcolor="#f5cfb4"] ;
129 -> 131 ;
132 [label=<Glucose &le; 111.0<br/>gini = 0.375<br/>samples = 11<br/>value = [15, 5]<br/>class = 0>, fillcolor="#eeab7b"] ;
131 -> 132 ;
133 [label=<gini = 0.0<br/>samples = 5<br/>value = [8, 0]<br/>class = 0>, fillcolor="#e58139"] ;
132 -> 133 ;
134 [label=<Glucose &le; 128.5<br/>gini = 0.486<br/>samples = 6<br/>value = [7, 5]<br/>class = 0>, fillcolor="#f8dbc6"] ;
132 -> 134 ;
135 [label=<BMI &le; 25.55<br/>gini = 0.408<br/>samples = 4<br/>value = [2, 5]<br/>class = 1>, fillcolor="#88c4ef"] ;
134 -> 135 ;
136 [label=<gini = 0.0<br/>samples = 1<br/>value = [2, 0]<br/>class = 0>, fillcolor="#e58139"] ;
135 -> 136 ;
137 [label=<gini = 0.0<br/>samples = 3<br/>value = [0, 5]<br/>class = 1>, fillcolor="#399de5"] ;
135 -> 137 ;
138 [label=<gini = 0.0<br/>samples = 2<br/>value = [5, 0]<br/>class = 0>, fillcolor="#e58139"] ;
134 -> 138 ;
139 [label=<Glucose &le; 144.5<br/>gini = 0.49<br/>samples = 9<br/>value = [6, 8]<br/>class = 1>, fillcolor="#cee6f8"] ;
131 -> 139 ;
140 [label=<Pregnancies &le; 3.5<br/>gini = 0.375<br/>samples = 6<br/>value = [6, 2]<br/>class = 0>, fillcolor="#eeab7b"] ;
139 -> 140 ;
141 [label=<gini = 0.0<br/>samples = 1<br/>value = [0, 2]<br/>class = 1>, fillcolor="#399de5"] ;
140 -> 141 ;
142 [label=<gini = 0.0<br/>samples = 5<br/>value = [6, 0]<br/>class = 0>, fillcolor="#e58139"] ;
140 -> 142 ;
143 [label=<gini = 0.0<br/>samples = 3<br/>value = [0, 6]<br/>class = 1>, fillcolor="#399de5"] ;
139 -> 143 ;
144 [label=<Age &le; 47.0<br/>gini = 0.26<br/>samples = 7<br/>value = [11, 2]<br/>class = 0>, fillcolor="#ea985d"] ;
128 -> 144 ;
145 [label=<gini = 0.0<br/>samples = 3<br/>value = [4, 0]<br/>class = 0>, fillcolor="#e58139"] ;
144 -> 145 ;
146 [label=<Glucose &le; 128.5<br/>gini = 0.346<br/>samples = 4<br/>value = [7, 2]<br/>class = 0>, fillcolor="#eca572"] ;
144 -> 146 ;
147 [label=<gini = 0.0<br/>samples = 2<br/>value = [0, 2]<br/>class = 1>, fillcolor="#399de5"] ;
146 -> 147 ;
148 [label=<gini = 0.0<br/>samples = 2<br/>value = [7, 0]<br/>class = 0>, fillcolor="#e58139"] ;
146 -> 148 ;
149 [label=<Glucose &le; 94.5<br/>gini = 0.493<br/>samples = 92<br/>value = [60, 76]<br/>class = 1>, fillcolor="#d5eafa"] ;
125 -> 149 ;
150 [label=<Pregnancies &le; 11.0<br/>gini = 0.34<br/>samples = 16<br/>value = [18, 5]<br/>class = 0>, fillcolor="#eca470"] ;
149 -> 150 ;
151 [label=<Age &le; 41.5<br/>gini = 0.255<br/>samples = 14<br/>value = [17, 3]<br/>class = 0>, fillcolor="#ea975c"] ;
150 -> 151 ;
152 [label=<Glucose &le; 28.5<br/>gini = 0.397<br/>samples = 7<br/>value = [8, 3]<br/>class = 0>, fillcolor="#efb083"] ;
151 -> 152 ;
153 [label=<gini = 0.0<br/>samples = 2<br/>value = [0, 3]<br/>class = 1>, fillcolor="#399de5"] ;
152 -> 153 ;
154 [label=<gini = 0.0<br/>samples = 5<br/>value = [8, 0]<br/>class = 0>, fillcolor="#e58139"] ;
152 -> 154 ;
155 [label=<gini = 0.0<br/>samples = 7<br/>value = [9, 0]<br/>class = 0>, fillcolor="#e58139"] ;
151 -> 155 ;
156 [label=<Age &le; 47.0<br/>gini = 0.444<br/>samples = 2<br/>value = [1, 2]<br/>class = 1>, fillcolor="#9ccef2"] ;
150 -> 156 ;
157 [label=<gini = 0.0<br/>samples = 1<br/>value = [0, 2]<br/>class = 1>, fillcolor="#399de5"] ;
156 -> 157 ;
158 [label=<gini = 0.0<br/>samples = 1<br/>value = [1, 0]<br/>class = 0>, fillcolor="#e58139"] ;
156 -> 158 ;
159 [label=<BMI &le; 40.75<br/>gini = 0.467<br/>samples = 76<br/>value = [42, 71]<br/>class = 1>, fillcolor="#aed7f4"] ;
149 -> 159 ;
160 [label=<Age &le; 41.5<br/>gini = 0.487<br/>samples = 68<br/>value = [41, 57]<br/>class = 1>, fillcolor="#c7e3f8"] ;
159 -> 160 ;
161 [label=<BMI &le; 38.2<br/>gini = 0.499<br/>samples = 34<br/>value = [26, 24]<br/>class = 0>, fillcolor="#fdf5f0"] ;
160 -> 161 ;
162 [label=<Pregnancies &le; 1.5<br/>gini = 0.496<br/>samples = 29<br/>value = [20, 24]<br/>class = 1>, fillcolor="#deeffb"] ;
161 -> 162 ;
163 [label=<gini = 0.0<br/>samples = 6<br/>value = [0, 10]<br/>class = 1>, fillcolor="#399de5"] ;
162 -> 163 ;
164 [label=<Age &le; 34.5<br/>gini = 0.484<br/>samples = 23<br/>value = [20, 14]<br/>class = 0>, fillcolor="#f7d9c4"] ;
162 -> 164 ;
165 [label=<Pregnancies &le; 6.5<br/>gini = 0.165<br/>samples = 7<br/>value = [10, 1]<br/>class = 0>, fillcolor="#e88e4d"] ;
164 -> 165 ;
166 [label=<gini = 0.0<br/>samples = 6<br/>value = [10, 0]<br/>class = 0>, fillcolor="#e58139"] ;
165 -> 166 ;
167 [label=<gini = 0.0<br/>samples = 1<br/>value = [0, 1]<br/>class = 1>, fillcolor="#399de5"] ;
165 -> 167 ;
168 [label=<Pregnancies &le; 9.5<br/>gini = 0.491<br/>samples = 16<br/>value = [10.0, 13.0]<br/>class = 1>, fillcolor="#d1e8f9"] ;
164 -> 168 ;
169 [label=<BMI &le; 29.75<br/>gini = 0.415<br/>samples = 12<br/>value = [5, 12]<br/>class = 1>, fillcolor="#8bc6f0"] ;
168 -> 169 ;
170 [label=<gini = 0.0<br/>samples = 1<br/>value = [2, 0]<br/>class = 0>, fillcolor="#e58139"] ;
169 -> 170 ;
171 [label=<Glucose &le; 136.5<br/>gini = 0.32<br/>samples = 11<br/>value = [3, 12]<br/>class = 1>, fillcolor="#6ab6ec"] ;
169 -> 171 ;
172 [label=<Pregnancies &le; 8.5<br/>gini = 0.153<br/>samples = 8<br/>value = [1, 11]<br/>class = 1>, fillcolor="#4ba6e7"] ;
171 -> 172 ;
173 [label=<gini = 0.0<br/>samples = 7<br/>value = [0, 11]<br/>class = 1>, fillcolor="#399de5"] ;
172 -> 173 ;
174 [label=<gini = 0.0<br/>samples = 1<br/>value = [1, 0]<br/>class = 0>, fillcolor="#e58139"] ;
172 -> 174 ;
175 [label=<Glucose &le; 144.5<br/>gini = 0.444<br/>samples = 3<br/>value = [2, 1]<br/>class = 0>, fillcolor="#f2c09c"] ;
171 -> 175 ;
176 [label=<gini = 0.0<br/>samples = 2<br/>value = [2, 0]<br/>class = 0>, fillcolor="#e58139"] ;
175 -> 176 ;
177 [label=<gini = 0.0<br/>samples = 1<br/>value = [0, 1]<br/>class = 1>, fillcolor="#399de5"] ;
175 -> 177 ;
178 [label=<Glucose &le; 123.5<br/>gini = 0.278<br/>samples = 4<br/>value = [5, 1]<br/>class = 0>, fillcolor="#ea9a61"] ;
168 -> 178 ;
179 [label=<gini = 0.0<br/>samples = 1<br/>value = [3, 0]<br/>class = 0>, fillcolor="#e58139"] ;
178 -> 179 ;
180 [label=<Glucose &le; 131.5<br/>gini = 0.444<br/>samples = 3<br/>value = [2, 1]<br/>class = 0>, fillcolor="#f2c09c"] ;
178 -> 180 ;
181 [label=<gini = 0.0<br/>samples = 1<br/>value = [0, 1]<br/>class = 1>, fillcolor="#399de5"] ;
180 -> 181 ;
182 [label=<gini = 0.0<br/>samples = 2<br/>value = [2, 0]<br/>class = 0>, fillcolor="#e58139"] ;
180 -> 182 ;
183 [label=<gini = 0.0<br/>samples = 5<br/>value = [6, 0]<br/>class = 0>, fillcolor="#e58139"] ;
161 -> 183 ;
184 [label=<Pregnancies &le; 8.5<br/>gini = 0.43<br/>samples = 34<br/>value = [15, 33]<br/>class = 1>, fillcolor="#93caf1"] ;
160 -> 184 ;
185 [label=<Glucose &le; 120.0<br/>gini = 0.478<br/>samples = 22<br/>value = [13, 20]<br/>class = 1>, fillcolor="#baddf6"] ;
184 -> 185 ;
186 [label=<BMI &le; 39.25<br/>gini = 0.484<br/>samples = 10<br/>value = [10, 7]<br/>class = 0>, fillcolor="#f7d9c4"] ;
185 -> 186 ;
187 [label=<Age &le; 51.0<br/>gini = 0.408<br/>samples = 8<br/>value = [10, 4]<br/>class = 0>, fillcolor="#efb388"] ;
186 -> 187 ;
188 [label=<BMI &le; 29.25<br/>gini = 0.278<br/>samples = 7<br/>value = [10, 2]<br/>class = 0>, fillcolor="#ea9a61"] ;
187 -> 188 ;
189 [label=<gini = 0.0<br/>samples = 1<br/>value = [0, 2]<br/>class = 1>, fillcolor="#399de5"] ;
188 -> 189 ;
190 [label=<gini = 0.0<br/>samples = 6<br/>value = [10, 0]<br/>class = 0>, fillcolor="#e58139"] ;
188 -> 190 ;
191 [label=<gini = 0.0<br/>samples = 1<br/>value = [0, 2]<br/>class = 1>, fillcolor="#399de5"] ;
187 -> 191 ;
192 [label=<gini = 0.0<br/>samples = 2<br/>value = [0, 3]<br/>class = 1>, fillcolor="#399de5"] ;
186 -> 192 ;
193 [label=<Pregnancies &le; 4.5<br/>gini = 0.305<br/>samples = 12<br/>value = [3, 13]<br/>class = 1>, fillcolor="#67b4eb"] ;
185 -> 193 ;
194 [label=<gini = 0.0<br/>samples = 4<br/>value = [0, 6]<br/>class = 1>, fillcolor="#399de5"] ;
193 -> 194 ;
195 [label=<Glucose &le; 144.5<br/>gini = 0.42<br/>samples = 8<br/>value = [3, 7]<br/>class = 1>, fillcolor="#8ec7f0"] ;
193 -> 195 ;
196 [label=<BMI &le; 34.2<br/>gini = 0.49<br/>samples = 6<br/>value = [3, 4]<br/>class = 1>, fillcolor="#cee6f8"] ;
195 -> 196 ;
197 [label=<Pregnancies &le; 7.5<br/>gini = 0.32<br/>samples = 4<br/>value = [1, 4]<br/>class = 1>, fillcolor="#6ab6ec"] ;
196 -> 197 ;
198 [label=<Glucose &le; 133.5<br/>gini = 0.444<br/>samples = 3<br/>value = [1, 2]<br/>class = 1>, fillcolor="#9ccef2"] ;
197 -> 198 ;
199 [label=<gini = 0.0<br/>samples = 1<br/>value = [0, 1]<br/>class = 1>, fillcolor="#399de5"] ;
198 -> 199 ;
200 [label=<BMI &le; 29.6<br/>gini = 0.5<br/>samples = 2<br/>value = [1, 1]<br/>class = 0>, fillcolor="#ffffff"] ;
198 -> 200 ;
201 [label=<gini = 0.0<br/>samples = 1<br/>value = [1, 0]<br/>class = 0>, fillcolor="#e58139"] ;
200 -> 201 ;
202 [label=<gini = 0.0<br/>samples = 1<br/>value = [0, 1]<br/>class = 1>, fillcolor="#399de5"] ;
200 -> 202 ;
203 [label=<gini = 0.0<br/>samples = 1<br/>value = [0, 2]<br/>class = 1>, fillcolor="#399de5"] ;
197 -> 203 ;
204 [label=<gini = 0.0<br/>samples = 2<br/>value = [2, 0]<br/>class = 0>, fillcolor="#e58139"] ;
196 -> 204 ;
205 [label=<gini = 0.0<br/>samples = 2<br/>value = [0, 3]<br/>class = 1>, fillcolor="#399de5"] ;
195 -> 205 ;
206 [label=<Age &le; 51.5<br/>gini = 0.231<br/>samples = 12<br/>value = [2, 13]<br/>class = 1>, fillcolor="#57ace9"] ;
184 -> 206 ;
207 [label=<BMI &le; 31.35<br/>gini = 0.133<br/>samples = 11<br/>value = [1, 13]<br/>class = 1>, fillcolor="#48a5e7"] ;
206 -> 207 ;
208 [label=<BMI &le; 29.1<br/>gini = 0.5<br/>samples = 2<br/>value = [1, 1]<br/>class = 0>, fillcolor="#ffffff"] ;
207 -> 208 ;
209 [label=<gini = 0.0<br/>samples = 1<br/>value = [0, 1]<br/>class = 1>, fillcolor="#399de5"] ;
208 -> 209 ;
210 [label=<gini = 0.0<br/>samples = 1<br/>value = [1, 0]<br/>class = 0>, fillcolor="#e58139"] ;
208 -> 210 ;
211 [label=<gini = 0.0<br/>samples = 9<br/>value = [0, 12]<br/>class = 1>, fillcolor="#399de5"] ;
207 -> 211 ;
212 [label=<gini = 0.0<br/>samples = 1<br/>value = [1, 0]<br/>class = 0>, fillcolor="#e58139"] ;
206 -> 212 ;
213 [label=<Glucose &le; 116.0<br/>gini = 0.124<br/>samples = 8<br/>value = [1, 14]<br/>class = 1>, fillcolor="#47a4e7"] ;
159 -> 213 ;
214 [label=<Pregnancies &le; 4.0<br/>gini = 0.32<br/>samples = 2<br/>value = [1, 4]<br/>class = 1>, fillcolor="#6ab6ec"] ;
213 -> 214 ;
215 [label=<gini = 0.0<br/>samples = 1<br/>value = [1, 0]<br/>class = 0>, fillcolor="#e58139"] ;
214 -> 215 ;
216 [label=<gini = 0.0<br/>samples = 1<br/>value = [0, 4]<br/>class = 1>, fillcolor="#399de5"] ;
214 -> 216 ;
217 [label=<gini = 0.0<br/>samples = 6<br/>value = [0, 10]<br/>class = 1>, fillcolor="#399de5"] ;
213 -> 217 ;
218 [label=<Glucose &le; 165.5<br/>gini = 0.142<br/>samples = 33<br/>value = [4, 48]<br/>class = 1>, fillcolor="#49a5e7"] ;
124 -> 218 ;
219 [label=<Glucose &le; 164.5<br/>gini = 0.408<br/>samples = 4<br/>value = [2, 5]<br/>class = 1>, fillcolor="#88c4ef"] ;
218 -> 219 ;
220 [label=<gini = 0.0<br/>samples = 3<br/>value = [0, 5]<br/>class = 1>, fillcolor="#399de5"] ;
219 -> 220 ;
221 [label=<gini = 0.0<br/>samples = 1<br/>value = [2, 0]<br/>class = 0>, fillcolor="#e58139"] ;
219 -> 221 ;
222 [label=<Age &le; 66.5<br/>gini = 0.085<br/>samples = 29<br/>value = [2, 43]<br/>class = 1>, fillcolor="#42a2e6"] ;
218 -> 222 ;
223 [label=<BMI &le; 40.35<br/>gini = 0.044<br/>samples = 28<br/>value = [1, 43]<br/>class = 1>, fillcolor="#3e9fe6"] ;
222 -> 223 ;
224 [label=<gini = 0.0<br/>samples = 24<br/>value = [0, 38]<br/>class = 1>, fillcolor="#399de5"] ;
223 -> 224 ;
225 [label=<BMI &le; 42.05<br/>gini = 0.278<br/>samples = 4<br/>value = [1, 5]<br/>class = 1>, fillcolor="#61b1ea"] ;
223 -> 225 ;
226 [label=<gini = 0.0<br/>samples = 1<br/>value = [1, 0]<br/>class = 0>, fillcolor="#e58139"] ;
225 -> 226 ;
227 [label=<gini = 0.0<br/>samples = 3<br/>value = [0, 5]<br/>class = 1>, fillcolor="#399de5"] ;
225 -> 227 ;
228 [label=<gini = 0.0<br/>samples = 1<br/>value = [1, 0]<br/>class = 0>, fillcolor="#e58139"] ;
222 -> 228 ;
}