digraph Tree {
node [shape=box, style="filled, rounded", color="black", fontname="helvetica"] ;
edge [fontname="helvetica"] ;
0 [label=<Age &le; 24.5<br/>gini = 0.475<br/>samples = 392<br/>value = [376.0, 238.0]<br/>class = 0>, fillcolor="#f5d1b6"] ;
1 [label=<BMI &le; 32.7<br/>gini = 0.214<br/>samples = 117<br/>value = [159, 22]<br/>class = 0>, fillcolor="#e99254"] ;
0 -> 1 [labeldistance=2.5, labelangle=45, headlabel="True"] ;
2 [label=<Pregnancies &le; 2.5<br/>gini = 0.05<br/>samples = 78<br/>value = [114, 3]<br/>class = 0>, fillcolor="#e6843e"] ;
1 -> 2 ;
3 [label=<Age &le; 23.5<br/>gini = 0.02<br/>samples = 63<br/>value = [96, 1]<br/>class = 0>, fillcolor="#e5823b"] ;
2 -> 3 ;
4 [label=<gini = 0.0<br/>samples = 55<br/>value = [87, 0]<br/>class = 0>, fillcolor="#e58139"] ;
3 -> 4 ;
5 [label=<BMI &le; 32.0<br/>gini = 0.18<br/>samples = 8<br/>value = [9, 1]<br/>class = 0>, fillcolor="#e88f4f"] ;
3 -> 5 ;
6 [label=<gini = 0.0<br/>samples = 7<br/>value = [9, 0]<br/>class = 0>, fillcolor="#e58139"] ;
5 -> 6 ;
7 [label=<gini = 0.0<br/>samples = 1<br/>value = [0, 1]<br/>class = 1>, fillcolor="#399de5"] ;
5 -> 7 ;
8 [label=<BMI &le; 26.55<br/>gini = 0.18<br/>samples = 15<br/>value = [18, 2]<br/>class = 0>, fillcolor="#e88f4f"] ;
2 -> 8 ;
9 [label=<Glucose &le; 134.5<br/>gini = 0.346<br/>samples = 8<br/>value = [7, 2]<br/>class = 0>, fillcolor="#eca572"] ;
8 -> 9 ;
10 [label=<Age &le; 22.5<br/>gini = 0.219<br/>samples = 7<br/>value = [7, 1]<br/>class = 0>, fillcolor="#e99355"] ;
9 -> 10 ;
11 [label=<gini = 0.0<br/>samples = 6<br/>value = [7, 0]<br/>class = 0>, fillcolor="#e58139"] ;
10 -> 11 ;
12 [label=<gini = 0.0<br/>samples = 1<br/>value = [0, 1]<br/>class = 1>, fillcolor="#399de5"] ;
10 -> 12 ;
13 [label=<gini = 0.0<br/>samples = 1<br/>value = [0, 1]<br/>class = 1>, fillcolor="#399de5"] ;
9 -> 13 ;
14 [label=<gini = 0.0<br/>samples = 7<br/>value = [11, 0]<br/>class = 0>, fillcolor="#e58139"] ;
8 -> 14 ;
15 [label=<BMI &le; 33.0<br/>gini = 0.417<br/>samples = 39<br/>value = [45, 19]<br/>class = 0>, fillcolor="#f0b68d"] ;
1 -> 15 ;
16 [label=<gini = 0.0<br/>samples = 1<br/>value = [0, 2]<br/>class = 1>, fillcolor="#399de5"] ;
15 -> 16 ;
17 [label=<Age &le; 21.5<br/>gini = 0.398<br/>samples = 38<br/>value = [45, 17]<br/>class = 0>, fillcolor="#efb184"] ;
15 -> 17 ;
18 [label=<Glucose &le; 107.5<br/>gini = 0.5<br/>samples = 8<br/>value = [7, 7]<br/>class = 0>, fillcolor="#ffffff"] ;
17 -> 18 ;
19 [label=<gini = 0.0<br/>samples = 4<br/>value = [5, 0]<br/>class = 0>, fillcolor="#e58139"] ;
18 -> 19 ;
20 [label=<Glucose &le; 126.0<br/>gini = 0.346<br/>samples = 4<br/>value = [2, 7]<br/>class = 1>, fillcolor="#72b9ec"] ;
18 -> 20 ;
21 [label=<Glucose &le; 113.5<br/>gini = 0.5<br/>samples = 2<br/>value = [2, 2]<br/>class = 0>, fillcolor="#ffffff"] ;
20 -> 21 ;
22 [label=<gini = 0.0<br/>samples = 1<br/>value = [0, 2]<br/>class = 1>, fillcolor="#399de5"] ;
21 -> 22 ;
23 [label=<gini = 0.0<br/>samples = 1<br/>value = [2, 0]<br/>class = 0>, fillcolor="#e58139"] ;
21 -> 23 ;
24 [label=<gini = 0.0<br/>samples = 2<br/>value = [0, 5]<br/>class = 1>, fillcolor="#399de5"] ;
20 -> 24 ;
25 [label=<Glucose &le; 168.0<br/>gini = 0.33<br/>samples = 30<br/>value = [38, 10]<br/>class = 0>, fillcolor="#eca26d"] ;
17 -> 25 ;
26 [label=<Glucose &le; 127.5<br/>gini = 0.263<br/>samples = 28<br/>value = [38, 7]<br/>class = 0>, fillcolor="#ea985d"] ;
25 -> 26 ;
27 [label=<Glucose &le; 94.0<br/>gini = 0.161<br/>samples = 19<br/>value = [31, 3]<br/>class = 0>, fillcolor="#e88d4c"] ;
26 -> 27 ;
28 [label=<Glucose &le; 92.0<br/>gini = 0.397<br/>samples = 6<br/>value = [8, 3]<br/>class = 0>, fillcolor="#efb083"] ;
27 -> 28 ;
29 [label=<gini = 0.0<br/>samples = 5<br/>value = [8, 0]<br/>class = 0>, fillcolor="#e58139"] ;
28 -> 29 ;
30 [label=<gini = 0.0<br/>samples = 1<br/>value = [0, 3]<br/>class = 1>, fillcolor="#399de5"] ;
28 -> 30 ;
31 [label=<gini = 0.0<br/>samples = 13<br/>value = [23, 0]<br/>class = 0>, fillcolor="#e58139"] ;
27 -> 31 ;
32 [label=<Glucose &le; 128.5<br/>gini = 0.463<br/>samples = 9<br/>value = [7, 4]<br/>class = 0>, fillcolor="#f4c9aa"] ;
26 -> 32 ;
33 [label=<gini = 0.0<br/>samples = 1<br/>value = [0, 2]<br/>class = 1>, fillcolor="#399de5"] ;
32 -> 33 ;
34 [label=<Glucose &le; 142.5<br/>gini = 0.346<br/>samples = 8<br/>value = [7, 2]<br/>class = 0>, fillcolor="#eca572"] ;
32 -> 34 ;
35 [label=<BMI &le; 39.85<br/>gini = 0.444<br/>samples = 5<br/>value = [4, 2]<br/>class = 0>, fillcolor="#f2c09c"] ;
34 -> 35 ;
36 [label=<gini = 0.0<br/>samples = 3<br/>value = [4, 0]<br/>class = 0>, fillcolor="#e58139"] ;
35 -> 36 ;
37 [label=<gini = 0.0<br/>samples = 2<br/>value = [0, 2]<br/>class = 1>, fillcolor="#399de5"] ;
35 -> 37 ;
38 [label=<gini = 0.0<br/>samples = 3<br/>value = [3, 0]<br/>class = 0>, fillcolor="#e58139"] ;
34 -> 38 ;
39 [label=<gini = 0.0<br/>samples = 2<br/>value = [0, 3]<br/>class = 1>, fillcolor="#399de5"] ;
25 -> 39 ;
40 [label=<Glucose &le; 123.5<br/>gini = 0.5<br/>samples = 275<br/>value = [217.0, 216.0]<br/>class = 0>, fillcolor="#fffefe"] ;
0 -> 40 [labeldistance=2.5, labelangle=-45, headlabel="False"] ;
41 [label=<Age &le; 42.5<br/>gini = 0.432<br/>samples = 148<br/>value = [152, 70]<br/>class = 0>, fillcolor="#f1bb94"] ;
40 -> 41 ;
42 [label=<BMI &le; 29.85<br/>gini = 0.391<br/>samples = 120<br/>value = [132, 48]<br/>class = 0>, fillcolor="#eeaf81"] ;
41 -> 42 ;
43 [label=<Pregnancies &le; 6.5<br/>gini = 0.114<br/>samples = 45<br/>value = [62, 4]<br/>class = 0>, fillcolor="#e78946"] ;
42 -> 43 ;
44 [label=<gini = 0.0<br/>samples = 37<br/>value = [56, 0]<br/>class = 0>, fillcolor="#e58139"] ;
43 -> 44 ;
45 [label=<BMI &le; 26.2<br/>gini = 0.48<br/>samples = 8<br/>value = [6, 4]<br/>class = 0>, fillcolor="#f6d5bd"] ;
43 -> 45 ;
46 [label=<gini = 0.0<br/>samples = 5<br/>value = [6, 0]<br/>class = 0>, fillcolor="#e58139"] ;
45 -> 46 ;
47 [label=<gini = 0.0<br/>samples = 3<br/>value = [0, 4]<br/>class = 1>, fillcolor="#399de5"] ;
45 -> 47 ;
48 [label=<BMI &le; 48.25<br/>gini = 0.474<br/>samples = 75<br/>value = [70, 44]<br/>class = 0>, fillcolor="#f5d0b5"] ;
42 -> 48 ;
49 [label=<BMI &le; 31.1<br/>gini = 0.463<br/>samples = 72<br/>value = [70, 40]<br/>class = 0>, fillcolor="#f4c9aa"] ;
48 -> 49 ;
50 [label=<Age &le; 30.0<br/>gini = 0.408<br/>samples = 4<br/>value = [2, 5]<br/>class = 1>, fillcolor="#88c4ef"] ;
49 -> 50 ;
51 [label=<gini = 0.0<br/>samples = 1<br/>value = [0, 3]<br/>class = 1>, fillcolor="#399de5"] ;
50 -> 51 ;
52 [label=<Age &le; 38.0<br/>gini = 0.5<br/>samples = 3<br/>value = [2, 2]<br/>class = 0>, fillcolor="#ffffff"] ;
50 -> 52 ;
53 [label=<gini = 0.0<br/>samples = 2<br/>value = [2, 0]<br/>class = 0>, fillcolor="#e58139"] ;
52 -> 53 ;
54 [label=<gini = 0.0<br/>samples = 1<br/>value = [0, 2]<br/>class = 1>, fillcolor="#399de5"] ;
52 -> 54 ;
55 [label=<Glucose &le; 89.5<br/>gini = 0.449<br/>samples = 68<br/>value = [68, 35]<br/>class = 0>, fillcolor="#f2c29f"] ;
49 -> 55 ;
56 [label=<Glucose &le; 28.5<br/>gini = 0.188<br/>samples = 12<br/>value = [17, 2]<br/>class = 0>, fillcolor="#e89050"] ;
55 -> 56 ;
57 [label=<gini = 0.0<br/>samples = 1<br/>value = [0, 2]<br/>class = 1>, fillcolor="#399de5"] ;
56 -> 57 ;
58 [label=<gini = 0.0<br/>samples = 11<br/>value = [17, 0]<br/>class = 0>, fillcolor="#e58139"] ;
56 -> 58 ;
59 [label=<Age &le; 28.5<br/>gini = 0.477<br/>samples = 56<br/>value = [51.0, 33.0]<br/>class = 0>, fillcolor="#f6d3b9"] ;
55 -> 59 ;
60 [label=<Glucose &le; 92.5<br/>gini = 0.375<br/>samples = 23<br/>value = [24, 8]<br/>class = 0>, fillcolor="#eeab7b"] ;
59 -> 60 ;
61 [label=<gini = 0.0<br/>samples = 1<br/>value = [0, 2]<br/>class = 1>, fillcolor="#399de5"] ;
60 -> 61 ;
62 [label=<Pregnancies &le; 2.5<br/>gini = 0.32<br/>samples = 22<br/>value = [24, 6]<br/>class = 0>, fillcolor="#eca06a"] ;
60 -> 62 ;
63 [label=<BMI &le; 33.35<br/>gini = 0.18<br/>samples = 15<br/>value = [18, 2]<br/>class = 0>, fillcolor="#e88f4f"] ;
62 -> 63 ;
64 [label=<gini = 0.0<br/>samples = 1<br/>value = [0, 2]<br/>class = 1>, fillcolor="#399de5"] ;
63 -> 64 ;
65 [label=<gini = 0.0<br/>samples = 14<br/>value = [18, 0]<br/>class = 0>, fillcolor="#e58139"] ;
63 -> 65 ;
66 [label=<Age &le; 25.5<br/>gini = 0.48<br/>samples = 7<br/>value = [6, 4]<br/>class = 0>, fillcolor="#f6d5bd"] ;
62 -> 66 ;
67 [label=<gini = 0.0<br/>samples = 2<br/>value = [0, 4]<br/>class = 1>, fillcolor="#399de5"] ;
66 -> 67 ;
68 [label=<gini = 0.0<br/>samples = 5<br/>value = [6, 0]<br/>class = 0>, fillcolor="#e58139"] ;
66 -> 68 ;
69 [label=<Age &le; 37.0<br/>gini = 0.499<br/>samples = 33<br/>value = [27.0, 25.0]<br/>class = 0>, fillcolor="#fdf6f0"] ;
59 -> 69 ;
70 [label=<Pregnancies &le; 6.5<br/>gini = 0.48<br/>samples = 22<br/>value = [14, 21]<br/>class = 1>, fillcolor="#bddef6"] ;
69 -> 70 ;
71 [label=<Glucose &le; 119.5<br/>gini = 0.499<br/>samples = 18<br/>value = [14, 13]<br/>class = 0>, fillcolor="#fdf6f1"] ;
70 -> 71 ;
72 [label=<Glucose &le; 102.5<br/>gini = 0.444<br/>samples = 11<br/>value = [5, 10]<br/>class = 1>, fillcolor="#9ccef2"] ;
71 -> 72 ;
73 [label=<Pregnancies &le; 2.0<br/>gini = 0.32<br/>samples = 5<br/>value = [4, 1]<br/>class = 0>, fillcolor="#eca06a"] ;
72 -> 73 ;
74 [label=<gini = 0.0<br/>samples = 2<br/>value = [2, 0]<br/>class = 0>, fillcolor="#e58139"] ;
73 -> 74 ;
75 [label=<BMI &le; 32.4<br/>gini = 0.444<br/>samples = 3<br/>value = [2, 1]<br/>class = 0>, fillcolor="#f2c09c"] ;
73 -> 75 ;
76 [label=<gini = 0.0<br/>samples = 1<br/>value = [0, 1]<br/>class = 1>, fillcolor="#399de5"] ;
75 -> 76 ;
77 [label=<gini = 0.0<br/>samples = 2<br/>value = [2, 0]<br/>class = 0>, fillcolor="#e58139"] ;
75 -> 77 ;
78 [label=<Age &le; 32.5<br/>gini = 0.18<br/>samples = 6<br/>value = [1, 9]<br/>class = 1>, fillcolor="#4fa8e8"] ;
72 -> 78 ;
79 [label=<gini = 0.0<br/>samples = 4<br/>value = [0, 7]<br/>class = 1>, fillcolor="#399de5"] ;
78 -> 79 ;
80 [label=<BMI &le; 34.2<br/>gini = 0.444<br/>samples = 2<br/>value = [1, 2]<br/>class = 1>, fillcolor="#9ccef2"] ;
78 -> 80 ;
81 [label=<gini = 0.0<br/>samples = 1<br/>value = [0, 2]<br/>class = 1>, fillcolor="#399de5"] ;
80 -> 81 ;
82 [label=<gini = 0.0<br/>samples = 1<br/>value = [1, 0]<br/>class = 0>, fillcolor="#e58139"] ;
80 -> 82 ;
83 [label=<Pregnancies &le; 4.5<br/>gini = 0.375<br/>samples = 7<br/>value = [9, 3]<br/>class = 0>, fillcolor="#eeab7b"] ;
71 -> 83 ;
84 [label=<BMI &le; 35.15<br/>gini = 0.49<br/>samples = 5<br/>value = [4, 3]<br/>class = 0>, fillcolor="#f8e0ce"] ;
83 -> 84 ;
85 [label=<gini = 0.0<br/>samples = 3<br/>value = [0, 3]<br/>class = 1>, fillcolor="#399de5"] ;
84 -> 85 ;
86 [label=<gini = 0.0<br/>samples = 2<br/>value = [4, 0]<br/>class = 0>, fillcolor="#e58139"] ;
84 -> 86 ;
87 [label=<gini = 0.0<br/>samples = 2<br/>value = [5, 0]<br/>class = 0>, fillcolor="#e58139"] ;
83 -> 87 ;
88 [label=<gini = 0.0<br/>samples = 4<br/>value = [0, 8]<br/>class = 1>, fillcolor="#399de5"] ;
70 -> 88 ;
89 [label=<BMI &le; 34.3<br/>gini = 0.36<br/>samples = 11<br/>value = [13, 4]<br/>class = 0>, fillcolor="#eda876"] ;
69 -> 89 ;
90 [label=<gini = 0.0<br/>samples = 4<br/>value = [6, 0]<br/>class = 0>, fillcolor="#e58139"] ;
89 -> 90 ;
91 [label=<BMI &le; 35.9<br/>gini = 0.463<br/>samples = 7<br/>value = [7, 4]<br/>class = 0>, fillcolor="#f4c9aa"] ;
89 -> 91 ;
92 [label=<gini = 0.0<br/>samples = 1<br/>value = [0, 2]<br/>class = 1>, fillcolor="#399de5"] ;
91 -> 92 ;
93 [label=<Age &le; 40.5<br/>gini = 0.346<br/>samples = 6<br/>value = [7, 2]<br/>class = 0>, fillcolor="#eca572"] ;
91 -> 93 ;
94 [label=<gini = 0.0<br/>samples = 2<br/>value = [3, 0]<br/>class = 0>, fillcolor="#e58139"] ;
93 -> 94 ;
95 [label=<Age &le; 41.5<br/>gini = 0.444<br/>samples = 4<br/>value = [4, 2]<br/>class = 0>, fillcolor="#f2c09c"] ;
93 -> 95 ;
96 [label=<Pregnancies &le; 3.0<br/>gini = 0.375<br/>samples = 2<br/>value = [3, 1]<br/>class = 0>, fillcolor="#eeab7b"] ;
95 -> 96 ;
97 [label=<gini = 0.0<br/>samples = 1<br/>value = [3, 0]<br/>class = 0>, fillcolor="#e58139"] ;
96 -> 97 ;
98 [label=<gini = 0.0<br/>samples = 1<br/>value = [0, 1]<br/>class = 1>, fillcolor="#399de5"] ;
96 -> 98 ;
99 [label=<Pregnancies &le; 3.0<br/>gini = 0.5<br/>samples = 2<br/>value = [1, 1]<br/>class = 0>, fillcolor="#ffffff"] ;
95 -> 99 ;
100 [label=<gini = 0.0<br/>samples = 1<br/>value = [0, 1]<br/>class = 1>, fillcolor="#399de5"] ;
99 -> 100 ;
101 [label=<gini = 0.0<br/>samples = 1<br/>value = [1, 0]<br/>class = 0>, fillcolor="#e58139"] ;
99 -> 101 ;
102 [label=<gini = 0.0<br/>samples = 3<br/>value = [0, 4]<br/>class = 1>, fillcolor="#399de5"] ;
48 -> 102 ;
103 [label=<BMI &le; 26.0<br/>gini = 0.499<br/>samples = 28<br/>value = [20, 22]<br/>class = 1>, fillcolor="#edf6fd"] ;
41 -> 103 ;
104 [label=<gini = 0.0<br/>samples = 6<br/>value = [7, 0]<br/>class = 0>, fillcolor="#e58139"] ;
103 -> 104 ;
105 [label=<Age &le; 57.0<br/>gini = 0.467<br/>samples = 22<br/>value = [13, 22]<br/>class = 1>, fillcolor="#aed7f4"] ;
103 -> 105 ;
106 [label=<Age &le; 44.5<br/>gini = 0.43<br/>samples = 19<br/>value = [10, 22]<br/>class = 1>, fillcolor="#93caf1"] ;
105 -> 106 ;
107 [label=<gini = 0.0<br/>samples = 3<br/>value = [0, 7]<br/>class = 1>, fillcolor="#399de5"] ;
106 -> 107 ;
108 [label=<Glucose &le; 75.5<br/>gini = 0.48<br/>samples = 16<br/>value = [10, 15]<br/>class = 1>, fillcolor="#bddef6"] ;
106 -> 108 ;
109 [label=<gini = 0.0<br/>samples = 2<br/>value = [4, 0]<br/>class = 0>, fillcolor="#e58139"] ;
108 -> 109 ;
110 [label=<Pregnancies &le; 8.0<br/>gini = 0.408<br/>samples = 14<br/>value = [6, 15]<br/>class = 1>, fillcolor="#88c4ef"] ;
108 -> 110 ;
111 [label=<Age &le; 49.0<br/>gini = 0.494<br/>samples = 6<br/>value = [5, 4]<br/>class = 0>, fillcolor="#fae6d7"] ;
110 -> 111 ;
112 [label=<gini = 0.0<br/>samples = 3<br/>value = [5, 0]<br/>class = 0>, fillcolor="#e58139"] ;
111 -> 112 ;
113 [label=<gini = 0.0<br/>samples = 3<br/>value = [0, 4]<br/>class = 1>, fillcolor="#399de5"] ;
111 -> 113 ;
114 [label=<Glucose &le; 89.0<br/>gini = 0.153<br/>samples = 8<br/>value = [1, 11]<br/>class = 1>, fillcolor="#4ba6e7"] ;
110 -> 114 ;
115 [label=<BMI &le; 32.5<br/>gini = 0.444<br/>samples = 2<br/>value = [1, 2]<br/>class = 1>, fillcolor="#9ccef2"] ;
114 -> 115 ;
116 [label=<gini = 0.0<br/>samples = 1<br/>value = [0, 2]<br/>class = 1>, fillcolor="#399de5"] ;
115 -> 116 ;
117 [label=<gini = 0.0<br/>samples = 1<br/>value = [1, 0]<br/>class = 0>, fillcolor="#e58139"] ;
115 -> 117 ;
118 [label=<gini = 0.0<br/>samples = 6<br/>value = [0, 9]<br/>class = 1>, fillcolor="#399de5"] ;
114 -> 118 ;
119 [label=<gini = 0.0<br/>samples = 3<br/>value = [3, 0]<br/>class = 0>, fillcolor="#e58139"] ;
105 -> 119 ;
120 [label=<Age &le; 60.5<br/>gini = 0.426<br/>samples = 127<br/>value = [65, 146]<br/>class = 1>, fillcolor="#91c9f1"] ;
40 -> 120 ;
121 [label=<Age &le; 37.5<br/>gini = 0.408<br/>samples = 118<br/>value = [56, 140]<br/>class = 1>, fillcolor="#88c4ef"] ;
120 -> 121 ;
122 [label=<Age &le; 36.5<br/>gini = 0.469<br/>samples = 64<br/>value = [39, 65]<br/>class = 1>, fillcolor="#b0d8f5"] ;
121 -> 122 ;
123 [label=<Pregnancies &le; 3.5<br/>gini = 0.402<br/>samples = 55<br/>value = [24.0, 62.0]<br/>class = 1>, fillcolor="#86c3ef"] ;
122 -> 123 ;
124 [label=<Pregnancies &le; 2.5<br/>gini = 0.147<br/>samples = 32<br/>value = [4, 46]<br/>class = 1>, fillcolor="#4aa6e7"] ;
123 -> 124 ;
125 [label=<Glucose &le; 141.0<br/>gini = 0.198<br/>samples = 21<br/>value = [4, 32]<br/>class = 1>, fillcolor="#52a9e8"] ;
124 -> 125 ;
126 [label=<Age &le; 29.5<br/>gini = 0.375<br/>samples = 6<br/>value = [2, 6]<br/>class = 1>, fillcolor="#7bbeee"] ;
125 -> 126 ;
127 [label=<Age &le; 26.0<br/>gini = 0.444<br/>samples = 3<br/>value = [2, 1]<br/>class = 0>, fillcolor="#f2c09c"] ;
126 -> 127 ;
128 [label=<gini = 0.0<br/>samples = 1<br/>value = [0, 1]<br/>class = 1>, fillcolor="#399de5"] ;
127 -> 128 ;
129 [label=<gini = 0.0<br/>samples = 2<br/>value = [2, 0]<br/>class = 0>, fillcolor="#e58139"] ;
127 -> 129 ;
130 [label=<gini = 0.0<br/>samples = 3<br/>value = [0, 5]<br/>class = 1>, fillcolor="#399de5"] ;
126 -> 130 ;
131 [label=<Pregnancies &le; 1.5<br/>gini = 0.133<br/>samples = 15<br/>value = [2, 26]<br/>class = 1>, fillcolor="#48a5e7"] ;
125 -> 131 ;
132 [label=<Glucose &le; 166.0<br/>gini = 0.18<br/>samples = 11<br/>value = [2, 18]<br/>class = 1>, fillcolor="#4fa8e8"] ;
131 -> 132 ;
133 [label=<Glucose &le; 164.0<br/>gini = 0.32<br/>samples = 6<br/>value = [2, 8]<br/>class = 1>, fillcolor="#6ab6ec"] ;
132 -> 133 ;
134 [label=<BMI &le; 33.8<br/>gini = 0.198<br/>samples = 5<br/>value = [1, 8]<br/>class = 1>, fillcolor="#52a9e8"] ;
133 -> 134 ;
135 [label=<gini = 0.0<br/>samples = 1<br/>value = [1, 0]<br/>class = 0>, fillcolor="#e58139"] ;
134 -> 135 ;
136 [label=<gini = 0.0<br/>samples = 4<br/>value = [0, 8]<br/>class = 1>, fillcolor="#399de5"] ;
134 -> 136 ;
137 [label=<gini = 0.0<br/>samples = 1<br/>value = [1, 0]<br/>class = 0>, fillcolor="#e58139"] ;
133 -> 137 ;
138 [label=<gini = 0.0<br/>samples = 5<br/>value = [0, 10]<br/>class = 1>, fillcolor="#399de5"] ;
132 -> 138 ;
139 [label=<gini = 0.0<br/>samples = 4<br/>value = [0, 8]<br/>class = 1>, fillcolor="#399de5"] ;
131 -> 139 ;
140 [label=<gini = 0.0<br/>samples = 11<br/>value = [0, 14]<br/>class = 1>, fillcolor="#399de5"] ;
124 -> 140 ;
141 [label=<Pregnancies &le; 6.5<br/>gini = 0.494<br/>samples = 23<br/>value = [20, 16]<br/>class = 0>, fillcolor="#fae6d7"] ;
123 -> 141 ;
142 [label=<Age &le; 26.5<br/>gini = 0.452<br/>samples = 19<br/>value = [19, 10]<br/>class = 0>, fillcolor="#f3c3a1"] ;
141 -> 142 ;
143 [label=<gini = 0.0<br/>samples = 2<br/>value = [0, 3]<br/>class = 1>, fillcolor="#399de5"] ;
142 -> 143 ;
144 [label=<Glucose &le; 160.5<br/>gini = 0.393<br/>samples = 17<br/>value = [19, 7]<br/>class = 0>, fillcolor="#efaf82"] ;
142 -> 144 ;
145 [label=<Glucose &le; 126.0<br/>gini = 0.18<br/>samples = 12<br/>value = [18, 2]<br/>class = 0>, fillcolor="#e88f4f"] ;
144 -> 145 ;
146 [label=<BMI &le; 28.8<br/>gini = 0.444<br/>samples = 3<br/>value = [1, 2]<br/>class = 1>, fillcolor="#9ccef2"] ;
145 -> 146 ;
147 [label=<gini = 0.0<br/>samples = 1<br/>value = [0, 1]<br/>class = 1>, fillcolor="#399de5"] ;
146 -> 147 ;
148 [label=<Age &le; 29.5<br/>gini = 0.5<br/>samples = 2<br/>value = [1, 1]<br/>class = 0>, fillcolor="#ffffff"] ;
146 -> 148 ;
149 [label=<gini = 0.0<br/>samples = 1<br/>value = [0, 1]<br/>class = 1>, fillcolor="#399de5"] ;
148 -> 149 ;
150 [label=<gini = 0.0<br/>samples = 1<br/>value = [1, 0]<br/>class = 0>, fillcolor="#e58139"] ;
148 -> 150 ;
151 [label=<gini = 0.0<br/>samples = 9<br/>value = [17, 0]<br/>class = 0>, fillcolor="#e58139"] ;
145 -> 151 ;
152 [label=<Glucose &le; 196.0<br/>gini = 0.278<br/>samples = 5<br/>value = [1, 5]<br/>class = 1>, fillcolor="#61b1ea"] ;
144 -> 152 ;
153 [label=<gini = 0.0<br/>samples = 4<br/>value = [0, 5]<br/>class = 1>, fillcolor="#399de5"] ;
152 -> 153 ;
154 [label=<gini = 0.0<br/>samples = 1<br/>value = [1, 0]<br/>class = 0>, fillcolor="#e58139"] ;
152 -> 154 ;
155 [label=<Glucose &le; 137.5<br/>gini = 0.245<br/>samples = 4<br/>value = [1, 6]<br/>class = 1>, fillcolor="#5aade9"] ;
141 -> 155 ;
156 [label=<gini = 0.0<br/>samples = 1<br/>value = [1, 0]<br/>class = 0>, fillcolor="#e58139"] ;
155 -> 156 ;
157 [label=<gini = 0.0<br/>samples = 3<br/>value = [0, 6]<br/>class = 1>, fillcolor="#399de5"] ;
155 -> 157 ;
158 [label=<BMI &le; 35.8<br/>gini = 0.278<br/>samples = 9<br/>value = [15, 3]<br/>class = 0>, fillcolor="#ea9a61"] ;
122 -> 158 ;
159 [label=<gini = 0.0<br/>samples = 5<br/>value = [12, 0]<br/>class = 0>, fillcolor="#e58139"] ;
158 -> 159 ;
160 [label=<BMI &le; 39.65<br/>gini = 0.5<br/>samples = 4<br/>value = [3, 3]<br/>class = 0>, fillcolor="#ffffff"] ;
158 -> 160 ;
161 [label=<gini = 0.0<br/>samples = 3<br/>value = [0, 3]<br/>class = 1>, fillcolor="#399de5"] ;
160 -> 161 ;
162 [label=<gini = 0.0<br/>samples = 1<br/>value = [3, 0]<br/>class = 0>, fillcolor="#e58139"] ;
160 -> 162 ;
163 [label=<Glucose &le; 159.5<br/>gini = 0.301<br/>samples = 54<br/>value = [17, 75]<br/>class = 1>, fillcolor="#66b3eb"] ;
121 -> 163 ;
164 [label=<BMI &le; 27.5<br/>gini = 0.408<br/>samples = 33<br/>value = [16, 40]<br/>class = 1>, fillcolor="#88c4ef"] ;
163 -> 164 ;
165 [label=<Pregnancies &le; 7.5<br/>gini = 0.397<br/>samples = 7<br/>value = [8, 3]<br/>class = 0>, fillcolor="#efb083"] ;
164 -> 165 ;
166 [label=<gini = 0.0<br/>samples = 3<br/>value = [6, 0]<br/>class = 0>, fillcolor="#e58139"] ;
165 -> 166 ;
167 [label=<BMI &le; 23.5<br/>gini = 0.48<br/>samples = 4<br/>value = [2, 3]<br/>class = 1>, fillcolor="#bddef6"] ;
165 -> 167 ;
168 [label=<Glucose &le; 135.0<br/>gini = 0.444<br/>samples = 2<br/>value = [2, 1]<br/>class = 0>, fillcolor="#f2c09c"] ;
167 -> 168 ;
169 [label=<gini = 0.0<br/>samples = 1<br/>value = [0, 1]<br/>class = 1>, fillcolor="#399de5"] ;
168 -> 169 ;
170 [label=<gini = 0.0<br/>samples = 1<br/>value = [2, 0]<br/>class = 0>, fillcolor="#e58139"] ;
168 -> 170 ;
171 [label=<gini = 0.0<br/>samples = 2<br/>value = [0, 2]<br/>class = 1>, fillcolor="#399de5"] ;
167 -> 171 ;
172 [label=<BMI &le; 38.2<br/>gini = 0.292<br/>samples = 26<br/>value = [8, 37]<br/>class = 1>, fillcolor="#64b2eb"] ;
164 -> 172 ;
173 [label=<Glucose &le; 151.5<br/>gini = 0.149<br/>samples = 19<br/>value = [3, 34]<br/>class = 1>, fillcolor="#4aa6e7"] ;
172 -> 173 ;
174 [label=<Pregnancies &le; 11.5<br/>gini = 0.108<br/>samples = 17<br/>value = [2, 33]<br/>class = 1>, fillcolor="#45a3e7"] ;
173 -> 174 ;
175 [label=<BMI &le; 37.1<br/>gini = 0.059<br/>samples = 15<br/>value = [1, 32]<br/>class = 1>, fillcolor="#3fa0e6"] ;
174 -> 175 ;
176 [label=<gini = 0.0<br/>samples = 12<br/>value = [0, 25]<br/>class = 1>, fillcolor="#399de5"] ;
175 -> 176 ;
177 [label=<Glucose &le; 135.0<br/>gini = 0.219<br/>samples = 3<br/>value = [1, 7]<br/>class = 1>, fillcolor="#55abe9"] ;
175 -> 177 ;
178 [label=<gini = 0.0<br/>samples = 1<br/>value = [1, 0]<br/>class = 0>, fillcolor="#e58139"] ;
177 -> 178 ;
179 [label=<gini = 0.0<br/>samples = 2<br/>value = [0, 7]<br/>class = 1>, fillcolor="#399de5"] ;
177 -> 179 ;
180 [label=<Pregnancies &le; 13.5<br/>gini = 0.5<br/>samples = 2<br/>value = [1, 1]<br/>class = 0>, fillcolor="#ffffff"] ;
174 -> 180 ;
181 [label=<gini = 0.0<br/>samples = 1<br/>value = [1, 0]<br/>class = 0>, fillcolor="#e58139"] ;
180 -> 181 ;
182 [label=<gini = 0.0<br/>samples = 1<br/>value = [0, 1]<br/>class = 1>, fillcolor="#399de5"] ;
180 -> 182 ;
183 [label=<Glucose &le; 154.5<br/>gini = 0.5<br/>samples = 2<br/>value = [1, 1]<br/>class = 0>, fillcolor="#ffffff"] ;
173 -> 183 ;
184 [label=<gini = 0.0<br/>samples = 1<br/>value = [1, 0]<br/>class = 0>, fillcolor="#e58139"] ;
183 -> 184 ;
185 [label=<gini = 0.0<br/>samples = 1<br/>value = [0, 1]<br/>class = 1>, fillcolor="#399de5"] ;
183 -> 185 ;
186 [label=<Pregnancies &le; 7.5<br/>gini = 0.469<br/>samples = 7<br/>value = [5, 3]<br/>class = 0>, fillcolor="#f5cdb0"] ;
172 -> 186 ;
187 [label=<Age &le; 42.0<br/>gini = 0.48<br/>samples = 5<br/>value = [2, 3]<br/>class = 1>, fillcolor="#bddef6"] ;
186 -> 187 ;
188 [label=<gini = 0.0<br/>samples = 1<br/>value = [1, 0]<br/>class = 0>, fillcolor="#e58139"] ;
187 -> 188 ;
189 [label=<Pregnancies &le; 5.5<br/>gini = 0.375<br/>samples = 4<br/>value = [1, 3]<br/>class = 1>, fillcolor="#7bbeee"] ;
187 -> 189 ;
190 [label=<gini = 0.0<br/>samples = 1<br/>value = [1, 0]<br/>class = 0>, fillcolor="#e58139"] ;
189 -> 190 ;
191 [label=<gini = 0.0<br/>samples = 3<br/>value = [0, 3]<br/>class = 1>, fillcolor="#399de5"] ;
189 -> 191 ;
192 [label=<gini = 0.0<br/>samples = 2<br/>value = [3, 0]<br/>class = 0>, fillcolor="#e58139"] ;
186 -> 192 ;
193 [label=<Glucose &le; 162.5<br/>gini = 0.054<br/>samples = 21<br/>value = [1, 35]<br/>class = 1>, fillcolor="#3fa0e6"] ;
163 -> 193 ;
194 [label=<Age &le; 53.0<br/>gini = 0.245<br/>samples = 5<br/>value = [1, 6]<br/>class = 1>, fillcolor="#5aade9"] ;
193 -> 194 ;
195 [label=<gini = 0.0<br/>samples = 4<br/>value = [0, 6]<br/>class = 1>, fillcolor="#399de5"] ;
194 -> 195 ;
196 [label=<gini = 0.0<br/>samples = 1<br/>value = [1, 0]<br/>class = 0>, fillcolor="#e58139"] ;
194 -> 196 ;
197 [label=<gini = 0.0<br/>samples = 16<br/>value = [0, 29]<br/>class = 1>, fillcolor="#399de5"] ;
193 -> 197 ;
198 [label=<BMI &le; 30.0<br/>gini = 0.48<br/>samples = 9<br/>value = [9, 6]<br/>class = 0>, fillcolor="#f6d5bd"] ;
120 -> 198 ;
199 [label=<gini = 0.0<br/>samples = 5<br/>value = [8, 0]<br/>class = 0>, fillcolor="#e58139"] ;
198 -> 199 ;
200 [label=<Glucose &le; 143.5<br/>gini = 0.245<br/>samples = 4<br/>value = [1, 6]<br/>class = 1>, fillcolor="#5aade9"] ;
198 -> 200 ;
201 [label=<gini = 0.0<br/>samples = 1<br/>value = [1, 0]<br/>class = 0>, fillcolor="#e58139"] ;
200 -> 201 ;
202 [label=<gini = 0.0<br/>samples = 3<br/>value = [0, 6]<br/>class = 1>, fillcolor="#399de5"] ;
200 -> 202 ;
}