digraph Tree {
node [shape=box, style="filled, rounded", color="black", fontname="helvetica"] ;
edge [fontname="helvetica"] ;
0 [label=<BMI &le; 26.3<br/>gini = 0.46<br/>samples = 398<br/>value = [394.0, 220.0]<br/>class = 0>, fillcolor="#f4c7a8"] ;
1 [label=<Glucose &le; 163.5<br/>gini = 0.096<br/>samples = 76<br/>value = [113, 6]<br/>class = 0>, fillcolor="#e68844"] ;
0 -> 1 [labeldistance=2.5, labelangle=45, headlabel="True"] ;
2 [label=<BMI &le; 25.55<br/>gini = 0.051<br/>samples = 71<br/>value = [111, 3]<br/>class = 0>, fillcolor="#e6843e"] ;
1 -> 2 ;
3 [label=<Pregnancies &le; 2.5<br/>gini = 0.022<br/>samples = 57<br/>value = [89, 1]<br/>class = 0>, fillcolor="#e5823b"] ;
2 -> 3 ;
4 [label=<gini = 0.0<br/>samples = 32<br/>value = [52, 0]<br/>class = 0>, fillcolor="#e58139"] ;
3 -> 4 ;
5 [label=<BMI &le; 22.95<br/>gini = 0.051<br/>samples = 25<br/>value = [37, 1]<br/>class = 0>, fillcolor="#e6843e"] ;
3 -> 5 ;
6 [label=<BMI &le; 22.8<br/>gini = 0.198<br/>samples = 7<br/>value = [8, 1]<br/>class = 0>, fillcolor="#e89152"] ;
5 -> 6 ;
7 [label=<gini = 0.0<br/>samples = 6<br/>value = [8, 0]<br/>class = 0>, fillcolor="#e58139"] ;
6 -> 7 ;
8 [label=<gini = 0.0<br/>samples = 1<br/>value = [0, 1]<br/>class = 1>, fillcolor="#399de5"] ;
6 -> 8 ;
9 [label=<gini = 0.0<br/>samples = 18<br/>value = [29, 0]<br/>class = 0>, fillcolor="#e58139"] ;
5 -> 9 ;
10 [label=<BMI &le; 25.7<br/>gini = 0.153<br/>samples = 14<br/>value = [22, 2]<br/>class = 0>, fillcolor="#e78c4b"] ;
2 -> 10 ;
11 [label=<Pregnancies &le; 2.0<br/>gini = 0.444<br/>samples = 3<br/>value = [4, 2]<br/>class = 0>, fillcolor="#f2c09c"] ;
10 -> 11 ;
12 [label=<gini = 0.0<br/>samples = 1<br/>value = [3, 0]<br/>class = 0>, fillcolor="#e58139"] ;
11 -> 12 ;
13 [label=<Age &le; 25.0<br/>gini = 0.444<br/>samples = 2<br/>value = [1, 2]<br/>class = 1>, fillcolor="#9ccef2"] ;
11 -> 13 ;
14 [label=<gini = 0.0<br/>samples = 1<br/>value = [0, 2]<br/>class = 1>, fillcolor="#399de5"] ;
13 -> 14 ;
15 [label=<gini = 0.0<br/>samples = 1<br/>value = [1, 0]<br/>class = 0>, fillcolor="#e58139"] ;
13 -> 15 ;
16 [label=<gini = 0.0<br/>samples = 11<br/>value = [18, 0]<br/>class = 0>, fillcolor="#e58139"] ;
10 -> 16 ;
17 [label=<BMI &le; 25.85<br/>gini = 0.48<br/>samples = 5<br/>value = [2, 3]<br/>class = 1>, fillcolor="#bddef6"] ;
1 -> 17 ;
18 [label=<gini = 0.0<br/>samples = 3<br/>value = [0, 3]<br/>class = 1>, fillcolor="#399de5"] ;
17 -> 18 ;
19 [label=<gini = 0.0<br/>samples = 2<br/>value = [2, 0]<br/>class = 0>, fillcolor="#e58139"] ;
17 -> 19 ;
20 [label=<Glucose &le; 107.5<br/>gini = 0.491<br/>samples = 322<br/>value = [281, 214]<br/>class = 0>, fillcolor="#f9e1d0"] ;
0 -> 20 [labeldistance=2.5, labelangle=-45, headlabel="False"] ;
21 [label=<BMI &le; 38.85<br/>gini = 0.317<br/>samples = 112<br/>value = [146, 36]<br/>class = 0>, fillcolor="#eba06a"] ;
20 -> 21 ;
22 [label=<Age &le; 52.0<br/>gini = 0.238<br/>samples = 89<br/>value = [125.0, 20.0]<br/>class = 0>, fillcolor="#e99559"] ;
21 -> 22 ;
23 [label=<Pregnancies &le; 13.5<br/>gini = 0.211<br/>samples = 87<br/>value = [125, 17]<br/>class = 0>, fillcolor="#e99254"] ;
22 -> 23 ;
24 [label=<Age &le; 27.5<br/>gini = 0.191<br/>samples = 86<br/>value = [125, 15]<br/>class = 0>, fillcolor="#e89051"] ;
23 -> 24 ;
25 [label=<Glucose &le; 106.5<br/>gini = 0.051<br/>samples = 48<br/>value = [75, 2]<br/>class = 0>, fillcolor="#e6843e"] ;
24 -> 25 ;
26 [label=<BMI &le; 37.8<br/>gini = 0.027<br/>samples = 45<br/>value = [71, 1]<br/>class = 0>, fillcolor="#e5833c"] ;
25 -> 26 ;
27 [label=<gini = 0.0<br/>samples = 42<br/>value = [67, 0]<br/>class = 0>, fillcolor="#e58139"] ;
26 -> 27 ;
28 [label=<BMI &le; 38.25<br/>gini = 0.32<br/>samples = 3<br/>value = [4, 1]<br/>class = 0>, fillcolor="#eca06a"] ;
26 -> 28 ;
29 [label=<gini = 0.0<br/>samples = 1<br/>value = [0, 1]<br/>class = 1>, fillcolor="#399de5"] ;
28 -> 29 ;
30 [label=<gini = 0.0<br/>samples = 2<br/>value = [4, 0]<br/>class = 0>, fillcolor="#e58139"] ;
28 -> 30 ;
31 [label=<Pregnancies &le; 0.5<br/>gini = 0.32<br/>samples = 3<br/>value = [4, 1]<br/>class = 0>, fillcolor="#eca06a"] ;
25 -> 31 ;
32 [label=<gini = 0.0<br/>samples = 1<br/>value = [0, 1]<br/>class = 1>, fillcolor="#399de5"] ;
31 -> 32 ;
33 [label=<gini = 0.0<br/>samples = 2<br/>value = [4, 0]<br/>class = 0>, fillcolor="#e58139"] ;
31 -> 33 ;
34 [label=<Pregnancies &le; 7.5<br/>gini = 0.328<br/>samples = 38<br/>value = [50, 13]<br/>class = 0>, fillcolor="#eca26c"] ;
24 -> 34 ;
35 [label=<Glucose &le; 94.5<br/>gini = 0.39<br/>samples = 30<br/>value = [36, 13]<br/>class = 0>, fillcolor="#eeae80"] ;
34 -> 35 ;
36 [label=<gini = 0.0<br/>samples = 10<br/>value = [16, 0]<br/>class = 0>, fillcolor="#e58139"] ;
35 -> 36 ;
37 [label=<Pregnancies &le; 6.5<br/>gini = 0.478<br/>samples = 20<br/>value = [20, 13]<br/>class = 0>, fillcolor="#f6d3ba"] ;
35 -> 37 ;
38 [label=<Age &le; 35.0<br/>gini = 0.436<br/>samples = 17<br/>value = [19, 9]<br/>class = 0>, fillcolor="#f1bd97"] ;
37 -> 38 ;
39 [label=<Pregnancies &le; 2.5<br/>gini = 0.245<br/>samples = 13<br/>value = [18, 3]<br/>class = 0>, fillcolor="#e9965a"] ;
38 -> 39 ;
40 [label=<Glucose &le; 105.5<br/>gini = 0.49<br/>samples = 5<br/>value = [4, 3]<br/>class = 0>, fillcolor="#f8e0ce"] ;
39 -> 40 ;
41 [label=<BMI &le; 35.9<br/>gini = 0.375<br/>samples = 3<br/>value = [1, 3]<br/>class = 1>, fillcolor="#7bbeee"] ;
40 -> 41 ;
42 [label=<gini = 0.0<br/>samples = 2<br/>value = [0, 3]<br/>class = 1>, fillcolor="#399de5"] ;
41 -> 42 ;
43 [label=<gini = 0.0<br/>samples = 1<br/>value = [1, 0]<br/>class = 0>, fillcolor="#e58139"] ;
41 -> 43 ;
44 [label=<gini = 0.0<br/>samples = 2<br/>value = [3, 0]<br/>class = 0>, fillcolor="#e58139"] ;
40 -> 44 ;
45 [label=<gini = 0.0<br/>samples = 8<br/>value = [14, 0]<br/>class = 0>, fillcolor="#e58139"] ;
39 -> 45 ;
46 [label=<Pregnancies &le; 0.5<br/>gini = 0.245<br/>samples = 4<br/>value = [1, 6]<br/>class = 1>, fillcolor="#5aade9"] ;
38 -> 46 ;
47 [label=<gini = 0.0<br/>samples = 1<br/>value = [1, 0]<br/>class = 0>, fillcolor="#e58139"] ;
46 -> 47 ;
48 [label=<gini = 0.0<br/>samples = 3<br/>value = [0, 6]<br/>class = 1>, fillcolor="#399de5"] ;
46 -> 48 ;
49 [label=<Glucose &le; 104.0<br/>gini = 0.32<br/>samples = 3<br/>value = [1, 4]<br/>class = 1>, fillcolor="#6ab6ec"] ;
37 -> 49 ;
50 [label=<gini = 0.0<br/>samples = 1<br/>value = [1, 0]<br/>class = 0>, fillcolor="#e58139"] ;
49 -> 50 ;
51 [label=<gini = 0.0<br/>samples = 2<br/>value = [0, 4]<br/>class = 1>, fillcolor="#399de5"] ;
49 -> 51 ;
52 [label=<gini = 0.0<br/>samples = 8<br/>value = [14, 0]<br/>class = 0>, fillcolor="#e58139"] ;
34 -> 52 ;
53 [label=<gini = 0.0<br/>samples = 1<br/>value = [0, 2]<br/>class = 1>, fillcolor="#399de5"] ;
23 -> 53 ;
54 [label=<gini = 0.0<br/>samples = 2<br/>value = [0, 3]<br/>class = 1>, fillcolor="#399de5"] ;
22 -> 54 ;
55 [label=<Age &le; 25.0<br/>gini = 0.491<br/>samples = 23<br/>value = [21, 16]<br/>class = 0>, fillcolor="#f9e1d0"] ;
21 -> 55 ;
56 [label=<gini = 0.0<br/>samples = 8<br/>value = [12, 0]<br/>class = 0>, fillcolor="#e58139"] ;
55 -> 56 ;
57 [label=<Age &le; 45.5<br/>gini = 0.461<br/>samples = 15<br/>value = [9, 16]<br/>class = 1>, fillcolor="#a8d4f4"] ;
55 -> 57 ;
58 [label=<Glucose &le; 40.5<br/>gini = 0.423<br/>samples = 14<br/>value = [7, 16]<br/>class = 1>, fillcolor="#90c8f0"] ;
57 -> 58 ;
59 [label=<gini = 0.0<br/>samples = 2<br/>value = [0, 5]<br/>class = 1>, fillcolor="#399de5"] ;
58 -> 59 ;
60 [label=<Age &le; 42.5<br/>gini = 0.475<br/>samples = 12<br/>value = [7, 11]<br/>class = 1>, fillcolor="#b7dbf6"] ;
58 -> 60 ;
61 [label=<Glucose &le; 84.5<br/>gini = 0.5<br/>samples = 10<br/>value = [7, 7]<br/>class = 0>, fillcolor="#ffffff"] ;
60 -> 61 ;
62 [label=<gini = 0.0<br/>samples = 2<br/>value = [3, 0]<br/>class = 0>, fillcolor="#e58139"] ;
61 -> 62 ;
63 [label=<Pregnancies &le; 6.0<br/>gini = 0.463<br/>samples = 8<br/>value = [4, 7]<br/>class = 1>, fillcolor="#aad5f4"] ;
61 -> 63 ;
64 [label=<Age &le; 28.5<br/>gini = 0.49<br/>samples = 5<br/>value = [4, 3]<br/>class = 0>, fillcolor="#f8e0ce"] ;
63 -> 64 ;
65 [label=<gini = 0.0<br/>samples = 1<br/>value = [0, 2]<br/>class = 1>, fillcolor="#399de5"] ;
64 -> 65 ;
66 [label=<Age &le; 40.0<br/>gini = 0.32<br/>samples = 4<br/>value = [4, 1]<br/>class = 0>, fillcolor="#eca06a"] ;
64 -> 66 ;
67 [label=<gini = 0.0<br/>samples = 3<br/>value = [4, 0]<br/>class = 0>, fillcolor="#e58139"] ;
66 -> 67 ;
68 [label=<gini = 0.0<br/>samples = 1<br/>value = [0, 1]<br/>class = 1>, fillcolor="#399de5"] ;
66 -> 68 ;
69 [label=<gini = 0.0<br/>samples = 3<br/>value = [0, 4]<br/>class = 1>, fillcolor="#399de5"] ;
63 -> 69 ;
70 [label=<gini = 0.0<br/>samples = 2<br/>value = [0, 4]<br/>class = 1>, fillcolor="#399de5"] ;
60 -> 70 ;
71 [label=<gini = 0.0<br/>samples = 1<br/>value = [2, 0]<br/>class = 0>, fillcolor="#e58139"] ;
57 -> 71 ;
72 [label=<Age &le; 30.5<br/>gini = 0.491<br/>samples = 210<br/>value = [135.0, 178.0]<br/>class = 1>, fillcolor="#cfe7f9"] ;
20 -> 72 ;
73 [label=<Glucose &le; 167.5<br/>gini = 0.488<br/>samples = 95<br/>value = [83, 61]<br/>class = 0>, fillcolor="#f8decb"] ;
72 -> 73 ;
74 [label=<Pregnancies &le; 0.5<br/>gini = 0.463<br/>samples = 84<br/>value = [82, 47]<br/>class = 0>, fillcolor="#f4c9aa"] ;
73 -> 74 ;
75 [label=<Age &le; 23.5<br/>gini = 0.466<br/>samples = 16<br/>value = [10, 17]<br/>class = 1>, fillcolor="#add7f4"] ;
74 -> 75 ;
76 [label=<BMI &le; 33.75<br/>gini = 0.463<br/>samples = 8<br/>value = [7, 4]<br/>class = 0>, fillcolor="#f4c9aa"] ;
75 -> 76 ;
77 [label=<gini = 0.0<br/>samples = 4<br/>value = [4, 0]<br/>class = 0>, fillcolor="#e58139"] ;
76 -> 77 ;
78 [label=<Age &le; 22.5<br/>gini = 0.49<br/>samples = 4<br/>value = [3, 4]<br/>class = 1>, fillcolor="#cee6f8"] ;
76 -> 78 ;
79 [label=<Glucose &le; 125.0<br/>gini = 0.32<br/>samples = 3<br/>value = [1, 4]<br/>class = 1>, fillcolor="#6ab6ec"] ;
78 -> 79 ;
80 [label=<gini = 0.0<br/>samples = 1<br/>value = [1, 0]<br/>class = 0>, fillcolor="#e58139"] ;
79 -> 80 ;
81 [label=<gini = 0.0<br/>samples = 2<br/>value = [0, 4]<br/>class = 1>, fillcolor="#399de5"] ;
79 -> 81 ;
82 [label=<gini = 0.0<br/>samples = 1<br/>value = [2, 0]<br/>class = 0>, fillcolor="#e58139"] ;
78 -> 82 ;
83 [label=<Glucose &le; 155.5<br/>gini = 0.305<br/>samples = 8<br/>value = [3, 13]<br/>class = 1>, fillcolor="#67b4eb"] ;
75 -> 83 ;
84 [label=<BMI &le; 31.55<br/>gini = 0.231<br/>samples = 7<br/>value = [2, 13]<br/>class = 1>, fillcolor="#57ace9"] ;
83 -> 84 ;
85 [label=<Age &le; 24.5<br/>gini = 0.5<br/>samples = 2<br/>value = [2, 2]<br/>class = 0>, fillcolor="#ffffff"] ;
84 -> 85 ;
86 [label=<gini = 0.0<br/>samples = 1<br/>value = [2, 0]<br/>class = 0>, fillcolor="#e58139"] ;
85 -> 86 ;
87 [label=<gini = 0.0<br/>samples = 1<br/>value = [0, 2]<br/>class = 1>, fillcolor="#399de5"] ;
85 -> 87 ;
88 [label=<gini = 0.0<br/>samples = 5<br/>value = [0, 11]<br/>class = 1>, fillcolor="#399de5"] ;
84 -> 88 ;
89 [label=<gini = 0.0<br/>samples = 1<br/>value = [1, 0]<br/>class = 0>, fillcolor="#e58139"] ;
83 -> 89 ;
90 [label=<Glucose &le; 111.5<br/>gini = 0.415<br/>samples = 68<br/>value = [72, 30]<br/>class = 0>, fillcolor="#f0b58b"] ;
74 -> 90 ;
91 [label=<Age &le; 24.5<br/>gini = 0.153<br/>samples = 8<br/>value = [11, 1]<br/>class = 0>, fillcolor="#e78c4b"] ;
90 -> 91 ;
92 [label=<gini = 0.0<br/>samples = 5<br/>value = [9, 0]<br/>class = 0>, fillcolor="#e58139"] ;
91 -> 92 ;
93 [label=<Glucose &le; 110.0<br/>gini = 0.444<br/>samples = 3<br/>value = [2, 1]<br/>class = 0>, fillcolor="#f2c09c"] ;
91 -> 93 ;
94 [label=<gini = 0.0<br/>samples = 1<br/>value = [0, 1]<br/>class = 1>, fillcolor="#399de5"] ;
93 -> 94 ;
95 [label=<gini = 0.0<br/>samples = 2<br/>value = [2, 0]<br/>class = 0>, fillcolor="#e58139"] ;
93 -> 95 ;
96 [label=<Glucose &le; 113.5<br/>gini = 0.437<br/>samples = 60<br/>value = [61.0, 29.0]<br/>class = 0>, fillcolor="#f1bd97"] ;
90 -> 96 ;
97 [label=<BMI &le; 33.85<br/>gini = 0.49<br/>samples = 5<br/>value = [3, 4]<br/>class = 1>, fillcolor="#cee6f8"] ;
96 -> 97 ;
98 [label=<Pregnancies &le; 2.0<br/>gini = 0.32<br/>samples = 3<br/>value = [1, 4]<br/>class = 1>, fillcolor="#6ab6ec"] ;
97 -> 98 ;
99 [label=<gini = 0.0<br/>samples = 1<br/>value = [0, 2]<br/>class = 1>, fillcolor="#399de5"] ;
98 -> 99 ;
100 [label=<BMI &le; 30.55<br/>gini = 0.444<br/>samples = 2<br/>value = [1, 2]<br/>class = 1>, fillcolor="#9ccef2"] ;
98 -> 100 ;
101 [label=<gini = 0.0<br/>samples = 1<br/>value = [1, 0]<br/>class = 0>, fillcolor="#e58139"] ;
100 -> 101 ;
102 [label=<gini = 0.0<br/>samples = 1<br/>value = [0, 2]<br/>class = 1>, fillcolor="#399de5"] ;
100 -> 102 ;
103 [label=<gini = 0.0<br/>samples = 2<br/>value = [2, 0]<br/>class = 0>, fillcolor="#e58139"] ;
97 -> 103 ;
104 [label=<Glucose &le; 117.5<br/>gini = 0.421<br/>samples = 55<br/>value = [58.0, 25.0]<br/>class = 0>, fillcolor="#f0b78e"] ;
96 -> 104 ;
105 [label=<Age &le; 27.5<br/>gini = 0.26<br/>samples = 10<br/>value = [11, 2]<br/>class = 0>, fillcolor="#ea985d"] ;
104 -> 105 ;
106 [label=<gini = 0.0<br/>samples = 6<br/>value = [8, 0]<br/>class = 0>, fillcolor="#e58139"] ;
105 -> 106 ;
107 [label=<BMI &le; 29.2<br/>gini = 0.48<br/>samples = 4<br/>value = [3, 2]<br/>class = 0>, fillcolor="#f6d5bd"] ;
105 -> 107 ;
108 [label=<gini = 0.0<br/>samples = 1<br/>value = [2, 0]<br/>class = 0>, fillcolor="#e58139"] ;
107 -> 108 ;
109 [label=<Pregnancies &le; 3.5<br/>gini = 0.444<br/>samples = 3<br/>value = [1, 2]<br/>class = 1>, fillcolor="#9ccef2"] ;
107 -> 109 ;
110 [label=<gini = 0.0<br/>samples = 1<br/>value = [1, 0]<br/>class = 0>, fillcolor="#e58139"] ;
109 -> 110 ;
111 [label=<gini = 0.0<br/>samples = 2<br/>value = [0, 2]<br/>class = 1>, fillcolor="#399de5"] ;
109 -> 111 ;
112 [label=<Pregnancies &le; 1.5<br/>gini = 0.441<br/>samples = 45<br/>value = [47.0, 23.0]<br/>class = 0>, fillcolor="#f2bf9a"] ;
104 -> 112 ;
113 [label=<Age &le; 23.5<br/>gini = 0.208<br/>samples = 10<br/>value = [15, 2]<br/>class = 0>, fillcolor="#e89253"] ;
112 -> 113 ;
114 [label=<gini = 0.0<br/>samples = 6<br/>value = [12, 0]<br/>class = 0>, fillcolor="#e58139"] ;
113 -> 114 ;
115 [label=<Age &le; 27.5<br/>gini = 0.48<br/>samples = 4<br/>value = [3, 2]<br/>class = 0>, fillcolor="#f6d5bd"] ;
113 -> 115 ;
116 [label=<gini = 0.0<br/>samples = 2<br/>value = [0, 2]<br/>class = 1>, fillcolor="#399de5"] ;
115 -> 116 ;
117 [label=<gini = 0.0<br/>samples = 2<br/>value = [3, 0]<br/>class = 0>, fillcolor="#e58139"] ;
115 -> 117 ;
118 [label=<BMI &le; 26.7<br/>gini = 0.478<br/>samples = 35<br/>value = [32, 21]<br/>class = 0>, fillcolor="#f6d4bb"] ;
112 -> 118 ;
119 [label=<gini = 0.0<br/>samples = 2<br/>value = [0, 3]<br/>class = 1>, fillcolor="#399de5"] ;
118 -> 119 ;
120 [label=<Glucose &le; 145.5<br/>gini = 0.461<br/>samples = 33<br/>value = [32, 18]<br/>class = 0>, fillcolor="#f4c8a8"] ;
118 -> 120 ;
121 [label=<Age &le; 23.5<br/>gini = 0.492<br/>samples = 27<br/>value = [22, 17]<br/>class = 0>, fillcolor="#f9e2d2"] ;
120 -> 121 ;
122 [label=<Glucose &le; 130.5<br/>gini = 0.426<br/>samples = 7<br/>value = [4, 9]<br/>class = 1>, fillcolor="#91c9f1"] ;
121 -> 122 ;
123 [label=<Age &le; 21.5<br/>gini = 0.444<br/>samples = 4<br/>value = [4, 2]<br/>class = 0>, fillcolor="#f2c09c"] ;
122 -> 123 ;
124 [label=<gini = 0.0<br/>samples = 1<br/>value = [0, 2]<br/>class = 1>, fillcolor="#399de5"] ;
123 -> 124 ;
125 [label=<gini = 0.0<br/>samples = 3<br/>value = [4, 0]<br/>class = 0>, fillcolor="#e58139"] ;
123 -> 125 ;
126 [label=<gini = 0.0<br/>samples = 3<br/>value = [0, 7]<br/>class = 1>, fillcolor="#399de5"] ;
122 -> 126 ;
127 [label=<Pregnancies &le; 5.5<br/>gini = 0.426<br/>samples = 20<br/>value = [18, 8]<br/>class = 0>, fillcolor="#f1b991"] ;
121 -> 127 ;
128 [label=<Glucose &le; 138.0<br/>gini = 0.34<br/>samples = 18<br/>value = [18, 5]<br/>class = 0>, fillcolor="#eca470"] ;
127 -> 128 ;
129 [label=<Glucose &le; 121.5<br/>gini = 0.255<br/>samples = 15<br/>value = [17, 3]<br/>class = 0>, fillcolor="#ea975c"] ;
128 -> 129 ;
130 [label=<Age &le; 26.0<br/>gini = 0.5<br/>samples = 3<br/>value = [2, 2]<br/>class = 0>, fillcolor="#ffffff"] ;
129 -> 130 ;
131 [label=<gini = 0.0<br/>samples = 1<br/>value = [0, 2]<br/>class = 1>, fillcolor="#399de5"] ;
130 -> 131 ;
132 [label=<gini = 0.0<br/>samples = 2<br/>value = [2, 0]<br/>class = 0>, fillcolor="#e58139"] ;
130 -> 132 ;
133 [label=<Glucose &le; 127.5<br/>gini = 0.117<br/>samples = 12<br/>value = [15, 1]<br/>class = 0>, fillcolor="#e78946"] ;
129 -> 133 ;
134 [label=<gini = 0.0<br/>samples = 6<br/>value = [7, 0]<br/>class = 0>, fillcolor="#e58139"] ;
133 -> 134 ;
135 [label=<Pregnancies &le; 2.5<br/>gini = 0.198<br/>samples = 6<br/>value = [8, 1]<br/>class = 0>, fillcolor="#e89152"] ;
133 -> 135 ;
136 [label=<gini = 0.0<br/>samples = 3<br/>value = [4, 0]<br/>class = 0>, fillcolor="#e58139"] ;
135 -> 136 ;
137 [label=<Pregnancies &le; 3.5<br/>gini = 0.32<br/>samples = 3<br/>value = [4, 1]<br/>class = 0>, fillcolor="#eca06a"] ;
135 -> 137 ;
138 [label=<gini = 0.0<br/>samples = 1<br/>value = [0, 1]<br/>class = 1>, fillcolor="#399de5"] ;
137 -> 138 ;
139 [label=<gini = 0.0<br/>samples = 2<br/>value = [4, 0]<br/>class = 0>, fillcolor="#e58139"] ;
137 -> 139 ;
140 [label=<Age &le; 25.5<br/>gini = 0.444<br/>samples = 3<br/>value = [1, 2]<br/>class = 1>, fillcolor="#9ccef2"] ;
128 -> 140 ;
141 [label=<gini = 0.0<br/>samples = 2<br/>value = [0, 2]<br/>class = 1>, fillcolor="#399de5"] ;
140 -> 141 ;
142 [label=<gini = 0.0<br/>samples = 1<br/>value = [1, 0]<br/>class = 0>, fillcolor="#e58139"] ;
140 -> 142 ;
143 [label=<gini = 0.0<br/>samples = 2<br/>value = [0, 3]<br/>class = 1>, fillcolor="#399de5"] ;
127 -> 143 ;
144 [label=<Age &le; 28.5<br/>gini = 0.165<br/>samples = 6<br/>value = [10, 1]<br/>class = 0>, fillcolor="#e88e4d"] ;
120 -> 144 ;
145 [label=<gini = 0.0<br/>samples = 5<br/>value = [10, 0]<br/>class = 0>, fillcolor="#e58139"] ;
144 -> 145 ;
146 [label=<gini = 0.0<br/>samples = 1<br/>value = [0, 1]<br/>class = 1>, fillcolor="#399de5"] ;
144 -> 146 ;
147 [label=<Age &le; 25.5<br/>gini = 0.124<br/>samples = 11<br/>value = [1, 14]<br/>class = 1>, fillcolor="#47a4e7"] ;
73 -> 147 ;
148 [label=<gini = 0.0<br/>samples = 7<br/>value = [0, 9]<br/>class = 1>, fillcolor="#399de5"] ;
147 -> 148 ;
149 [label=<Age &le; 27.5<br/>gini = 0.278<br/>samples = 4<br/>value = [1, 5]<br/>class = 1>, fillcolor="#61b1ea"] ;
147 -> 149 ;
150 [label=<BMI &le; 38.8<br/>gini = 0.5<br/>samples = 2<br/>value = [1, 1]<br/>class = 0>, fillcolor="#ffffff"] ;
149 -> 150 ;
151 [label=<gini = 0.0<br/>samples = 1<br/>value = [1, 0]<br/>class = 0>, fillcolor="#e58139"] ;
150 -> 151 ;
152 [label=<gini = 0.0<br/>samples = 1<br/>value = [0, 1]<br/>class = 1>, fillcolor="#399de5"] ;
150 -> 152 ;
153 [label=<gini = 0.0<br/>samples = 2<br/>value = [0, 4]<br/>class = 1>, fillcolor="#399de5"] ;
149 -> 153 ;
154 [label=<Pregnancies &le; 3.5<br/>gini = 0.426<br/>samples = 115<br/>value = [52, 117]<br/>class = 1>, fillcolor="#91c9f1"] ;
72 -> 154 ;
155 [label=<BMI &le; 37.5<br/>gini = 0.283<br/>samples = 28<br/>value = [7.0, 34.0]<br/>class = 1>, fillcolor="#62b1ea"] ;
154 -> 155 ;
156 [label=<BMI &le; 32.2<br/>gini = 0.117<br/>samples = 21<br/>value = [2, 30]<br/>class = 1>, fillcolor="#46a4e7"] ;
155 -> 156 ;
157 [label=<gini = 0.0<br/>samples = 9<br/>value = [0, 17]<br/>class = 1>, fillcolor="#399de5"] ;
156 -> 157 ;
158 [label=<Age &le; 31.5<br/>gini = 0.231<br/>samples = 12<br/>value = [2, 13]<br/>class = 1>, fillcolor="#57ace9"] ;
156 -> 158 ;
159 [label=<gini = 0.0<br/>samples = 1<br/>value = [1, 0]<br/>class = 0>, fillcolor="#e58139"] ;
158 -> 159 ;
160 [label=<BMI &le; 32.6<br/>gini = 0.133<br/>samples = 11<br/>value = [1, 13]<br/>class = 1>, fillcolor="#48a5e7"] ;
158 -> 160 ;
161 [label=<gini = 0.0<br/>samples = 1<br/>value = [1, 0]<br/>class = 0>, fillcolor="#e58139"] ;
160 -> 161 ;
162 [label=<gini = 0.0<br/>samples = 10<br/>value = [0, 13]<br/>class = 1>, fillcolor="#399de5"] ;
160 -> 162 ;
163 [label=<BMI &le; 41.8<br/>gini = 0.494<br/>samples = 7<br/>value = [5, 4]<br/>class = 0>, fillcolor="#fae6d7"] ;
155 -> 163 ;
164 [label=<Glucose &le; 154.5<br/>gini = 0.278<br/>samples = 4<br/>value = [5, 1]<br/>class = 0>, fillcolor="#ea9a61"] ;
163 -> 164 ;
165 [label=<gini = 0.0<br/>samples = 3<br/>value = [5, 0]<br/>class = 0>, fillcolor="#e58139"] ;
164 -> 165 ;
166 [label=<gini = 0.0<br/>samples = 1<br/>value = [0, 1]<br/>class = 1>, fillcolor="#399de5"] ;
164 -> 166 ;
167 [label=<gini = 0.0<br/>samples = 3<br/>value = [0, 3]<br/>class = 1>, fillcolor="#399de5"] ;
163 -> 167 ;
168 [label=<Age &le; 40.5<br/>gini = 0.456<br/>samples = 87<br/>value = [45, 83]<br/>class = 1>, fillcolor="#a4d2f3"] ;
154 -> 168 ;
169 [label=<Glucose &le; 155.5<br/>gini = 0.5<br/>samples = 35<br/>value = [24, 25]<br/>class = 1>, fillcolor="#f7fbfe"] ;
168 -> 169 ;
170 [label=<Age &le; 37.5<br/>gini = 0.48<br/>samples = 25<br/>value = [21, 14]<br/>class = 0>, fillcolor="#f6d5bd"] ;
169 -> 170 ;
171 [label=<Glucose &le; 119.5<br/>gini = 0.497<br/>samples = 18<br/>value = [12, 14]<br/>class = 1>, fillcolor="#e3f1fb"] ;
170 -> 171 ;
172 [label=<gini = 0.0<br/>samples = 5<br/>value = [0, 6]<br/>class = 1>, fillcolor="#399de5"] ;
171 -> 172 ;
173 [label=<Age &le; 34.5<br/>gini = 0.48<br/>samples = 13<br/>value = [12, 8]<br/>class = 0>, fillcolor="#f6d5bd"] ;
171 -> 173 ;
174 [label=<Glucose &le; 122.5<br/>gini = 0.298<br/>samples = 8<br/>value = [9, 2]<br/>class = 0>, fillcolor="#eb9d65"] ;
173 -> 174 ;
175 [label=<Age &le; 33.5<br/>gini = 0.444<br/>samples = 3<br/>value = [4, 2]<br/>class = 0>, fillcolor="#f2c09c"] ;
174 -> 175 ;
176 [label=<BMI &le; 34.0<br/>gini = 0.5<br/>samples = 2<br/>value = [2, 2]<br/>class = 0>, fillcolor="#ffffff"] ;
175 -> 176 ;
177 [label=<gini = 0.0<br/>samples = 1<br/>value = [0, 2]<br/>class = 1>, fillcolor="#399de5"] ;
176 -> 177 ;
178 [label=<gini = 0.0<br/>samples = 1<br/>value = [2, 0]<br/>class = 0>, fillcolor="#e58139"] ;
176 -> 178 ;
179 [label=<gini = 0.0<br/>samples = 1<br/>value = [2, 0]<br/>class = 0>, fillcolor="#e58139"] ;
175 -> 179 ;
180 [label=<gini = 0.0<br/>samples = 5<br/>value = [5, 0]<br/>class = 0>, fillcolor="#e58139"] ;
174 -> 180 ;
181 [label=<Pregnancies &le; 4.5<br/>gini = 0.444<br/>samples = 5<br/>value = [3, 6]<br/>class = 1>, fillcolor="#9ccef2"] ;
173 -> 181 ;
182 [label=<gini = 0.0<br/>samples = 1<br/>value = [1, 0]<br/>class = 0>, fillcolor="#e58139"] ;
181 -> 182 ;
183 [label=<Pregnancies &le; 6.0<br/>gini = 0.375<br/>samples = 4<br/>value = [2, 6]<br/>class = 1>, fillcolor="#7bbeee"] ;
181 -> 183 ;
184 [label=<gini = 0.0<br/>samples = 2<br/>value = [0, 5]<br/>class = 1>, fillcolor="#399de5"] ;
183 -> 184 ;
185 [label=<Age &le; 36.5<br/>gini = 0.444<br/>samples = 2<br/>value = [2, 1]<br/>class = 0>, fillcolor="#f2c09c"] ;
183 -> 185 ;
186 [label=<gini = 0.0<br/>samples = 1<br/>value = [0, 1]<br/>class = 1>, fillcolor="#399de5"] ;
185 -> 186 ;
187 [label=<gini = 0.0<br/>samples = 1<br/>value = [2, 0]<br/>class = 0>, fillcolor="#e58139"] ;
185 -> 187 ;
188 [label=<gini = 0.0<br/>samples = 7<br/>value = [9, 0]<br/>class = 0>, fillcolor="#e58139"] ;
170 -> 188 ;
189 [label=<Glucose &le; 196.0<br/>gini = 0.337<br/>samples = 10<br/>value = [3, 11]<br/>class = 1>, fillcolor="#6fb8ec"] ;
169 -> 189 ;
190 [label=<BMI &le; 28.55<br/>gini = 0.153<br/>samples = 9<br/>value = [1, 11]<br/>class = 1>, fillcolor="#4ba6e7"] ;
189 -> 190 ;
191 [label=<gini = 0.0<br/>samples = 1<br/>value = [1, 0]<br/>class = 0>, fillcolor="#e58139"] ;
190 -> 191 ;
192 [label=<gini = 0.0<br/>samples = 8<br/>value = [0, 11]<br/>class = 1>, fillcolor="#399de5"] ;
190 -> 192 ;
193 [label=<gini = 0.0<br/>samples = 1<br/>value = [2, 0]<br/>class = 0>, fillcolor="#e58139"] ;
189 -> 193 ;
194 [label=<BMI &le; 28.85<br/>gini = 0.39<br/>samples = 52<br/>value = [21.0, 58.0]<br/>class = 1>, fillcolor="#81c0ee"] ;
168 -> 194 ;
195 [label=<Pregnancies &le; 11.5<br/>gini = 0.459<br/>samples = 11<br/>value = [9, 5]<br/>class = 0>, fillcolor="#f3c7a7"] ;
194 -> 195 ;
196 [label=<Glucose &le; 128.5<br/>gini = 0.426<br/>samples = 10<br/>value = [9, 4]<br/>class = 0>, fillcolor="#f1b991"] ;
195 -> 196 ;
197 [label=<Glucose &le; 123.5<br/>gini = 0.444<br/>samples = 4<br/>value = [2, 4]<br/>class = 1>, fillcolor="#9ccef2"] ;
196 -> 197 ;
198 [label=<BMI &le; 28.0<br/>gini = 0.444<br/>samples = 3<br/>value = [2, 1]<br/>class = 0>, fillcolor="#f2c09c"] ;
197 -> 198 ;
199 [label=<gini = 0.0<br/>samples = 2<br/>value = [2, 0]<br/>class = 0>, fillcolor="#e58139"] ;
198 -> 199 ;
200 [label=<gini = 0.0<br/>samples = 1<br/>value = [0, 1]<br/>class = 1>, fillcolor="#399de5"] ;
198 -> 200 ;
201 [label=<gini = 0.0<br/>samples = 1<br/>value = [0, 3]<br/>class = 1>, fillcolor="#399de5"] ;
197 -> 201 ;
202 [label=<gini = 0.0<br/>samples = 6<br/>value = [7, 0]<br/>class = 0>, fillcolor="#e58139"] ;
196 -> 202 ;
203 [label=<gini = 0.0<br/>samples = 1<br/>value = [0, 1]<br/>class = 1>, fillcolor="#399de5"] ;
195 -> 203 ;
204 [label=<Age &le; 51.5<br/>gini = 0.301<br/>samples = 41<br/>value = [12, 53]<br/>class = 1>, fillcolor="#66b3eb"] ;
194 -> 204 ;
205 [label=<BMI &le; 37.25<br/>gini = 0.341<br/>samples = 35<br/>value = [12, 43]<br/>class = 1>, fillcolor="#70b8ec"] ;
204 -> 205 ;
206 [label=<BMI &le; 31.15<br/>gini = 0.17<br/>samples = 19<br/>value = [3, 29]<br/>class = 1>, fillcolor="#4da7e8"] ;
205 -> 206 ;
207 [label=<gini = 0.0<br/>samples = 5<br/>value = [0, 10]<br/>class = 1>, fillcolor="#399de5"] ;
206 -> 207 ;
208 [label=<Glucose &le; 129.0<br/>gini = 0.236<br/>samples = 14<br/>value = [3, 19]<br/>class = 1>, fillcolor="#58ace9"] ;
206 -> 208 ;
209 [label=<BMI &le; 33.7<br/>gini = 0.444<br/>samples = 5<br/>value = [3, 6]<br/>class = 1>, fillcolor="#9ccef2"] ;
208 -> 209 ;
210 [label=<Glucose &le; 118.5<br/>gini = 0.375<br/>samples = 4<br/>value = [2, 6]<br/>class = 1>, fillcolor="#7bbeee"] ;
209 -> 210 ;
211 [label=<gini = 0.0<br/>samples = 3<br/>value = [0, 6]<br/>class = 1>, fillcolor="#399de5"] ;
210 -> 211 ;
212 [label=<gini = 0.0<br/>samples = 1<br/>value = [2, 0]<br/>class = 0>, fillcolor="#e58139"] ;
210 -> 212 ;
213 [label=<gini = 0.0<br/>samples = 1<br/>value = [1, 0]<br/>class = 0>, fillcolor="#e58139"] ;
209 -> 213 ;
214 [label=<gini = 0.0<br/>samples = 9<br/>value = [0, 13]<br/>class = 1>, fillcolor="#399de5"] ;
208 -> 214 ;
215 [label=<BMI &le; 40.85<br/>gini = 0.476<br/>samples = 16<br/>value = [9, 14]<br/>class = 1>, fillcolor="#b8dcf6"] ;
205 -> 215 ;
216 [label=<BMI &le; 40.35<br/>gini = 0.48<br/>samples = 11<br/>value = [9, 6]<br/>class = 0>, fillcolor="#f6d5bd"] ;
215 -> 216 ;
217 [label=<Glucose &le; 143.5<br/>gini = 0.496<br/>samples = 10<br/>value = [5, 6]<br/>class = 1>, fillcolor="#deeffb"] ;
216 -> 217 ;
218 [label=<Pregnancies &le; 12.5<br/>gini = 0.469<br/>samples = 7<br/>value = [5, 3]<br/>class = 0>, fillcolor="#f5cdb0"] ;
217 -> 218 ;
219 [label=<Glucose &le; 114.5<br/>gini = 0.408<br/>samples = 6<br/>value = [5, 2]<br/>class = 0>, fillcolor="#efb388"] ;
218 -> 219 ;
220 [label=<gini = 0.0<br/>samples = 1<br/>value = [0, 1]<br/>class = 1>, fillcolor="#399de5"] ;
219 -> 220 ;
221 [label=<Age &le; 42.5<br/>gini = 0.278<br/>samples = 5<br/>value = [5, 1]<br/>class = 0>, fillcolor="#ea9a61"] ;
219 -> 221 ;
222 [label=<gini = 0.0<br/>samples = 2<br/>value = [3, 0]<br/>class = 0>, fillcolor="#e58139"] ;
221 -> 222 ;
223 [label=<Age &le; 46.0<br/>gini = 0.444<br/>samples = 3<br/>value = [2, 1]<br/>class = 0>, fillcolor="#f2c09c"] ;
221 -> 223 ;
224 [label=<gini = 0.0<br/>samples = 1<br/>value = [0, 1]<br/>class = 1>, fillcolor="#399de5"] ;
223 -> 224 ;
225 [label=<gini = 0.0<br/>samples = 2<br/>value = [2, 0]<br/>class = 0>, fillcolor="#e58139"] ;
223 -> 225 ;
226 [label=<gini = 0.0<br/>samples = 1<br/>value = [0, 1]<br/>class = 1>, fillcolor="#399de5"] ;
218 -> 226 ;
227 [label=<gini = 0.0<br/>samples = 3<br/>value = [0, 3]<br/>class = 1>, fillcolor="#399de5"] ;
217 -> 227 ;
228 [label=<gini = 0.0<br/>samples = 1<br/>value = [4, 0]<br/>class = 0>, fillcolor="#e58139"] ;
216 -> 228 ;
229 [label=<gini = 0.0<br/>samples = 5<br/>value = [0, 8]<br/>class = 1>, fillcolor="#399de5"] ;
215 -> 229 ;
230 [label=<gini = 0.0<br/>samples = 6<br/>value = [0, 10]<br/>class = 1>, fillcolor="#399de5"] ;
204 -> 230 ;
}