digraph Tree {
node [shape=box, style="filled, rounded", color="black", fontname="helvetica"] ;
edge [fontname="helvetica"] ;
0 [label=<BMI &le; 28.15<br/>gini = 0.46<br/>samples = 376<br/>value = [394.0, 220.0]<br/>class = 0>, fillcolor="#f4c7a8"] ;
1 [label=<Pregnancies &le; 2.5<br/>gini = 0.244<br/>samples = 121<br/>value = [169.0, 28.0]<br/>class = 0>, fillcolor="#e9965a"] ;
0 -> 1 [labeldistance=2.5, labelangle=45, headlabel="True"] ;
2 [label=<BMI &le; 26.55<br/>gini = 0.041<br/>samples = 62<br/>value = [94, 2]<br/>class = 0>, fillcolor="#e6843d"] ;
1 -> 2 ;
3 [label=<gini = 0.0<br/>samples = 46<br/>value = [70, 0]<br/>class = 0>, fillcolor="#e58139"] ;
2 -> 3 ;
4 [label=<BMI &le; 26.7<br/>gini = 0.142<br/>samples = 16<br/>value = [24, 2]<br/>class = 0>, fillcolor="#e78c49"] ;
2 -> 4 ;
5 [label=<Age &le; 29.0<br/>gini = 0.444<br/>samples = 2<br/>value = [2, 1]<br/>class = 0>, fillcolor="#f2c09c"] ;
4 -> 5 ;
6 [label=<gini = 0.0<br/>samples = 1<br/>value = [0, 1]<br/>class = 1>, fillcolor="#399de5"] ;
5 -> 6 ;
7 [label=<gini = 0.0<br/>samples = 1<br/>value = [2, 0]<br/>class = 0>, fillcolor="#e58139"] ;
5 -> 7 ;
8 [label=<Glucose &le; 141.5<br/>gini = 0.083<br/>samples = 14<br/>value = [22, 1]<br/>class = 0>, fillcolor="#e68742"] ;
4 -> 8 ;
9 [label=<gini = 0.0<br/>samples = 13<br/>value = [22, 0]<br/>class = 0>, fillcolor="#e58139"] ;
8 -> 9 ;
10 [label=<gini = 0.0<br/>samples = 1<br/>value = [0, 1]<br/>class = 1>, fillcolor="#399de5"] ;
8 -> 10 ;
11 [label=<Glucose &le; 133.0<br/>gini = 0.382<br/>samples = 59<br/>value = [75, 26]<br/>class = 0>, fillcolor="#eead7e"] ;
1 -> 11 ;
12 [label=<BMI &le; 27.0<br/>gini = 0.206<br/>samples = 47<br/>value = [68, 9]<br/>class = 0>, fillcolor="#e89253"] ;
11 -> 12 ;
13 [label=<BMI &le; 9.65<br/>gini = 0.095<br/>samples = 37<br/>value = [57, 3]<br/>class = 0>, fillcolor="#e68843"] ;
12 -> 13 ;
14 [label=<gini = 0.0<br/>samples = 1<br/>value = [0, 1]<br/>class = 1>, fillcolor="#399de5"] ;
13 -> 14 ;
15 [label=<Glucose &le; 127.5<br/>gini = 0.065<br/>samples = 36<br/>value = [57, 2]<br/>class = 0>, fillcolor="#e68540"] ;
13 -> 15 ;
16 [label=<Age &le; 23.5<br/>gini = 0.038<br/>samples = 34<br/>value = [51, 1]<br/>class = 0>, fillcolor="#e6833d"] ;
15 -> 16 ;
17 [label=<Age &le; 22.5<br/>gini = 0.278<br/>samples = 6<br/>value = [5, 1]<br/>class = 0>, fillcolor="#ea9a61"] ;
16 -> 17 ;
18 [label=<gini = 0.0<br/>samples = 4<br/>value = [4, 0]<br/>class = 0>, fillcolor="#e58139"] ;
17 -> 18 ;
19 [label=<BMI &le; 23.2<br/>gini = 0.5<br/>samples = 2<br/>value = [1, 1]<br/>class = 0>, fillcolor="#ffffff"] ;
17 -> 19 ;
20 [label=<gini = 0.0<br/>samples = 1<br/>value = [0, 1]<br/>class = 1>, fillcolor="#399de5"] ;
19 -> 20 ;
21 [label=<gini = 0.0<br/>samples = 1<br/>value = [1, 0]<br/>class = 0>, fillcolor="#e58139"] ;
19 -> 21 ;
22 [label=<gini = 0.0<br/>samples = 28<br/>value = [46, 0]<br/>class = 0>, fillcolor="#e58139"] ;
16 -> 22 ;
23 [label=<BMI &le; 26.6<br/>gini = 0.245<br/>samples = 2<br/>value = [6, 1]<br/>class = 0>, fillcolor="#e9965a"] ;
15 -> 23 ;
24 [label=<gini = 0.0<br/>samples = 1<br/>value = [0, 1]<br/>class = 1>, fillcolor="#399de5"] ;
23 -> 24 ;
25 [label=<gini = 0.0<br/>samples = 1<br/>value = [6, 0]<br/>class = 0>, fillcolor="#e58139"] ;
23 -> 25 ;
26 [label=<Age &le; 35.5<br/>gini = 0.457<br/>samples = 10<br/>value = [11, 6]<br/>class = 0>, fillcolor="#f3c6a5"] ;
12 -> 26 ;
27 [label=<Age &le; 28.0<br/>gini = 0.444<br/>samples = 6<br/>value = [3, 6]<br/>class = 1>, fillcolor="#9ccef2"] ;
26 -> 27 ;
28 [label=<gini = 0.0<br/>samples = 1<br/>value = [2, 0]<br/>class = 0>, fillcolor="#e58139"] ;
27 -> 28 ;
29 [label=<Pregnancies &le; 5.0<br/>gini = 0.245<br/>samples = 5<br/>value = [1, 6]<br/>class = 1>, fillcolor="#5aade9"] ;
27 -> 29 ;
30 [label=<gini = 0.0<br/>samples = 1<br/>value = [1, 0]<br/>class = 0>, fillcolor="#e58139"] ;
29 -> 30 ;
31 [label=<gini = 0.0<br/>samples = 4<br/>value = [0, 6]<br/>class = 1>, fillcolor="#399de5"] ;
29 -> 31 ;
32 [label=<gini = 0.0<br/>samples = 4<br/>value = [8, 0]<br/>class = 0>, fillcolor="#e58139"] ;
26 -> 32 ;
33 [label=<Pregnancies &le; 6.5<br/>gini = 0.413<br/>samples = 12<br/>value = [7, 17]<br/>class = 1>, fillcolor="#8bc5f0"] ;
11 -> 33 ;
34 [label=<Glucose &le; 140.0<br/>gini = 0.245<br/>samples = 6<br/>value = [2, 12]<br/>class = 1>, fillcolor="#5aade9"] ;
33 -> 34 ;
35 [label=<gini = 0.0<br/>samples = 2<br/>value = [0, 6]<br/>class = 1>, fillcolor="#399de5"] ;
34 -> 35 ;
36 [label=<Pregnancies &le; 4.5<br/>gini = 0.375<br/>samples = 4<br/>value = [2, 6]<br/>class = 1>, fillcolor="#7bbeee"] ;
34 -> 36 ;
37 [label=<gini = 0.0<br/>samples = 1<br/>value = [1, 0]<br/>class = 0>, fillcolor="#e58139"] ;
36 -> 37 ;
38 [label=<BMI &le; 26.2<br/>gini = 0.245<br/>samples = 3<br/>value = [1, 6]<br/>class = 1>, fillcolor="#5aade9"] ;
36 -> 38 ;
39 [label=<gini = 0.0<br/>samples = 2<br/>value = [0, 6]<br/>class = 1>, fillcolor="#399de5"] ;
38 -> 39 ;
40 [label=<gini = 0.0<br/>samples = 1<br/>value = [1, 0]<br/>class = 0>, fillcolor="#e58139"] ;
38 -> 40 ;
41 [label=<Glucose &le; 145.5<br/>gini = 0.5<br/>samples = 6<br/>value = [5, 5]<br/>class = 0>, fillcolor="#ffffff"] ;
33 -> 41 ;
42 [label=<gini = 0.0<br/>samples = 2<br/>value = [3, 0]<br/>class = 0>, fillcolor="#e58139"] ;
41 -> 42 ;
43 [label=<Age &le; 41.5<br/>gini = 0.408<br/>samples = 4<br/>value = [2, 5]<br/>class = 1>, fillcolor="#88c4ef"] ;
41 -> 43 ;
44 [label=<gini = 0.0<br/>samples = 1<br/>value = [2, 0]<br/>class = 0>, fillcolor="#e58139"] ;
43 -> 44 ;
45 [label=<gini = 0.0<br/>samples = 3<br/>value = [0, 5]<br/>class = 1>, fillcolor="#399de5"] ;
43 -> 45 ;
46 [label=<Pregnancies &le; 7.5<br/>gini = 0.497<br/>samples = 255<br/>value = [225, 192]<br/>class = 0>, fillcolor="#fbede2"] ;
0 -> 46 [labeldistance=2.5, labelangle=-45, headlabel="False"] ;
47 [label=<Glucose &le; 157.5<br/>gini = 0.486<br/>samples = 206<br/>value = [193, 138]<br/>class = 0>, fillcolor="#f8dbc7"] ;
46 -> 47 ;
48 [label=<Age &le; 30.5<br/>gini = 0.422<br/>samples = 171<br/>value = [187, 81]<br/>class = 0>, fillcolor="#f0b88f"] ;
47 -> 48 ;
49 [label=<Pregnancies &le; 0.5<br/>gini = 0.334<br/>samples = 107<br/>value = [130, 35]<br/>class = 0>, fillcolor="#eca36e"] ;
48 -> 49 ;
50 [label=<BMI &le; 38.9<br/>gini = 0.491<br/>samples = 22<br/>value = [17, 13]<br/>class = 0>, fillcolor="#f9e1d0"] ;
49 -> 50 ;
51 [label=<BMI &le; 30.85<br/>gini = 0.469<br/>samples = 13<br/>value = [6, 10]<br/>class = 1>, fillcolor="#b0d8f5"] ;
50 -> 51 ;
52 [label=<gini = 0.0<br/>samples = 1<br/>value = [0, 3]<br/>class = 1>, fillcolor="#399de5"] ;
51 -> 52 ;
53 [label=<Age &le; 25.5<br/>gini = 0.497<br/>samples = 12<br/>value = [6, 7]<br/>class = 1>, fillcolor="#e3f1fb"] ;
51 -> 53 ;
54 [label=<Glucose &le; 104.5<br/>gini = 0.375<br/>samples = 7<br/>value = [2, 6]<br/>class = 1>, fillcolor="#7bbeee"] ;
53 -> 54 ;
55 [label=<gini = 0.0<br/>samples = 1<br/>value = [1, 0]<br/>class = 0>, fillcolor="#e58139"] ;
54 -> 55 ;
56 [label=<Age &le; 22.5<br/>gini = 0.245<br/>samples = 6<br/>value = [1, 6]<br/>class = 1>, fillcolor="#5aade9"] ;
54 -> 56 ;
57 [label=<Glucose &le; 134.0<br/>gini = 0.444<br/>samples = 3<br/>value = [1, 2]<br/>class = 1>, fillcolor="#9ccef2"] ;
56 -> 57 ;
58 [label=<gini = 0.0<br/>samples = 1<br/>value = [0, 1]<br/>class = 1>, fillcolor="#399de5"] ;
57 -> 58 ;
59 [label=<BMI &le; 33.9<br/>gini = 0.5<br/>samples = 2<br/>value = [1, 1]<br/>class = 0>, fillcolor="#ffffff"] ;
57 -> 59 ;
60 [label=<gini = 0.0<br/>samples = 1<br/>value = [1, 0]<br/>class = 0>, fillcolor="#e58139"] ;
59 -> 60 ;
61 [label=<gini = 0.0<br/>samples = 1<br/>value = [0, 1]<br/>class = 1>, fillcolor="#399de5"] ;
59 -> 61 ;
62 [label=<gini = 0.0<br/>samples = 3<br/>value = [0, 4]<br/>class = 1>, fillcolor="#399de5"] ;
56 -> 62 ;
63 [label=<BMI &le; 37.2<br/>gini = 0.32<br/>samples = 5<br/>value = [4, 1]<br/>class = 0>, fillcolor="#eca06a"] ;
53 -> 63 ;
64 [label=<gini = 0.0<br/>samples = 4<br/>value = [4, 0]<br/>class = 0>, fillcolor="#e58139"] ;
63 -> 64 ;
65 [label=<gini = 0.0<br/>samples = 1<br/>value = [0, 1]<br/>class = 1>, fillcolor="#399de5"] ;
63 -> 65 ;
66 [label=<Glucose &le; 123.0<br/>gini = 0.337<br/>samples = 9<br/>value = [11, 3]<br/>class = 0>, fillcolor="#eca36f"] ;
50 -> 66 ;
67 [label=<gini = 0.0<br/>samples = 5<br/>value = [10, 0]<br/>class = 0>, fillcolor="#e58139"] ;
66 -> 67 ;
68 [label=<BMI &le; 41.8<br/>gini = 0.375<br/>samples = 4<br/>value = [1, 3]<br/>class = 1>, fillcolor="#7bbeee"] ;
66 -> 68 ;
69 [label=<gini = 0.0<br/>samples = 1<br/>value = [1, 0]<br/>class = 0>, fillcolor="#e58139"] ;
68 -> 69 ;
70 [label=<gini = 0.0<br/>samples = 3<br/>value = [0, 3]<br/>class = 1>, fillcolor="#399de5"] ;
68 -> 70 ;
71 [label=<BMI &le; 29.95<br/>gini = 0.273<br/>samples = 85<br/>value = [113, 22]<br/>class = 0>, fillcolor="#ea9a60"] ;
49 -> 71 ;
72 [label=<gini = 0.0<br/>samples = 12<br/>value = [16, 0]<br/>class = 0>, fillcolor="#e58139"] ;
71 -> 72 ;
73 [label=<BMI &le; 30.05<br/>gini = 0.301<br/>samples = 73<br/>value = [97, 22]<br/>class = 0>, fillcolor="#eb9e66"] ;
71 -> 73 ;
74 [label=<gini = 0.0<br/>samples = 1<br/>value = [0, 3]<br/>class = 1>, fillcolor="#399de5"] ;
73 -> 74 ;
75 [label=<Glucose &le; 107.5<br/>gini = 0.274<br/>samples = 72<br/>value = [97, 19]<br/>class = 0>, fillcolor="#ea9a60"] ;
73 -> 75 ;
76 [label=<BMI &le; 49.25<br/>gini = 0.142<br/>samples = 33<br/>value = [48, 4]<br/>class = 0>, fillcolor="#e78c49"] ;
75 -> 76 ;
77 [label=<Age &le; 26.5<br/>gini = 0.111<br/>samples = 32<br/>value = [48, 3]<br/>class = 0>, fillcolor="#e78945"] ;
76 -> 77 ;
78 [label=<Glucose &le; 92.5<br/>gini = 0.049<br/>samples = 25<br/>value = [39, 1]<br/>class = 0>, fillcolor="#e6843e"] ;
77 -> 78 ;
79 [label=<gini = 0.0<br/>samples = 12<br/>value = [19, 0]<br/>class = 0>, fillcolor="#e58139"] ;
78 -> 79 ;
80 [label=<Glucose &le; 93.5<br/>gini = 0.091<br/>samples = 13<br/>value = [20, 1]<br/>class = 0>, fillcolor="#e68743"] ;
78 -> 80 ;
81 [label=<BMI &le; 34.2<br/>gini = 0.5<br/>samples = 2<br/>value = [1, 1]<br/>class = 0>, fillcolor="#ffffff"] ;
80 -> 81 ;
82 [label=<gini = 0.0<br/>samples = 1<br/>value = [1, 0]<br/>class = 0>, fillcolor="#e58139"] ;
81 -> 82 ;
83 [label=<gini = 0.0<br/>samples = 1<br/>value = [0, 1]<br/>class = 1>, fillcolor="#399de5"] ;
81 -> 83 ;
84 [label=<gini = 0.0<br/>samples = 11<br/>value = [19, 0]<br/>class = 0>, fillcolor="#e58139"] ;
80 -> 84 ;
85 [label=<Age &le; 27.5<br/>gini = 0.298<br/>samples = 7<br/>value = [9, 2]<br/>class = 0>, fillcolor="#eb9d65"] ;
77 -> 85 ;
86 [label=<gini = 0.0<br/>samples = 1<br/>value = [0, 1]<br/>class = 1>, fillcolor="#399de5"] ;
85 -> 86 ;
87 [label=<BMI &le; 34.7<br/>gini = 0.18<br/>samples = 6<br/>value = [9, 1]<br/>class = 0>, fillcolor="#e88f4f"] ;
85 -> 87 ;
88 [label=<Age &le; 28.5<br/>gini = 0.5<br/>samples = 2<br/>value = [1, 1]<br/>class = 0>, fillcolor="#ffffff"] ;
87 -> 88 ;
89 [label=<gini = 0.0<br/>samples = 1<br/>value = [1, 0]<br/>class = 0>, fillcolor="#e58139"] ;
88 -> 89 ;
90 [label=<gini = 0.0<br/>samples = 1<br/>value = [0, 1]<br/>class = 1>, fillcolor="#399de5"] ;
88 -> 90 ;
91 [label=<gini = 0.0<br/>samples = 4<br/>value = [8, 0]<br/>class = 0>, fillcolor="#e58139"] ;
87 -> 91 ;
92 [label=<gini = 0.0<br/>samples = 1<br/>value = [0, 1]<br/>class = 1>, fillcolor="#399de5"] ;
76 -> 92 ;
93 [label=<Age &le; 21.5<br/>gini = 0.359<br/>samples = 39<br/>value = [49, 15]<br/>class = 0>, fillcolor="#eda876"] ;
75 -> 93 ;
94 [label=<Glucose &le; 113.5<br/>gini = 0.444<br/>samples = 3<br/>value = [2, 4]<br/>class = 1>, fillcolor="#9ccef2"] ;
93 -> 94 ;
95 [label=<gini = 0.0<br/>samples = 1<br/>value = [0, 2]<br/>class = 1>, fillcolor="#399de5"] ;
94 -> 95 ;
96 [label=<Glucose &le; 116.0<br/>gini = 0.5<br/>samples = 2<br/>value = [2, 2]<br/>class = 0>, fillcolor="#ffffff"] ;
94 -> 96 ;
97 [label=<gini = 0.0<br/>samples = 1<br/>value = [2, 0]<br/>class = 0>, fillcolor="#e58139"] ;
96 -> 97 ;
98 [label=<gini = 0.0<br/>samples = 1<br/>value = [0, 2]<br/>class = 1>, fillcolor="#399de5"] ;
96 -> 98 ;
99 [label=<Pregnancies &le; 4.5<br/>gini = 0.307<br/>samples = 36<br/>value = [47, 11]<br/>class = 0>, fillcolor="#eb9e67"] ;
93 -> 99 ;
100 [label=<Glucose &le; 109.5<br/>gini = 0.249<br/>samples = 30<br/>value = [41, 7]<br/>class = 0>, fillcolor="#e9975b"] ;
99 -> 100 ;
101 [label=<gini = 0.0<br/>samples = 1<br/>value = [0, 1]<br/>class = 1>, fillcolor="#399de5"] ;
100 -> 101 ;
102 [label=<BMI &le; 33.0<br/>gini = 0.223<br/>samples = 29<br/>value = [41.0, 6.0]<br/>class = 0>, fillcolor="#e99356"] ;
100 -> 102 ;
103 [label=<BMI &le; 32.7<br/>gini = 0.494<br/>samples = 7<br/>value = [5, 4]<br/>class = 0>, fillcolor="#fae6d7"] ;
102 -> 103 ;
104 [label=<Glucose &le; 136.5<br/>gini = 0.469<br/>samples = 6<br/>value = [5, 3]<br/>class = 0>, fillcolor="#f5cdb0"] ;
103 -> 104 ;
105 [label=<Glucose &le; 126.5<br/>gini = 0.48<br/>samples = 4<br/>value = [2, 3]<br/>class = 1>, fillcolor="#bddef6"] ;
104 -> 105 ;
106 [label=<gini = 0.0<br/>samples = 2<br/>value = [2, 0]<br/>class = 0>, fillcolor="#e58139"] ;
105 -> 106 ;
107 [label=<gini = 0.0<br/>samples = 2<br/>value = [0, 3]<br/>class = 1>, fillcolor="#399de5"] ;
105 -> 107 ;
108 [label=<gini = 0.0<br/>samples = 2<br/>value = [3, 0]<br/>class = 0>, fillcolor="#e58139"] ;
104 -> 108 ;
109 [label=<gini = 0.0<br/>samples = 1<br/>value = [0, 1]<br/>class = 1>, fillcolor="#399de5"] ;
103 -> 109 ;
110 [label=<BMI &le; 35.55<br/>gini = 0.1<br/>samples = 22<br/>value = [36, 2]<br/>class = 0>, fillcolor="#e68844"] ;
102 -> 110 ;
111 [label=<gini = 0.0<br/>samples = 12<br/>value = [24, 0]<br/>class = 0>, fillcolor="#e58139"] ;
110 -> 111 ;
112 [label=<Age &le; 25.5<br/>gini = 0.245<br/>samples = 10<br/>value = [12, 2]<br/>class = 0>, fillcolor="#e9965a"] ;
110 -> 112 ;
113 [label=<Age &le; 23.0<br/>gini = 0.408<br/>samples = 5<br/>value = [5, 2]<br/>class = 0>, fillcolor="#efb388"] ;
112 -> 113 ;
114 [label=<gini = 0.0<br/>samples = 2<br/>value = [4, 0]<br/>class = 0>, fillcolor="#e58139"] ;
113 -> 114 ;
115 [label=<Pregnancies &le; 1.5<br/>gini = 0.444<br/>samples = 3<br/>value = [1, 2]<br/>class = 1>, fillcolor="#9ccef2"] ;
113 -> 115 ;
116 [label=<gini = 0.0<br/>samples = 1<br/>value = [0, 1]<br/>class = 1>, fillcolor="#399de5"] ;
115 -> 116 ;
117 [label=<Glucose &le; 116.5<br/>gini = 0.5<br/>samples = 2<br/>value = [1, 1]<br/>class = 0>, fillcolor="#ffffff"] ;
115 -> 117 ;
118 [label=<gini = 0.0<br/>samples = 1<br/>value = [1, 0]<br/>class = 0>, fillcolor="#e58139"] ;
117 -> 118 ;
119 [label=<gini = 0.0<br/>samples = 1<br/>value = [0, 1]<br/>class = 1>, fillcolor="#399de5"] ;
117 -> 119 ;
120 [label=<gini = 0.0<br/>samples = 5<br/>value = [7, 0]<br/>class = 0>, fillcolor="#e58139"] ;
112 -> 120 ;
121 [label=<Glucose &le; 145.0<br/>gini = 0.48<br/>samples = 6<br/>value = [6, 4]<br/>class = 0>, fillcolor="#f6d5bd"] ;
99 -> 121 ;
122 [label=<Age &le; 26.5<br/>gini = 0.32<br/>samples = 4<br/>value = [1, 4]<br/>class = 1>, fillcolor="#6ab6ec"] ;
121 -> 122 ;
123 [label=<gini = 0.0<br/>samples = 2<br/>value = [0, 3]<br/>class = 1>, fillcolor="#399de5"] ;
122 -> 123 ;
124 [label=<Glucose &le; 119.0<br/>gini = 0.5<br/>samples = 2<br/>value = [1, 1]<br/>class = 0>, fillcolor="#ffffff"] ;
122 -> 124 ;
125 [label=<gini = 0.0<br/>samples = 1<br/>value = [0, 1]<br/>class = 1>, fillcolor="#399de5"] ;
124 -> 125 ;
126 [label=<gini = 0.0<br/>samples = 1<br/>value = [1, 0]<br/>class = 0>, fillcolor="#e58139"] ;
124 -> 126 ;
127 [label=<gini = 0.0<br/>samples = 2<br/>value = [5, 0]<br/>class = 0>, fillcolor="#e58139"] ;
121 -> 127 ;
128 [label=<Glucose &le; 94.0<br/>gini = 0.494<br/>samples = 64<br/>value = [57, 46]<br/>class = 0>, fillcolor="#fae7d9"] ;
48 -> 128 ;
129 [label=<Age &le; 38.0<br/>gini = 0.172<br/>samples = 11<br/>value = [19, 2]<br/>class = 0>, fillcolor="#e88e4e"] ;
128 -> 129 ;
130 [label=<Age &le; 36.5<br/>gini = 0.375<br/>samples = 5<br/>value = [6, 2]<br/>class = 0>, fillcolor="#eeab7b"] ;
129 -> 130 ;
131 [label=<gini = 0.0<br/>samples = 4<br/>value = [6, 0]<br/>class = 0>, fillcolor="#e58139"] ;
130 -> 131 ;
132 [label=<gini = 0.0<br/>samples = 1<br/>value = [0, 2]<br/>class = 1>, fillcolor="#399de5"] ;
130 -> 132 ;
133 [label=<gini = 0.0<br/>samples = 6<br/>value = [13, 0]<br/>class = 0>, fillcolor="#e58139"] ;
129 -> 133 ;
134 [label=<Pregnancies &le; 1.5<br/>gini = 0.497<br/>samples = 53<br/>value = [38, 44]<br/>class = 1>, fillcolor="#e4f2fb"] ;
128 -> 134 ;
135 [label=<Glucose &le; 113.0<br/>gini = 0.355<br/>samples = 16<br/>value = [6, 20]<br/>class = 1>, fillcolor="#74baed"] ;
134 -> 135 ;
136 [label=<BMI &le; 33.9<br/>gini = 0.408<br/>samples = 6<br/>value = [5, 2]<br/>class = 0>, fillcolor="#efb388"] ;
135 -> 136 ;
137 [label=<gini = 0.0<br/>samples = 3<br/>value = [4, 0]<br/>class = 0>, fillcolor="#e58139"] ;
136 -> 137 ;
138 [label=<Glucose &le; 102.5<br/>gini = 0.444<br/>samples = 3<br/>value = [1, 2]<br/>class = 1>, fillcolor="#9ccef2"] ;
136 -> 138 ;
139 [label=<gini = 0.0<br/>samples = 2<br/>value = [0, 2]<br/>class = 1>, fillcolor="#399de5"] ;
138 -> 139 ;
140 [label=<gini = 0.0<br/>samples = 1<br/>value = [1, 0]<br/>class = 0>, fillcolor="#e58139"] ;
138 -> 140 ;
141 [label=<Pregnancies &le; 0.5<br/>gini = 0.1<br/>samples = 10<br/>value = [1, 18]<br/>class = 1>, fillcolor="#44a2e6"] ;
135 -> 141 ;
142 [label=<BMI &le; 43.15<br/>gini = 0.5<br/>samples = 2<br/>value = [1, 1]<br/>class = 0>, fillcolor="#ffffff"] ;
141 -> 142 ;
143 [label=<gini = 0.0<br/>samples = 1<br/>value = [1, 0]<br/>class = 0>, fillcolor="#e58139"] ;
142 -> 143 ;
144 [label=<gini = 0.0<br/>samples = 1<br/>value = [0, 1]<br/>class = 1>, fillcolor="#399de5"] ;
142 -> 144 ;
145 [label=<gini = 0.0<br/>samples = 8<br/>value = [0, 17]<br/>class = 1>, fillcolor="#399de5"] ;
141 -> 145 ;
146 [label=<BMI &le; 29.25<br/>gini = 0.49<br/>samples = 37<br/>value = [32, 24]<br/>class = 0>, fillcolor="#f8e0ce"] ;
134 -> 146 ;
147 [label=<gini = 0.0<br/>samples = 3<br/>value = [0, 3]<br/>class = 1>, fillcolor="#399de5"] ;
146 -> 147 ;
148 [label=<Age &le; 48.5<br/>gini = 0.478<br/>samples = 34<br/>value = [32, 21]<br/>class = 0>, fillcolor="#f6d4bb"] ;
146 -> 148 ;
149 [label=<Age &le; 32.5<br/>gini = 0.427<br/>samples = 28<br/>value = [29, 13]<br/>class = 0>, fillcolor="#f1b992"] ;
148 -> 149 ;
150 [label=<Glucose &le; 114.0<br/>gini = 0.463<br/>samples = 7<br/>value = [4, 7]<br/>class = 1>, fillcolor="#aad5f4"] ;
149 -> 150 ;
151 [label=<gini = 0.0<br/>samples = 3<br/>value = [0, 5]<br/>class = 1>, fillcolor="#399de5"] ;
150 -> 151 ;
152 [label=<BMI &le; 38.55<br/>gini = 0.444<br/>samples = 4<br/>value = [4, 2]<br/>class = 0>, fillcolor="#f2c09c"] ;
150 -> 152 ;
153 [label=<gini = 0.0<br/>samples = 2<br/>value = [4, 0]<br/>class = 0>, fillcolor="#e58139"] ;
152 -> 153 ;
154 [label=<gini = 0.0<br/>samples = 2<br/>value = [0, 2]<br/>class = 1>, fillcolor="#399de5"] ;
152 -> 154 ;
155 [label=<Pregnancies &le; 3.0<br/>gini = 0.312<br/>samples = 21<br/>value = [25, 6]<br/>class = 0>, fillcolor="#eb9f69"] ;
149 -> 155 ;
156 [label=<gini = 0.0<br/>samples = 2<br/>value = [5, 0]<br/>class = 0>, fillcolor="#e58139"] ;
155 -> 156 ;
157 [label=<Age &le; 34.5<br/>gini = 0.355<br/>samples = 19<br/>value = [20, 6]<br/>class = 0>, fillcolor="#eda774"] ;
155 -> 157 ;
158 [label=<gini = 0.0<br/>samples = 3<br/>value = [5, 0]<br/>class = 0>, fillcolor="#e58139"] ;
157 -> 158 ;
159 [label=<Age &le; 35.5<br/>gini = 0.408<br/>samples = 16<br/>value = [15, 6]<br/>class = 0>, fillcolor="#efb388"] ;
157 -> 159 ;
160 [label=<gini = 0.0<br/>samples = 2<br/>value = [0, 2]<br/>class = 1>, fillcolor="#399de5"] ;
159 -> 160 ;
161 [label=<Glucose &le; 131.5<br/>gini = 0.332<br/>samples = 14<br/>value = [15, 4]<br/>class = 0>, fillcolor="#eca36e"] ;
159 -> 161 ;
162 [label=<Glucose &le; 129.0<br/>gini = 0.469<br/>samples = 7<br/>value = [5, 3]<br/>class = 0>, fillcolor="#f5cdb0"] ;
161 -> 162 ;
163 [label=<Age &le; 40.5<br/>gini = 0.278<br/>samples = 6<br/>value = [5, 1]<br/>class = 0>, fillcolor="#ea9a61"] ;
162 -> 163 ;
164 [label=<gini = 0.0<br/>samples = 3<br/>value = [3, 0]<br/>class = 0>, fillcolor="#e58139"] ;
163 -> 164 ;
165 [label=<Glucose &le; 107.0<br/>gini = 0.444<br/>samples = 3<br/>value = [2, 1]<br/>class = 0>, fillcolor="#f2c09c"] ;
163 -> 165 ;
166 [label=<gini = 0.0<br/>samples = 1<br/>value = [1, 0]<br/>class = 0>, fillcolor="#e58139"] ;
165 -> 166 ;
167 [label=<Age &le; 43.0<br/>gini = 0.5<br/>samples = 2<br/>value = [1, 1]<br/>class = 0>, fillcolor="#ffffff"] ;
165 -> 167 ;
168 [label=<gini = 0.0<br/>samples = 1<br/>value = [0, 1]<br/>class = 1>, fillcolor="#399de5"] ;
167 -> 168 ;
169 [label=<gini = 0.0<br/>samples = 1<br/>value = [1, 0]<br/>class = 0>, fillcolor="#e58139"] ;
167 -> 169 ;
170 [label=<gini = 0.0<br/>samples = 1<br/>value = [0, 2]<br/>class = 1>, fillcolor="#399de5"] ;
162 -> 170 ;
171 [label=<Age &le; 41.5<br/>gini = 0.165<br/>samples = 7<br/>value = [10, 1]<br/>class = 0>, fillcolor="#e88e4d"] ;
161 -> 171 ;
172 [label=<gini = 0.0<br/>samples = 5<br/>value = [8, 0]<br/>class = 0>, fillcolor="#e58139"] ;
171 -> 172 ;
173 [label=<Glucose &le; 142.5<br/>gini = 0.444<br/>samples = 2<br/>value = [2, 1]<br/>class = 0>, fillcolor="#f2c09c"] ;
171 -> 173 ;
174 [label=<gini = 0.0<br/>samples = 1<br/>value = [0, 1]<br/>class = 1>, fillcolor="#399de5"] ;
173 -> 174 ;
175 [label=<gini = 0.0<br/>samples = 1<br/>value = [2, 0]<br/>class = 0>, fillcolor="#e58139"] ;
173 -> 175 ;
176 [label=<Pregnancies &le; 6.5<br/>gini = 0.397<br/>samples = 6<br/>value = [3, 8]<br/>class = 1>, fillcolor="#83c2ef"] ;
148 -> 176 ;
177 [label=<Pregnancies &le; 3.5<br/>gini = 0.198<br/>samples = 5<br/>value = [1, 8]<br/>class = 1>, fillcolor="#52a9e8"] ;
176 -> 177 ;
178 [label=<gini = 0.0<br/>samples = 1<br/>value = [1, 0]<br/>class = 0>, fillcolor="#e58139"] ;
177 -> 178 ;
179 [label=<gini = 0.0<br/>samples = 4<br/>value = [0, 8]<br/>class = 1>, fillcolor="#399de5"] ;
177 -> 179 ;
180 [label=<gini = 0.0<br/>samples = 1<br/>value = [2, 0]<br/>class = 0>, fillcolor="#e58139"] ;
176 -> 180 ;
181 [label=<BMI &le; 50.95<br/>gini = 0.172<br/>samples = 35<br/>value = [6, 57]<br/>class = 1>, fillcolor="#4ea7e8"] ;
47 -> 181 ;
182 [label=<Age &le; 25.5<br/>gini = 0.148<br/>samples = 34<br/>value = [5, 57]<br/>class = 1>, fillcolor="#4aa6e7"] ;
181 -> 182 ;
183 [label=<gini = 0.0<br/>samples = 7<br/>value = [0, 19]<br/>class = 1>, fillcolor="#399de5"] ;
182 -> 183 ;
184 [label=<Pregnancies &le; 3.5<br/>gini = 0.206<br/>samples = 27<br/>value = [5, 38]<br/>class = 1>, fillcolor="#53aae8"] ;
182 -> 184 ;
185 [label=<BMI &le; 34.15<br/>gini = 0.074<br/>samples = 16<br/>value = [1, 25]<br/>class = 1>, fillcolor="#41a1e6"] ;
184 -> 185 ;
186 [label=<BMI &le; 33.65<br/>gini = 0.153<br/>samples = 6<br/>value = [1, 11]<br/>class = 1>, fillcolor="#4ba6e7"] ;
185 -> 186 ;
187 [label=<gini = 0.0<br/>samples = 5<br/>value = [0, 11]<br/>class = 1>, fillcolor="#399de5"] ;
186 -> 187 ;
188 [label=<gini = 0.0<br/>samples = 1<br/>value = [1, 0]<br/>class = 0>, fillcolor="#e58139"] ;
186 -> 188 ;
189 [label=<gini = 0.0<br/>samples = 10<br/>value = [0, 14]<br/>class = 1>, fillcolor="#399de5"] ;
185 -> 189 ;
190 [label=<Age &le; 50.0<br/>gini = 0.36<br/>samples = 11<br/>value = [4, 13]<br/>class = 1>, fillcolor="#76bbed"] ;
184 -> 190 ;
191 [label=<Glucose &le; 195.5<br/>gini = 0.444<br/>samples = 8<br/>value = [4, 8]<br/>class = 1>, fillcolor="#9ccef2"] ;
190 -> 191 ;
192 [label=<Age &le; 43.0<br/>gini = 0.32<br/>samples = 7<br/>value = [2, 8]<br/>class = 1>, fillcolor="#6ab6ec"] ;
191 -> 192 ;
193 [label=<gini = 0.0<br/>samples = 5<br/>value = [0, 8]<br/>class = 1>, fillcolor="#399de5"] ;
192 -> 193 ;
194 [label=<gini = 0.0<br/>samples = 2<br/>value = [2, 0]<br/>class = 0>, fillcolor="#e58139"] ;
192 -> 194 ;
195 [label=<gini = 0.0<br/>samples = 1<br/>value = [2, 0]<br/>class = 0>, fillcolor="#e58139"] ;
191 -> 195 ;
196 [label=<gini = 0.0<br/>samples = 3<br/>value = [0, 5]<br/>class = 1>, fillcolor="#399de5"] ;
190 -> 196 ;
197 [label=<gini = 0.0<br/>samples = 1<br/>value = [1, 0]<br/>class = 0>, fillcolor="#e58139"] ;
181 -> 197 ;
198 [label=<Glucose &le; 80.0<br/>gini = 0.467<br/>samples = 49<br/>value = [32, 54]<br/>class = 1>, fillcolor="#aed7f4"] ;
46 -> 198 ;
199 [label=<gini = 0.0<br/>samples = 5<br/>value = [9, 0]<br/>class = 0>, fillcolor="#e58139"] ;
198 -> 199 ;
200 [label=<Glucose &le; 155.0<br/>gini = 0.419<br/>samples = 44<br/>value = [23, 54]<br/>class = 1>, fillcolor="#8dc7f0"] ;
198 -> 200 ;
201 [label=<Age &le; 35.5<br/>gini = 0.475<br/>samples = 30<br/>value = [21, 33]<br/>class = 1>, fillcolor="#b7dbf6"] ;
200 -> 201 ;
202 [label=<Pregnancies &le; 10.0<br/>gini = 0.42<br/>samples = 5<br/>value = [7, 3]<br/>class = 0>, fillcolor="#f0b78e"] ;
201 -> 202 ;
203 [label=<Age &le; 33.5<br/>gini = 0.48<br/>samples = 3<br/>value = [2, 3]<br/>class = 1>, fillcolor="#bddef6"] ;
202 -> 203 ;
204 [label=<gini = 0.0<br/>samples = 2<br/>value = [0, 3]<br/>class = 1>, fillcolor="#399de5"] ;
203 -> 204 ;
205 [label=<gini = 0.0<br/>samples = 1<br/>value = [2, 0]<br/>class = 0>, fillcolor="#e58139"] ;
203 -> 205 ;
206 [label=<gini = 0.0<br/>samples = 2<br/>value = [5, 0]<br/>class = 0>, fillcolor="#e58139"] ;
202 -> 206 ;
207 [label=<Age &le; 38.5<br/>gini = 0.434<br/>samples = 25<br/>value = [14.0, 30.0]<br/>class = 1>, fillcolor="#95cbf1"] ;
201 -> 207 ;
208 [label=<gini = 0.0<br/>samples = 4<br/>value = [0, 6]<br/>class = 1>, fillcolor="#399de5"] ;
207 -> 208 ;
209 [label=<BMI &le; 38.2<br/>gini = 0.465<br/>samples = 21<br/>value = [14, 24]<br/>class = 1>, fillcolor="#acd6f4"] ;
207 -> 209 ;
210 [label=<Glucose &le; 151.0<br/>gini = 0.375<br/>samples = 14<br/>value = [6, 18]<br/>class = 1>, fillcolor="#7bbeee"] ;
209 -> 210 ;
211 [label=<Pregnancies &le; 9.5<br/>gini = 0.298<br/>samples = 13<br/>value = [4, 18]<br/>class = 1>, fillcolor="#65b3eb"] ;
210 -> 211 ;
212 [label=<gini = 0.0<br/>samples = 5<br/>value = [0, 8]<br/>class = 1>, fillcolor="#399de5"] ;
211 -> 212 ;
213 [label=<Pregnancies &le; 13.5<br/>gini = 0.408<br/>samples = 8<br/>value = [4, 10]<br/>class = 1>, fillcolor="#88c4ef"] ;
211 -> 213 ;
214 [label=<Age &le; 41.5<br/>gini = 0.463<br/>samples = 7<br/>value = [4, 7]<br/>class = 1>, fillcolor="#aad5f4"] ;
213 -> 214 ;
215 [label=<gini = 0.0<br/>samples = 1<br/>value = [2, 0]<br/>class = 0>, fillcolor="#e58139"] ;
214 -> 215 ;
216 [label=<Pregnancies &le; 12.5<br/>gini = 0.346<br/>samples = 6<br/>value = [2, 7]<br/>class = 1>, fillcolor="#72b9ec"] ;
214 -> 216 ;
217 [label=<Pregnancies &le; 11.0<br/>gini = 0.219<br/>samples = 5<br/>value = [1, 7]<br/>class = 1>, fillcolor="#55abe9"] ;
216 -> 217 ;
218 [label=<gini = 0.0<br/>samples = 3<br/>value = [0, 5]<br/>class = 1>, fillcolor="#399de5"] ;
217 -> 218 ;
219 [label=<BMI &le; 29.85<br/>gini = 0.444<br/>samples = 2<br/>value = [1, 2]<br/>class = 1>, fillcolor="#9ccef2"] ;
217 -> 219 ;
220 [label=<gini = 0.0<br/>samples = 1<br/>value = [0, 2]<br/>class = 1>, fillcolor="#399de5"] ;
219 -> 220 ;
221 [label=<gini = 0.0<br/>samples = 1<br/>value = [1, 0]<br/>class = 0>, fillcolor="#e58139"] ;
219 -> 221 ;
222 [label=<gini = 0.0<br/>samples = 1<br/>value = [1, 0]<br/>class = 0>, fillcolor="#e58139"] ;
216 -> 222 ;
223 [label=<gini = 0.0<br/>samples = 1<br/>value = [0, 3]<br/>class = 1>, fillcolor="#399de5"] ;
213 -> 223 ;
224 [label=<gini = 0.0<br/>samples = 1<br/>value = [2, 0]<br/>class = 0>, fillcolor="#e58139"] ;
210 -> 224 ;
225 [label=<BMI &le; 39.3<br/>gini = 0.49<br/>samples = 7<br/>value = [8, 6]<br/>class = 0>, fillcolor="#f8e0ce"] ;
209 -> 225 ;
226 [label=<gini = 0.0<br/>samples = 2<br/>value = [5, 0]<br/>class = 0>, fillcolor="#e58139"] ;
225 -> 226 ;
227 [label=<Age &le; 43.0<br/>gini = 0.444<br/>samples = 5<br/>value = [3, 6]<br/>class = 1>, fillcolor="#9ccef2"] ;
225 -> 227 ;
228 [label=<gini = 0.0<br/>samples = 2<br/>value = [3, 0]<br/>class = 0>, fillcolor="#e58139"] ;
227 -> 228 ;
229 [label=<gini = 0.0<br/>samples = 3<br/>value = [0, 6]<br/>class = 1>, fillcolor="#399de5"] ;
227 -> 229 ;
230 [label=<Age &le; 39.5<br/>gini = 0.159<br/>samples = 14<br/>value = [2, 21]<br/>class = 1>, fillcolor="#4ca6e7"] ;
200 -> 230 ;
231 [label=<BMI &le; 34.8<br/>gini = 0.375<br/>samples = 5<br/>value = [2, 6]<br/>class = 1>, fillcolor="#7bbeee"] ;
230 -> 231 ;
232 [label=<gini = 0.0<br/>samples = 3<br/>value = [0, 5]<br/>class = 1>, fillcolor="#399de5"] ;
231 -> 232 ;
233 [label=<Glucose &le; 173.5<br/>gini = 0.444<br/>samples = 2<br/>value = [2, 1]<br/>class = 0>, fillcolor="#f2c09c"] ;
231 -> 233 ;
234 [label=<gini = 0.0<br/>samples = 1<br/>value = [0, 1]<br/>class = 1>, fillcolor="#399de5"] ;
233 -> 234 ;
235 [label=<gini = 0.0<br/>samples = 1<br/>value = [2, 0]<br/>class = 0>, fillcolor="#e58139"] ;
233 -> 235 ;
236 [label=<gini = 0.0<br/>samples = 9<br/>value = [0, 15]<br/>class = 1>, fillcolor="#399de5"] ;
230 -> 236 ;
}