digraph Tree {
node [shape=box, style="filled, rounded", color="black", fontname="helvetica"] ;
edge [fontname="helvetica"] ;
0 [label=<Glucose &le; 154.5<br/>gini = 0.449<br/>samples = 392<br/>value = [405, 209]<br/>class = 0>, fillcolor="#f2c29f"] ;
1 [label=<Glucose &le; 103.5<br/>gini = 0.37<br/>samples = 331<br/>value = [379, 123]<br/>class = 0>, fillcolor="#edaa79"] ;
0 -> 1 [labeldistance=2.5, labelangle=45, headlabel="True"] ;
2 [label=<BMI &le; 37.6<br/>gini = 0.209<br/>samples = 126<br/>value = [171, 23]<br/>class = 0>, fillcolor="#e89254"] ;
1 -> 2 ;
3 [label=<BMI &le; 29.95<br/>gini = 0.087<br/>samples = 105<br/>value = [147, 7]<br/>class = 0>, fillcolor="#e68742"] ;
2 -> 3 ;
4 [label=<gini = 0.0<br/>samples = 58<br/>value = [84, 0]<br/>class = 0>, fillcolor="#e58139"] ;
3 -> 4 ;
5 [label=<Glucose &le; 94.5<br/>gini = 0.18<br/>samples = 47<br/>value = [63, 7]<br/>class = 0>, fillcolor="#e88f4f"] ;
3 -> 5 ;
6 [label=<BMI &le; 31.1<br/>gini = 0.081<br/>samples = 30<br/>value = [45, 2]<br/>class = 0>, fillcolor="#e68742"] ;
5 -> 6 ;
7 [label=<Age &le; 24.5<br/>gini = 0.408<br/>samples = 5<br/>value = [5, 2]<br/>class = 0>, fillcolor="#efb388"] ;
6 -> 7 ;
8 [label=<gini = 0.0<br/>samples = 4<br/>value = [5, 0]<br/>class = 0>, fillcolor="#e58139"] ;
7 -> 8 ;
9 [label=<gini = 0.0<br/>samples = 1<br/>value = [0, 2]<br/>class = 1>, fillcolor="#399de5"] ;
7 -> 9 ;
10 [label=<gini = 0.0<br/>samples = 25<br/>value = [40, 0]<br/>class = 0>, fillcolor="#e58139"] ;
6 -> 10 ;
11 [label=<BMI &le; 33.45<br/>gini = 0.34<br/>samples = 17<br/>value = [18, 5]<br/>class = 0>, fillcolor="#eca470"] ;
5 -> 11 ;
12 [label=<Age &le; 26.0<br/>gini = 0.5<br/>samples = 7<br/>value = [4, 4]<br/>class = 0>, fillcolor="#ffffff"] ;
11 -> 12 ;
13 [label=<gini = 0.0<br/>samples = 2<br/>value = [2, 0]<br/>class = 0>, fillcolor="#e58139"] ;
12 -> 13 ;
14 [label=<Age &le; 32.5<br/>gini = 0.444<br/>samples = 5<br/>value = [2, 4]<br/>class = 1>, fillcolor="#9ccef2"] ;
12 -> 14 ;
15 [label=<Age &le; 29.5<br/>gini = 0.32<br/>samples = 4<br/>value = [1, 4]<br/>class = 1>, fillcolor="#6ab6ec"] ;
14 -> 15 ;
16 [label=<BMI &le; 32.25<br/>gini = 0.5<br/>samples = 2<br/>value = [1, 1]<br/>class = 0>, fillcolor="#ffffff"] ;
15 -> 16 ;
17 [label=<gini = 0.0<br/>samples = 1<br/>value = [1, 0]<br/>class = 0>, fillcolor="#e58139"] ;
16 -> 17 ;
18 [label=<gini = 0.0<br/>samples = 1<br/>value = [0, 1]<br/>class = 1>, fillcolor="#399de5"] ;
16 -> 18 ;
19 [label=<gini = 0.0<br/>samples = 2<br/>value = [0, 3]<br/>class = 1>, fillcolor="#399de5"] ;
15 -> 19 ;
20 [label=<gini = 0.0<br/>samples = 1<br/>value = [1, 0]<br/>class = 0>, fillcolor="#e58139"] ;
14 -> 20 ;
21 [label=<Age &le; 51.0<br/>gini = 0.124<br/>samples = 10<br/>value = [14, 1]<br/>class = 0>, fillcolor="#e78a47"] ;
11 -> 21 ;
22 [label=<gini = 0.0<br/>samples = 9<br/>value = [14, 0]<br/>class = 0>, fillcolor="#e58139"] ;
21 -> 22 ;
23 [label=<gini = 0.0<br/>samples = 1<br/>value = [0, 1]<br/>class = 1>, fillcolor="#399de5"] ;
21 -> 23 ;
24 [label=<Pregnancies &le; 0.5<br/>gini = 0.48<br/>samples = 21<br/>value = [24, 16]<br/>class = 0>, fillcolor="#f6d5bd"] ;
2 -> 24 ;
25 [label=<gini = 0.0<br/>samples = 6<br/>value = [14, 0]<br/>class = 0>, fillcolor="#e58139"] ;
24 -> 25 ;
26 [label=<Glucose &le; 39.5<br/>gini = 0.473<br/>samples = 15<br/>value = [10, 16]<br/>class = 1>, fillcolor="#b5daf5"] ;
24 -> 26 ;
27 [label=<gini = 0.0<br/>samples = 2<br/>value = [0, 5]<br/>class = 1>, fillcolor="#399de5"] ;
26 -> 27 ;
28 [label=<Pregnancies &le; 7.5<br/>gini = 0.499<br/>samples = 13<br/>value = [10, 11]<br/>class = 1>, fillcolor="#edf6fd"] ;
26 -> 28 ;
29 [label=<BMI &le; 41.1<br/>gini = 0.457<br/>samples = 11<br/>value = [6, 11]<br/>class = 1>, fillcolor="#a5d2f3"] ;
28 -> 29 ;
30 [label=<Age &le; 22.0<br/>gini = 0.18<br/>samples = 5<br/>value = [1, 9]<br/>class = 1>, fillcolor="#4fa8e8"] ;
29 -> 30 ;
31 [label=<gini = 0.0<br/>samples = 1<br/>value = [1, 0]<br/>class = 0>, fillcolor="#e58139"] ;
30 -> 31 ;
32 [label=<gini = 0.0<br/>samples = 4<br/>value = [0, 9]<br/>class = 1>, fillcolor="#399de5"] ;
30 -> 32 ;
33 [label=<Age &le; 27.5<br/>gini = 0.408<br/>samples = 6<br/>value = [5, 2]<br/>class = 0>, fillcolor="#efb388"] ;
29 -> 33 ;
34 [label=<Pregnancies &le; 2.0<br/>gini = 0.5<br/>samples = 3<br/>value = [2, 2]<br/>class = 0>, fillcolor="#ffffff"] ;
33 -> 34 ;
35 [label=<Age &le; 24.5<br/>gini = 0.444<br/>samples = 2<br/>value = [1, 2]<br/>class = 1>, fillcolor="#9ccef2"] ;
34 -> 35 ;
36 [label=<gini = 0.0<br/>samples = 1<br/>value = [1, 0]<br/>class = 0>, fillcolor="#e58139"] ;
35 -> 36 ;
37 [label=<gini = 0.0<br/>samples = 1<br/>value = [0, 2]<br/>class = 1>, fillcolor="#399de5"] ;
35 -> 37 ;
38 [label=<gini = 0.0<br/>samples = 1<br/>value = [1, 0]<br/>class = 0>, fillcolor="#e58139"] ;
34 -> 38 ;
39 [label=<gini = 0.0<br/>samples = 3<br/>value = [3, 0]<br/>class = 0>, fillcolor="#e58139"] ;
33 -> 39 ;
40 [label=<gini = 0.0<br/>samples = 2<br/>value = [4, 0]<br/>class = 0>, fillcolor="#e58139"] ;
28 -> 40 ;
41 [label=<Age &le; 30.5<br/>gini = 0.439<br/>samples = 205<br/>value = [208, 100]<br/>class = 0>, fillcolor="#f2be98"] ;
1 -> 41 ;
42 [label=<Pregnancies &le; 4.5<br/>gini = 0.312<br/>samples = 119<br/>value = [142, 34]<br/>class = 0>, fillcolor="#eb9f68"] ;
41 -> 42 ;
43 [label=<BMI &le; 47.3<br/>gini = 0.254<br/>samples = 105<br/>value = [131, 23]<br/>class = 0>, fillcolor="#ea975c"] ;
42 -> 43 ;
44 [label=<BMI &le; 32.0<br/>gini = 0.238<br/>samples = 104<br/>value = [131.0, 21.0]<br/>class = 0>, fillcolor="#e99559"] ;
43 -> 44 ;
45 [label=<Age &le; 27.5<br/>gini = 0.149<br/>samples = 53<br/>value = [68, 6]<br/>class = 0>, fillcolor="#e78c4a"] ;
44 -> 45 ;
46 [label=<Pregnancies &le; 2.5<br/>gini = 0.089<br/>samples = 45<br/>value = [61, 3]<br/>class = 0>, fillcolor="#e68743"] ;
45 -> 46 ;
47 [label=<gini = 0.0<br/>samples = 34<br/>value = [51, 0]<br/>class = 0>, fillcolor="#e58139"] ;
46 -> 47 ;
48 [label=<Age &le; 23.5<br/>gini = 0.355<br/>samples = 11<br/>value = [10, 3]<br/>class = 0>, fillcolor="#eda774"] ;
46 -> 48 ;
49 [label=<Glucose &le; 109.0<br/>gini = 0.49<br/>samples = 6<br/>value = [4, 3]<br/>class = 0>, fillcolor="#f8e0ce"] ;
48 -> 49 ;
50 [label=<gini = 0.0<br/>samples = 1<br/>value = [0, 2]<br/>class = 1>, fillcolor="#399de5"] ;
49 -> 50 ;
51 [label=<Glucose &le; 134.5<br/>gini = 0.32<br/>samples = 5<br/>value = [4, 1]<br/>class = 0>, fillcolor="#eca06a"] ;
49 -> 51 ;
52 [label=<gini = 0.0<br/>samples = 4<br/>value = [4, 0]<br/>class = 0>, fillcolor="#e58139"] ;
51 -> 52 ;
53 [label=<gini = 0.0<br/>samples = 1<br/>value = [0, 1]<br/>class = 1>, fillcolor="#399de5"] ;
51 -> 53 ;
54 [label=<gini = 0.0<br/>samples = 5<br/>value = [6, 0]<br/>class = 0>, fillcolor="#e58139"] ;
48 -> 54 ;
55 [label=<Pregnancies &le; 1.5<br/>gini = 0.42<br/>samples = 8<br/>value = [7, 3]<br/>class = 0>, fillcolor="#f0b78e"] ;
45 -> 55 ;
56 [label=<gini = 0.0<br/>samples = 3<br/>value = [4, 0]<br/>class = 0>, fillcolor="#e58139"] ;
55 -> 56 ;
57 [label=<Glucose &le; 114.0<br/>gini = 0.5<br/>samples = 5<br/>value = [3, 3]<br/>class = 0>, fillcolor="#ffffff"] ;
55 -> 57 ;
58 [label=<gini = 0.0<br/>samples = 2<br/>value = [3, 0]<br/>class = 0>, fillcolor="#e58139"] ;
57 -> 58 ;
59 [label=<gini = 0.0<br/>samples = 3<br/>value = [0, 3]<br/>class = 1>, fillcolor="#399de5"] ;
57 -> 59 ;
60 [label=<Age &le; 26.5<br/>gini = 0.311<br/>samples = 51<br/>value = [63, 15]<br/>class = 0>, fillcolor="#eb9f68"] ;
44 -> 60 ;
61 [label=<Glucose &le; 133.5<br/>gini = 0.39<br/>samples = 36<br/>value = [36, 13]<br/>class = 0>, fillcolor="#eeae80"] ;
60 -> 61 ;
62 [label=<Glucose &le; 113.5<br/>gini = 0.331<br/>samples = 30<br/>value = [34, 9]<br/>class = 0>, fillcolor="#eca26d"] ;
61 -> 62 ;
63 [label=<Pregnancies &le; 3.0<br/>gini = 0.444<br/>samples = 14<br/>value = [14, 7]<br/>class = 0>, fillcolor="#f2c09c"] ;
62 -> 63 ;
64 [label=<Glucose &le; 112.5<br/>gini = 0.388<br/>samples = 13<br/>value = [14, 5]<br/>class = 0>, fillcolor="#eeae80"] ;
63 -> 64 ;
65 [label=<BMI &le; 37.05<br/>gini = 0.219<br/>samples = 11<br/>value = [14, 2]<br/>class = 0>, fillcolor="#e99355"] ;
64 -> 65 ;
66 [label=<Pregnancies &le; 0.5<br/>gini = 0.375<br/>samples = 6<br/>value = [6, 2]<br/>class = 0>, fillcolor="#eeab7b"] ;
65 -> 66 ;
67 [label=<gini = 0.0<br/>samples = 1<br/>value = [0, 2]<br/>class = 1>, fillcolor="#399de5"] ;
66 -> 67 ;
68 [label=<gini = 0.0<br/>samples = 5<br/>value = [6, 0]<br/>class = 0>, fillcolor="#e58139"] ;
66 -> 68 ;
69 [label=<gini = 0.0<br/>samples = 5<br/>value = [8, 0]<br/>class = 0>, fillcolor="#e58139"] ;
65 -> 69 ;
70 [label=<gini = 0.0<br/>samples = 2<br/>value = [0, 3]<br/>class = 1>, fillcolor="#399de5"] ;
64 -> 70 ;
71 [label=<gini = 0.0<br/>samples = 1<br/>value = [0, 2]<br/>class = 1>, fillcolor="#399de5"] ;
63 -> 71 ;
72 [label=<Glucose &le; 130.5<br/>gini = 0.165<br/>samples = 16<br/>value = [20, 2]<br/>class = 0>, fillcolor="#e88e4d"] ;
62 -> 72 ;
73 [label=<BMI &le; 40.25<br/>gini = 0.1<br/>samples = 14<br/>value = [18, 1]<br/>class = 0>, fillcolor="#e68844"] ;
72 -> 73 ;
74 [label=<gini = 0.0<br/>samples = 11<br/>value = [16, 0]<br/>class = 0>, fillcolor="#e58139"] ;
73 -> 74 ;
75 [label=<Glucose &le; 123.5<br/>gini = 0.444<br/>samples = 3<br/>value = [2, 1]<br/>class = 0>, fillcolor="#f2c09c"] ;
73 -> 75 ;
76 [label=<gini = 0.0<br/>samples = 2<br/>value = [2, 0]<br/>class = 0>, fillcolor="#e58139"] ;
75 -> 76 ;
77 [label=<gini = 0.0<br/>samples = 1<br/>value = [0, 1]<br/>class = 1>, fillcolor="#399de5"] ;
75 -> 77 ;
78 [label=<BMI &le; 32.65<br/>gini = 0.444<br/>samples = 2<br/>value = [2, 1]<br/>class = 0>, fillcolor="#f2c09c"] ;
72 -> 78 ;
79 [label=<gini = 0.0<br/>samples = 1<br/>value = [2, 0]<br/>class = 0>, fillcolor="#e58139"] ;
78 -> 79 ;
80 [label=<gini = 0.0<br/>samples = 1<br/>value = [0, 1]<br/>class = 1>, fillcolor="#399de5"] ;
78 -> 80 ;
81 [label=<Pregnancies &le; 0.5<br/>gini = 0.444<br/>samples = 6<br/>value = [2, 4]<br/>class = 1>, fillcolor="#9ccef2"] ;
61 -> 81 ;
82 [label=<gini = 0.0<br/>samples = 4<br/>value = [0, 4]<br/>class = 1>, fillcolor="#399de5"] ;
81 -> 82 ;
83 [label=<gini = 0.0<br/>samples = 2<br/>value = [2, 0]<br/>class = 0>, fillcolor="#e58139"] ;
81 -> 83 ;
84 [label=<BMI &le; 33.1<br/>gini = 0.128<br/>samples = 15<br/>value = [27, 2]<br/>class = 0>, fillcolor="#e78a48"] ;
60 -> 84 ;
85 [label=<Glucose &le; 119.0<br/>gini = 0.444<br/>samples = 2<br/>value = [2, 1]<br/>class = 0>, fillcolor="#f2c09c"] ;
84 -> 85 ;
86 [label=<gini = 0.0<br/>samples = 1<br/>value = [2, 0]<br/>class = 0>, fillcolor="#e58139"] ;
85 -> 86 ;
87 [label=<gini = 0.0<br/>samples = 1<br/>value = [0, 1]<br/>class = 1>, fillcolor="#399de5"] ;
85 -> 87 ;
88 [label=<BMI &le; 35.15<br/>gini = 0.074<br/>samples = 13<br/>value = [25, 1]<br/>class = 0>, fillcolor="#e68641"] ;
84 -> 88 ;
89 [label=<Pregnancies &le; 2.5<br/>gini = 0.18<br/>samples = 5<br/>value = [9, 1]<br/>class = 0>, fillcolor="#e88f4f"] ;
88 -> 89 ;
90 [label=<Age &le; 28.5<br/>gini = 0.375<br/>samples = 2<br/>value = [3, 1]<br/>class = 0>, fillcolor="#eeab7b"] ;
89 -> 90 ;
91 [label=<gini = 0.0<br/>samples = 1<br/>value = [3, 0]<br/>class = 0>, fillcolor="#e58139"] ;
90 -> 91 ;
92 [label=<gini = 0.0<br/>samples = 1<br/>value = [0, 1]<br/>class = 1>, fillcolor="#399de5"] ;
90 -> 92 ;
93 [label=<gini = 0.0<br/>samples = 3<br/>value = [6, 0]<br/>class = 0>, fillcolor="#e58139"] ;
89 -> 93 ;
94 [label=<gini = 0.0<br/>samples = 8<br/>value = [16, 0]<br/>class = 0>, fillcolor="#e58139"] ;
88 -> 94 ;
95 [label=<gini = 0.0<br/>samples = 1<br/>value = [0, 2]<br/>class = 1>, fillcolor="#399de5"] ;
43 -> 95 ;
96 [label=<BMI &le; 26.25<br/>gini = 0.5<br/>samples = 14<br/>value = [11, 11]<br/>class = 0>, fillcolor="#ffffff"] ;
42 -> 96 ;
97 [label=<gini = 0.0<br/>samples = 4<br/>value = [6, 0]<br/>class = 0>, fillcolor="#e58139"] ;
96 -> 97 ;
98 [label=<Glucose &le; 136.5<br/>gini = 0.43<br/>samples = 10<br/>value = [5, 11]<br/>class = 1>, fillcolor="#93caf1"] ;
96 -> 98 ;
99 [label=<Age &le; 24.5<br/>gini = 0.298<br/>samples = 7<br/>value = [2, 9]<br/>class = 1>, fillcolor="#65b3eb"] ;
98 -> 99 ;
100 [label=<gini = 0.0<br/>samples = 1<br/>value = [1, 0]<br/>class = 0>, fillcolor="#e58139"] ;
99 -> 100 ;
101 [label=<Age &le; 29.5<br/>gini = 0.18<br/>samples = 6<br/>value = [1, 9]<br/>class = 1>, fillcolor="#4fa8e8"] ;
99 -> 101 ;
102 [label=<gini = 0.0<br/>samples = 5<br/>value = [0, 9]<br/>class = 1>, fillcolor="#399de5"] ;
101 -> 102 ;
103 [label=<gini = 0.0<br/>samples = 1<br/>value = [1, 0]<br/>class = 0>, fillcolor="#e58139"] ;
101 -> 103 ;
104 [label=<Glucose &le; 145.0<br/>gini = 0.48<br/>samples = 3<br/>value = [3, 2]<br/>class = 0>, fillcolor="#f6d5bd"] ;
98 -> 104 ;
105 [label=<Age &le; 25.5<br/>gini = 0.5<br/>samples = 2<br/>value = [2, 2]<br/>class = 0>, fillcolor="#ffffff"] ;
104 -> 105 ;
106 [label=<gini = 0.0<br/>samples = 1<br/>value = [0, 2]<br/>class = 1>, fillcolor="#399de5"] ;
105 -> 106 ;
107 [label=<gini = 0.0<br/>samples = 1<br/>value = [2, 0]<br/>class = 0>, fillcolor="#e58139"] ;
105 -> 107 ;
108 [label=<gini = 0.0<br/>samples = 1<br/>value = [1, 0]<br/>class = 0>, fillcolor="#e58139"] ;
104 -> 108 ;
109 [label=<Pregnancies &le; 6.5<br/>gini = 0.5<br/>samples = 86<br/>value = [66, 66]<br/>class = 0>, fillcolor="#ffffff"] ;
41 -> 109 ;
110 [label=<Age &le; 34.5<br/>gini = 0.484<br/>samples = 53<br/>value = [32, 46]<br/>class = 1>, fillcolor="#c3e1f7"] ;
109 -> 110 ;
111 [label=<BMI &le; 40.05<br/>gini = 0.48<br/>samples = 15<br/>value = [12, 8]<br/>class = 0>, fillcolor="#f6d5bd"] ;
110 -> 111 ;
112 [label=<BMI &le; 31.25<br/>gini = 0.32<br/>samples = 12<br/>value = [12, 3]<br/>class = 0>, fillcolor="#eca06a"] ;
111 -> 112 ;
113 [label=<gini = 0.0<br/>samples = 5<br/>value = [8, 0]<br/>class = 0>, fillcolor="#e58139"] ;
112 -> 113 ;
114 [label=<Pregnancies &le; 4.0<br/>gini = 0.49<br/>samples = 7<br/>value = [4, 3]<br/>class = 0>, fillcolor="#f8e0ce"] ;
112 -> 114 ;
115 [label=<Pregnancies &le; 1.5<br/>gini = 0.375<br/>samples = 4<br/>value = [1, 3]<br/>class = 1>, fillcolor="#7bbeee"] ;
114 -> 115 ;
116 [label=<gini = 0.0<br/>samples = 2<br/>value = [0, 2]<br/>class = 1>, fillcolor="#399de5"] ;
115 -> 116 ;
117 [label=<Age &le; 31.5<br/>gini = 0.5<br/>samples = 2<br/>value = [1, 1]<br/>class = 0>, fillcolor="#ffffff"] ;
115 -> 117 ;
118 [label=<gini = 0.0<br/>samples = 1<br/>value = [1, 0]<br/>class = 0>, fillcolor="#e58139"] ;
117 -> 118 ;
119 [label=<gini = 0.0<br/>samples = 1<br/>value = [0, 1]<br/>class = 1>, fillcolor="#399de5"] ;
117 -> 119 ;
120 [label=<gini = 0.0<br/>samples = 3<br/>value = [3, 0]<br/>class = 0>, fillcolor="#e58139"] ;
114 -> 120 ;
121 [label=<gini = 0.0<br/>samples = 3<br/>value = [0, 5]<br/>class = 1>, fillcolor="#399de5"] ;
111 -> 121 ;
122 [label=<BMI &le; 25.95<br/>gini = 0.452<br/>samples = 38<br/>value = [20, 38]<br/>class = 1>, fillcolor="#a1d1f3"] ;
110 -> 122 ;
123 [label=<gini = 0.0<br/>samples = 4<br/>value = [5, 0]<br/>class = 0>, fillcolor="#e58139"] ;
122 -> 123 ;
124 [label=<Glucose &le; 150.0<br/>gini = 0.406<br/>samples = 34<br/>value = [15, 38]<br/>class = 1>, fillcolor="#87c4ef"] ;
122 -> 124 ;
125 [label=<Age &le; 49.5<br/>gini = 0.365<br/>samples = 32<br/>value = [12, 38]<br/>class = 1>, fillcolor="#78bced"] ;
124 -> 125 ;
126 [label=<BMI &le; 38.15<br/>gini = 0.426<br/>samples = 26<br/>value = [12, 27]<br/>class = 1>, fillcolor="#91c9f1"] ;
125 -> 126 ;
127 [label=<BMI &le; 28.25<br/>gini = 0.293<br/>samples = 17<br/>value = [5, 23]<br/>class = 1>, fillcolor="#64b2eb"] ;
126 -> 127 ;
128 [label=<Pregnancies &le; 2.0<br/>gini = 0.48<br/>samples = 2<br/>value = [3, 2]<br/>class = 0>, fillcolor="#f6d5bd"] ;
127 -> 128 ;
129 [label=<gini = 0.0<br/>samples = 1<br/>value = [0, 2]<br/>class = 1>, fillcolor="#399de5"] ;
128 -> 129 ;
130 [label=<gini = 0.0<br/>samples = 1<br/>value = [3, 0]<br/>class = 0>, fillcolor="#e58139"] ;
128 -> 130 ;
131 [label=<Age &le; 44.5<br/>gini = 0.159<br/>samples = 15<br/>value = [2, 21]<br/>class = 1>, fillcolor="#4ca6e7"] ;
127 -> 131 ;
132 [label=<gini = 0.0<br/>samples = 9<br/>value = [0, 16]<br/>class = 1>, fillcolor="#399de5"] ;
131 -> 132 ;
133 [label=<Glucose &le; 110.0<br/>gini = 0.408<br/>samples = 6<br/>value = [2, 5]<br/>class = 1>, fillcolor="#88c4ef"] ;
131 -> 133 ;
134 [label=<gini = 0.0<br/>samples = 1<br/>value = [1, 0]<br/>class = 0>, fillcolor="#e58139"] ;
133 -> 134 ;
135 [label=<Glucose &le; 127.0<br/>gini = 0.278<br/>samples = 5<br/>value = [1, 5]<br/>class = 1>, fillcolor="#61b1ea"] ;
133 -> 135 ;
136 [label=<gini = 0.0<br/>samples = 3<br/>value = [0, 4]<br/>class = 1>, fillcolor="#399de5"] ;
135 -> 136 ;
137 [label=<BMI &le; 33.7<br/>gini = 0.5<br/>samples = 2<br/>value = [1, 1]<br/>class = 0>, fillcolor="#ffffff"] ;
135 -> 137 ;
138 [label=<gini = 0.0<br/>samples = 1<br/>value = [0, 1]<br/>class = 1>, fillcolor="#399de5"] ;
137 -> 138 ;
139 [label=<gini = 0.0<br/>samples = 1<br/>value = [1, 0]<br/>class = 0>, fillcolor="#e58139"] ;
137 -> 139 ;
140 [label=<Glucose &le; 129.5<br/>gini = 0.463<br/>samples = 9<br/>value = [7, 4]<br/>class = 0>, fillcolor="#f4c9aa"] ;
126 -> 140 ;
141 [label=<gini = 0.0<br/>samples = 4<br/>value = [5, 0]<br/>class = 0>, fillcolor="#e58139"] ;
140 -> 141 ;
142 [label=<Pregnancies &le; 0.5<br/>gini = 0.444<br/>samples = 5<br/>value = [2, 4]<br/>class = 1>, fillcolor="#9ccef2"] ;
140 -> 142 ;
143 [label=<gini = 0.0<br/>samples = 1<br/>value = [1, 0]<br/>class = 0>, fillcolor="#e58139"] ;
142 -> 143 ;
144 [label=<Age &le; 46.5<br/>gini = 0.32<br/>samples = 4<br/>value = [1, 4]<br/>class = 1>, fillcolor="#6ab6ec"] ;
142 -> 144 ;
145 [label=<gini = 0.0<br/>samples = 3<br/>value = [0, 4]<br/>class = 1>, fillcolor="#399de5"] ;
144 -> 145 ;
146 [label=<gini = 0.0<br/>samples = 1<br/>value = [1, 0]<br/>class = 0>, fillcolor="#e58139"] ;
144 -> 146 ;
147 [label=<gini = 0.0<br/>samples = 6<br/>value = [0, 11]<br/>class = 1>, fillcolor="#399de5"] ;
125 -> 147 ;
148 [label=<gini = 0.0<br/>samples = 2<br/>value = [3, 0]<br/>class = 0>, fillcolor="#e58139"] ;
124 -> 148 ;
149 [label=<BMI &le; 32.55<br/>gini = 0.466<br/>samples = 33<br/>value = [34, 20]<br/>class = 0>, fillcolor="#f4cbad"] ;
109 -> 149 ;
150 [label=<Glucose &le; 148.5<br/>gini = 0.238<br/>samples = 18<br/>value = [25, 4]<br/>class = 0>, fillcolor="#e99559"] ;
149 -> 150 ;
151 [label=<Age &le; 35.5<br/>gini = 0.191<br/>samples = 17<br/>value = [25, 3]<br/>class = 0>, fillcolor="#e89051"] ;
150 -> 151 ;
152 [label=<BMI &le; 25.6<br/>gini = 0.444<br/>samples = 2<br/>value = [1, 2]<br/>class = 1>, fillcolor="#9ccef2"] ;
151 -> 152 ;
153 [label=<gini = 0.0<br/>samples = 1<br/>value = [1, 0]<br/>class = 0>, fillcolor="#e58139"] ;
152 -> 153 ;
154 [label=<gini = 0.0<br/>samples = 1<br/>value = [0, 2]<br/>class = 1>, fillcolor="#399de5"] ;
152 -> 154 ;
155 [label=<Age &le; 51.5<br/>gini = 0.077<br/>samples = 15<br/>value = [24, 1]<br/>class = 0>, fillcolor="#e68641"] ;
151 -> 155 ;
156 [label=<gini = 0.0<br/>samples = 11<br/>value = [17, 0]<br/>class = 0>, fillcolor="#e58139"] ;
155 -> 156 ;
157 [label=<BMI &le; 26.85<br/>gini = 0.219<br/>samples = 4<br/>value = [7, 1]<br/>class = 0>, fillcolor="#e99355"] ;
155 -> 157 ;
158 [label=<gini = 0.0<br/>samples = 2<br/>value = [4, 0]<br/>class = 0>, fillcolor="#e58139"] ;
157 -> 158 ;
159 [label=<BMI &le; 28.75<br/>gini = 0.375<br/>samples = 2<br/>value = [3, 1]<br/>class = 0>, fillcolor="#eeab7b"] ;
157 -> 159 ;
160 [label=<gini = 0.0<br/>samples = 1<br/>value = [0, 1]<br/>class = 1>, fillcolor="#399de5"] ;
159 -> 160 ;
161 [label=<gini = 0.0<br/>samples = 1<br/>value = [3, 0]<br/>class = 0>, fillcolor="#e58139"] ;
159 -> 161 ;
162 [label=<gini = 0.0<br/>samples = 1<br/>value = [0, 1]<br/>class = 1>, fillcolor="#399de5"] ;
150 -> 162 ;
163 [label=<BMI &le; 39.45<br/>gini = 0.461<br/>samples = 15<br/>value = [9, 16]<br/>class = 1>, fillcolor="#a8d4f4"] ;
149 -> 163 ;
164 [label=<Pregnancies &le; 10.5<br/>gini = 0.499<br/>samples = 12<br/>value = [9, 10]<br/>class = 1>, fillcolor="#ebf5fc"] ;
163 -> 164 ;
165 [label=<gini = 0.0<br/>samples = 6<br/>value = [0, 8]<br/>class = 1>, fillcolor="#399de5"] ;
164 -> 165 ;
166 [label=<BMI &le; 37.25<br/>gini = 0.298<br/>samples = 6<br/>value = [9, 2]<br/>class = 0>, fillcolor="#eb9d65"] ;
164 -> 166 ;
167 [label=<BMI &le; 35.15<br/>gini = 0.444<br/>samples = 4<br/>value = [4, 2]<br/>class = 0>, fillcolor="#f2c09c"] ;
166 -> 167 ;
168 [label=<gini = 0.0<br/>samples = 2<br/>value = [4, 0]<br/>class = 0>, fillcolor="#e58139"] ;
167 -> 168 ;
169 [label=<gini = 0.0<br/>samples = 2<br/>value = [0, 2]<br/>class = 1>, fillcolor="#399de5"] ;
167 -> 169 ;
170 [label=<gini = 0.0<br/>samples = 2<br/>value = [5, 0]<br/>class = 0>, fillcolor="#e58139"] ;
166 -> 170 ;
171 [label=<gini = 0.0<br/>samples = 3<br/>value = [0, 6]<br/>class = 1>, fillcolor="#399de5"] ;
163 -> 171 ;
172 [label=<BMI &le; 28.65<br/>gini = 0.357<br/>samples = 61<br/>value = [26, 86]<br/>class = 1>, fillcolor="#75bbed"] ;
0 -> 172 [labeldistance=2.5, labelangle=-45, headlabel="False"] ;
173 [label=<Pregnancies &le; 9.0<br/>gini = 0.496<br/>samples = 10<br/>value = [12, 10]<br/>class = 0>, fillcolor="#fbeade"] ;
172 -> 173 ;
174 [label=<Age &le; 60.5<br/>gini = 0.465<br/>samples = 9<br/>value = [12, 7]<br/>class = 0>, fillcolor="#f4caac"] ;
173 -> 174 ;
175 [label=<Age &le; 45.0<br/>gini = 0.486<br/>samples = 7<br/>value = [5, 7]<br/>class = 1>, fillcolor="#c6e3f8"] ;
174 -> 175 ;
176 [label=<Pregnancies &le; 1.5<br/>gini = 0.408<br/>samples = 4<br/>value = [5, 2]<br/>class = 0>, fillcolor="#efb388"] ;
175 -> 176 ;
177 [label=<gini = 0.0<br/>samples = 2<br/>value = [3, 0]<br/>class = 0>, fillcolor="#e58139"] ;
176 -> 177 ;
178 [label=<Age &le; 33.5<br/>gini = 0.5<br/>samples = 2<br/>value = [2, 2]<br/>class = 0>, fillcolor="#ffffff"] ;
176 -> 178 ;
179 [label=<gini = 0.0<br/>samples = 1<br/>value = [0, 2]<br/>class = 1>, fillcolor="#399de5"] ;
178 -> 179 ;
180 [label=<gini = 0.0<br/>samples = 1<br/>value = [2, 0]<br/>class = 0>, fillcolor="#e58139"] ;
178 -> 180 ;
181 [label=<gini = 0.0<br/>samples = 3<br/>value = [0, 5]<br/>class = 1>, fillcolor="#399de5"] ;
175 -> 181 ;
182 [label=<gini = 0.0<br/>samples = 2<br/>value = [7, 0]<br/>class = 0>, fillcolor="#e58139"] ;
174 -> 182 ;
183 [label=<gini = 0.0<br/>samples = 1<br/>value = [0, 3]<br/>class = 1>, fillcolor="#399de5"] ;
173 -> 183 ;
184 [label=<Age &le; 37.5<br/>gini = 0.263<br/>samples = 51<br/>value = [14, 76]<br/>class = 1>, fillcolor="#5dafea"] ;
172 -> 184 ;
185 [label=<Pregnancies &le; 1.5<br/>gini = 0.375<br/>samples = 30<br/>value = [14, 42]<br/>class = 1>, fillcolor="#7bbeee"] ;
184 -> 185 ;
186 [label=<gini = 0.0<br/>samples = 8<br/>value = [0, 15]<br/>class = 1>, fillcolor="#399de5"] ;
185 -> 186 ;
187 [label=<BMI &le; 33.95<br/>gini = 0.45<br/>samples = 22<br/>value = [14.0, 27.0]<br/>class = 1>, fillcolor="#a0d0f2"] ;
185 -> 187 ;
188 [label=<Glucose &le; 161.0<br/>gini = 0.111<br/>samples = 9<br/>value = [1, 16]<br/>class = 1>, fillcolor="#45a3e7"] ;
187 -> 188 ;
189 [label=<gini = 0.0<br/>samples = 1<br/>value = [1, 0]<br/>class = 0>, fillcolor="#e58139"] ;
188 -> 189 ;
190 [label=<gini = 0.0<br/>samples = 8<br/>value = [0, 16]<br/>class = 1>, fillcolor="#399de5"] ;
188 -> 190 ;
191 [label=<BMI &le; 41.5<br/>gini = 0.497<br/>samples = 13<br/>value = [13, 11]<br/>class = 0>, fillcolor="#fbece1"] ;
187 -> 191 ;
192 [label=<Glucose &le; 157.5<br/>gini = 0.455<br/>samples = 10<br/>value = [13, 7]<br/>class = 0>, fillcolor="#f3c5a4"] ;
191 -> 192 ;
193 [label=<gini = 0.0<br/>samples = 2<br/>value = [4, 0]<br/>class = 0>, fillcolor="#e58139"] ;
192 -> 193 ;
194 [label=<Glucose &le; 176.0<br/>gini = 0.492<br/>samples = 8<br/>value = [9, 7]<br/>class = 0>, fillcolor="#f9e3d3"] ;
192 -> 194 ;
195 [label=<gini = 0.0<br/>samples = 4<br/>value = [0, 4]<br/>class = 1>, fillcolor="#399de5"] ;
194 -> 195 ;
196 [label=<Age &le; 34.0<br/>gini = 0.375<br/>samples = 4<br/>value = [9, 3]<br/>class = 0>, fillcolor="#eeab7b"] ;
194 -> 196 ;
197 [label=<gini = 0.0<br/>samples = 2<br/>value = [6, 0]<br/>class = 0>, fillcolor="#e58139"] ;
196 -> 197 ;
198 [label=<Glucose &le; 182.5<br/>gini = 0.5<br/>samples = 2<br/>value = [3, 3]<br/>class = 0>, fillcolor="#ffffff"] ;
196 -> 198 ;
199 [label=<gini = 0.0<br/>samples = 1<br/>value = [3, 0]<br/>class = 0>, fillcolor="#e58139"] ;
198 -> 199 ;
200 [label=<gini = 0.0<br/>samples = 1<br/>value = [0, 3]<br/>class = 1>, fillcolor="#399de5"] ;
198 -> 200 ;
201 [label=<gini = 0.0<br/>samples = 3<br/>value = [0, 4]<br/>class = 1>, fillcolor="#399de5"] ;
191 -> 201 ;
202 [label=<gini = 0.0<br/>samples = 21<br/>value = [0, 34]<br/>class = 1>, fillcolor="#399de5"] ;
184 -> 202 ;
}