digraph Tree {
node [shape=box, style="filled, rounded", color="black", fontname="helvetica"] ;
edge [fontname="helvetica"] ;
0 [label=<Glucose &le; 155.5<br/>gini = 0.447<br/>samples = 390<br/>value = [407, 207]<br/>class = 0>, fillcolor="#f2c19e"] ;
1 [label=<Glucose &le; 106.5<br/>gini = 0.373<br/>samples = 331<br/>value = [391, 129]<br/>class = 0>, fillcolor="#eeab7a"] ;
0 -> 1 [labeldistance=2.5, labelangle=45, headlabel="True"] ;
2 [label=<Age &le; 25.5<br/>gini = 0.195<br/>samples = 135<br/>value = [195, 24]<br/>class = 0>, fillcolor="#e89151"] ;
1 -> 2 ;
3 [label=<BMI &le; 37.9<br/>gini = 0.019<br/>samples = 66<br/>value = [105, 1]<br/>class = 0>, fillcolor="#e5823b"] ;
2 -> 3 ;
4 [label=<gini = 0.0<br/>samples = 58<br/>value = [94, 0]<br/>class = 0>, fillcolor="#e58139"] ;
3 -> 4 ;
5 [label=<Age &le; 22.5<br/>gini = 0.153<br/>samples = 8<br/>value = [11, 1]<br/>class = 0>, fillcolor="#e78c4b"] ;
3 -> 5 ;
6 [label=<gini = 0.0<br/>samples = 5<br/>value = [9, 0]<br/>class = 0>, fillcolor="#e58139"] ;
5 -> 6 ;
7 [label=<Glucose &le; 88.5<br/>gini = 0.444<br/>samples = 3<br/>value = [2, 1]<br/>class = 0>, fillcolor="#f2c09c"] ;
5 -> 7 ;
8 [label=<gini = 0.0<br/>samples = 2<br/>value = [2, 0]<br/>class = 0>, fillcolor="#e58139"] ;
7 -> 8 ;
9 [label=<gini = 0.0<br/>samples = 1<br/>value = [0, 1]<br/>class = 1>, fillcolor="#399de5"] ;
7 -> 9 ;
10 [label=<BMI &le; 38.85<br/>gini = 0.324<br/>samples = 69<br/>value = [90, 23]<br/>class = 0>, fillcolor="#eca16c"] ;
2 -> 10 ;
11 [label=<Glucose &le; 99.5<br/>gini = 0.227<br/>samples = 57<br/>value = [80, 12]<br/>class = 0>, fillcolor="#e99457"] ;
10 -> 11 ;
12 [label=<Glucose &le; 84.5<br/>gini = 0.158<br/>samples = 37<br/>value = [53, 5]<br/>class = 0>, fillcolor="#e78d4c"] ;
11 -> 12 ;
13 [label=<Glucose &le; 83.5<br/>gini = 0.305<br/>samples = 12<br/>value = [13, 3]<br/>class = 0>, fillcolor="#eb9e67"] ;
12 -> 13 ;
14 [label=<Age &le; 26.5<br/>gini = 0.133<br/>samples = 11<br/>value = [13, 1]<br/>class = 0>, fillcolor="#e78b48"] ;
13 -> 14 ;
15 [label=<gini = 0.0<br/>samples = 1<br/>value = [0, 1]<br/>class = 1>, fillcolor="#399de5"] ;
14 -> 15 ;
16 [label=<gini = 0.0<br/>samples = 10<br/>value = [13, 0]<br/>class = 0>, fillcolor="#e58139"] ;
14 -> 16 ;
17 [label=<gini = 0.0<br/>samples = 1<br/>value = [0, 2]<br/>class = 1>, fillcolor="#399de5"] ;
13 -> 17 ;
18 [label=<Pregnancies &le; 4.5<br/>gini = 0.091<br/>samples = 25<br/>value = [40, 2]<br/>class = 0>, fillcolor="#e68743"] ;
12 -> 18 ;
19 [label=<Pregnancies &le; 1.5<br/>gini = 0.153<br/>samples = 15<br/>value = [22, 2]<br/>class = 0>, fillcolor="#e78c4b"] ;
18 -> 19 ;
20 [label=<gini = 0.0<br/>samples = 5<br/>value = [11, 0]<br/>class = 0>, fillcolor="#e58139"] ;
19 -> 20 ;
21 [label=<BMI &le; 37.95<br/>gini = 0.26<br/>samples = 10<br/>value = [11, 2]<br/>class = 0>, fillcolor="#ea985d"] ;
19 -> 21 ;
22 [label=<Glucose &le; 95.5<br/>gini = 0.153<br/>samples = 9<br/>value = [11, 1]<br/>class = 0>, fillcolor="#e78c4b"] ;
21 -> 22 ;
23 [label=<Glucose &le; 92.5<br/>gini = 0.375<br/>samples = 3<br/>value = [3, 1]<br/>class = 0>, fillcolor="#eeab7b"] ;
22 -> 23 ;
24 [label=<gini = 0.0<br/>samples = 2<br/>value = [3, 0]<br/>class = 0>, fillcolor="#e58139"] ;
23 -> 24 ;
25 [label=<gini = 0.0<br/>samples = 1<br/>value = [0, 1]<br/>class = 1>, fillcolor="#399de5"] ;
23 -> 25 ;
26 [label=<gini = 0.0<br/>samples = 6<br/>value = [8, 0]<br/>class = 0>, fillcolor="#e58139"] ;
22 -> 26 ;
27 [label=<gini = 0.0<br/>samples = 1<br/>value = [0, 1]<br/>class = 1>, fillcolor="#399de5"] ;
21 -> 27 ;
28 [label=<gini = 0.0<br/>samples = 10<br/>value = [18, 0]<br/>class = 0>, fillcolor="#e58139"] ;
18 -> 28 ;
29 [label=<Age &le; 27.5<br/>gini = 0.327<br/>samples = 20<br/>value = [27, 7]<br/>class = 0>, fillcolor="#eca26c"] ;
11 -> 29 ;
30 [label=<gini = 0.0<br/>samples = 5<br/>value = [9, 0]<br/>class = 0>, fillcolor="#e58139"] ;
29 -> 30 ;
31 [label=<Age &le; 32.5<br/>gini = 0.403<br/>samples = 15<br/>value = [18.0, 7.0]<br/>class = 0>, fillcolor="#efb286"] ;
29 -> 31 ;
32 [label=<Pregnancies &le; 6.5<br/>gini = 0.49<br/>samples = 5<br/>value = [3, 4]<br/>class = 1>, fillcolor="#cee6f8"] ;
31 -> 32 ;
33 [label=<Glucose &le; 101.0<br/>gini = 0.375<br/>samples = 3<br/>value = [3, 1]<br/>class = 0>, fillcolor="#eeab7b"] ;
32 -> 33 ;
34 [label=<Pregnancies &le; 2.5<br/>gini = 0.5<br/>samples = 2<br/>value = [1, 1]<br/>class = 0>, fillcolor="#ffffff"] ;
33 -> 34 ;
35 [label=<gini = 0.0<br/>samples = 1<br/>value = [0, 1]<br/>class = 1>, fillcolor="#399de5"] ;
34 -> 35 ;
36 [label=<gini = 0.0<br/>samples = 1<br/>value = [1, 0]<br/>class = 0>, fillcolor="#e58139"] ;
34 -> 36 ;
37 [label=<gini = 0.0<br/>samples = 1<br/>value = [2, 0]<br/>class = 0>, fillcolor="#e58139"] ;
33 -> 37 ;
38 [label=<gini = 0.0<br/>samples = 2<br/>value = [0, 3]<br/>class = 1>, fillcolor="#399de5"] ;
32 -> 38 ;
39 [label=<Glucose &le; 105.0<br/>gini = 0.278<br/>samples = 10<br/>value = [15, 3]<br/>class = 0>, fillcolor="#ea9a61"] ;
31 -> 39 ;
40 [label=<Pregnancies &le; 5.0<br/>gini = 0.42<br/>samples = 7<br/>value = [7, 3]<br/>class = 0>, fillcolor="#f0b78e"] ;
39 -> 40 ;
41 [label=<gini = 0.0<br/>samples = 2<br/>value = [4, 0]<br/>class = 0>, fillcolor="#e58139"] ;
40 -> 41 ;
42 [label=<Glucose &le; 101.0<br/>gini = 0.5<br/>samples = 5<br/>value = [3, 3]<br/>class = 0>, fillcolor="#ffffff"] ;
40 -> 42 ;
43 [label=<gini = 0.0<br/>samples = 1<br/>value = [2, 0]<br/>class = 0>, fillcolor="#e58139"] ;
42 -> 43 ;
44 [label=<Pregnancies &le; 6.5<br/>gini = 0.375<br/>samples = 4<br/>value = [1, 3]<br/>class = 1>, fillcolor="#7bbeee"] ;
42 -> 44 ;
45 [label=<gini = 0.0<br/>samples = 2<br/>value = [0, 2]<br/>class = 1>, fillcolor="#399de5"] ;
44 -> 45 ;
46 [label=<Pregnancies &le; 8.0<br/>gini = 0.5<br/>samples = 2<br/>value = [1, 1]<br/>class = 0>, fillcolor="#ffffff"] ;
44 -> 46 ;
47 [label=<gini = 0.0<br/>samples = 1<br/>value = [1, 0]<br/>class = 0>, fillcolor="#e58139"] ;
46 -> 47 ;
48 [label=<gini = 0.0<br/>samples = 1<br/>value = [0, 1]<br/>class = 1>, fillcolor="#399de5"] ;
46 -> 48 ;
49 [label=<gini = 0.0<br/>samples = 3<br/>value = [8, 0]<br/>class = 0>, fillcolor="#e58139"] ;
39 -> 49 ;
50 [label=<Glucose &le; 102.5<br/>gini = 0.499<br/>samples = 12<br/>value = [10, 11]<br/>class = 1>, fillcolor="#edf6fd"] ;
10 -> 50 ;
51 [label=<BMI &le; 45.95<br/>gini = 0.43<br/>samples = 10<br/>value = [5, 11]<br/>class = 1>, fillcolor="#93caf1"] ;
50 -> 51 ;
52 [label=<Age &le; 29.5<br/>gini = 0.18<br/>samples = 7<br/>value = [1, 9]<br/>class = 1>, fillcolor="#4fa8e8"] ;
51 -> 52 ;
53 [label=<gini = 0.0<br/>samples = 1<br/>value = [1, 0]<br/>class = 0>, fillcolor="#e58139"] ;
52 -> 53 ;
54 [label=<gini = 0.0<br/>samples = 6<br/>value = [0, 9]<br/>class = 1>, fillcolor="#399de5"] ;
52 -> 54 ;
55 [label=<Age &le; 29.0<br/>gini = 0.444<br/>samples = 3<br/>value = [4, 2]<br/>class = 0>, fillcolor="#f2c09c"] ;
51 -> 55 ;
56 [label=<gini = 0.0<br/>samples = 1<br/>value = [0, 2]<br/>class = 1>, fillcolor="#399de5"] ;
55 -> 56 ;
57 [label=<gini = 0.0<br/>samples = 2<br/>value = [4, 0]<br/>class = 0>, fillcolor="#e58139"] ;
55 -> 57 ;
58 [label=<gini = 0.0<br/>samples = 2<br/>value = [5, 0]<br/>class = 0>, fillcolor="#e58139"] ;
50 -> 58 ;
59 [label=<BMI &le; 29.55<br/>gini = 0.454<br/>samples = 196<br/>value = [196, 105]<br/>class = 0>, fillcolor="#f3c4a3"] ;
1 -> 59 ;
60 [label=<Pregnancies &le; 5.5<br/>gini = 0.307<br/>samples = 76<br/>value = [90, 21]<br/>class = 0>, fillcolor="#eb9e67"] ;
59 -> 60 ;
61 [label=<Age &le; 41.0<br/>gini = 0.228<br/>samples = 55<br/>value = [73, 11]<br/>class = 0>, fillcolor="#e99457"] ;
60 -> 61 ;
62 [label=<Glucose &le; 107.5<br/>gini = 0.171<br/>samples = 47<br/>value = [67, 7]<br/>class = 0>, fillcolor="#e88e4e"] ;
61 -> 62 ;
63 [label=<BMI &le; 24.7<br/>gini = 0.49<br/>samples = 3<br/>value = [4, 3]<br/>class = 0>, fillcolor="#f8e0ce"] ;
62 -> 63 ;
64 [label=<gini = 0.0<br/>samples = 1<br/>value = [0, 3]<br/>class = 1>, fillcolor="#399de5"] ;
63 -> 64 ;
65 [label=<gini = 0.0<br/>samples = 2<br/>value = [4, 0]<br/>class = 0>, fillcolor="#e58139"] ;
63 -> 65 ;
66 [label=<BMI &le; 25.4<br/>gini = 0.112<br/>samples = 44<br/>value = [63, 4]<br/>class = 0>, fillcolor="#e78946"] ;
62 -> 66 ;
67 [label=<gini = 0.0<br/>samples = 18<br/>value = [27, 0]<br/>class = 0>, fillcolor="#e58139"] ;
66 -> 67 ;
68 [label=<BMI &le; 25.75<br/>gini = 0.18<br/>samples = 26<br/>value = [36, 4]<br/>class = 0>, fillcolor="#e88f4f"] ;
66 -> 68 ;
69 [label=<Glucose &le; 127.5<br/>gini = 0.5<br/>samples = 2<br/>value = [2, 2]<br/>class = 0>, fillcolor="#ffffff"] ;
68 -> 69 ;
70 [label=<gini = 0.0<br/>samples = 1<br/>value = [2, 0]<br/>class = 0>, fillcolor="#e58139"] ;
69 -> 70 ;
71 [label=<gini = 0.0<br/>samples = 1<br/>value = [0, 2]<br/>class = 1>, fillcolor="#399de5"] ;
69 -> 71 ;
72 [label=<Pregnancies &le; 0.5<br/>gini = 0.105<br/>samples = 24<br/>value = [34, 2]<br/>class = 0>, fillcolor="#e78845"] ;
68 -> 72 ;
73 [label=<Age &le; 28.5<br/>gini = 0.444<br/>samples = 2<br/>value = [2, 1]<br/>class = 0>, fillcolor="#f2c09c"] ;
72 -> 73 ;
74 [label=<gini = 0.0<br/>samples = 1<br/>value = [2, 0]<br/>class = 0>, fillcolor="#e58139"] ;
73 -> 74 ;
75 [label=<gini = 0.0<br/>samples = 1<br/>value = [0, 1]<br/>class = 1>, fillcolor="#399de5"] ;
73 -> 75 ;
76 [label=<Glucose &le; 149.5<br/>gini = 0.059<br/>samples = 22<br/>value = [32, 1]<br/>class = 0>, fillcolor="#e6853f"] ;
72 -> 76 ;
77 [label=<gini = 0.0<br/>samples = 21<br/>value = [32, 0]<br/>class = 0>, fillcolor="#e58139"] ;
76 -> 77 ;
78 [label=<gini = 0.0<br/>samples = 1<br/>value = [0, 1]<br/>class = 1>, fillcolor="#399de5"] ;
76 -> 78 ;
79 [label=<Glucose &le; 111.0<br/>gini = 0.48<br/>samples = 8<br/>value = [6, 4]<br/>class = 0>, fillcolor="#f6d5bd"] ;
61 -> 79 ;
80 [label=<gini = 0.0<br/>samples = 1<br/>value = [0, 2]<br/>class = 1>, fillcolor="#399de5"] ;
79 -> 80 ;
81 [label=<Glucose &le; 133.0<br/>gini = 0.375<br/>samples = 7<br/>value = [6, 2]<br/>class = 0>, fillcolor="#eeab7b"] ;
79 -> 81 ;
82 [label=<gini = 0.0<br/>samples = 4<br/>value = [5, 0]<br/>class = 0>, fillcolor="#e58139"] ;
81 -> 82 ;
83 [label=<Age &le; 64.5<br/>gini = 0.444<br/>samples = 3<br/>value = [1, 2]<br/>class = 1>, fillcolor="#9ccef2"] ;
81 -> 83 ;
84 [label=<gini = 0.0<br/>samples = 2<br/>value = [0, 2]<br/>class = 1>, fillcolor="#399de5"] ;
83 -> 84 ;
85 [label=<gini = 0.0<br/>samples = 1<br/>value = [1, 0]<br/>class = 0>, fillcolor="#e58139"] ;
83 -> 85 ;
86 [label=<Glucose &le; 115.5<br/>gini = 0.466<br/>samples = 21<br/>value = [17, 10]<br/>class = 0>, fillcolor="#f4cbad"] ;
60 -> 86 ;
87 [label=<Age &le; 54.0<br/>gini = 0.32<br/>samples = 4<br/>value = [1, 4]<br/>class = 1>, fillcolor="#6ab6ec"] ;
86 -> 87 ;
88 [label=<gini = 0.0<br/>samples = 3<br/>value = [0, 4]<br/>class = 1>, fillcolor="#399de5"] ;
87 -> 88 ;
89 [label=<gini = 0.0<br/>samples = 1<br/>value = [1, 0]<br/>class = 0>, fillcolor="#e58139"] ;
87 -> 89 ;
90 [label=<Age &le; 49.0<br/>gini = 0.397<br/>samples = 17<br/>value = [16, 6]<br/>class = 0>, fillcolor="#efb083"] ;
86 -> 90 ;
91 [label=<Age &le; 34.5<br/>gini = 0.26<br/>samples = 9<br/>value = [11, 2]<br/>class = 0>, fillcolor="#ea985d"] ;
90 -> 91 ;
92 [label=<Glucose &le; 118.0<br/>gini = 0.5<br/>samples = 2<br/>value = [1, 1]<br/>class = 0>, fillcolor="#ffffff"] ;
91 -> 92 ;
93 [label=<gini = 0.0<br/>samples = 1<br/>value = [1, 0]<br/>class = 0>, fillcolor="#e58139"] ;
92 -> 93 ;
94 [label=<gini = 0.0<br/>samples = 1<br/>value = [0, 1]<br/>class = 1>, fillcolor="#399de5"] ;
92 -> 94 ;
95 [label=<Glucose &le; 142.5<br/>gini = 0.165<br/>samples = 7<br/>value = [10, 1]<br/>class = 0>, fillcolor="#e88e4d"] ;
91 -> 95 ;
96 [label=<gini = 0.0<br/>samples = 5<br/>value = [8, 0]<br/>class = 0>, fillcolor="#e58139"] ;
95 -> 96 ;
97 [label=<Pregnancies &le; 9.5<br/>gini = 0.444<br/>samples = 2<br/>value = [2, 1]<br/>class = 0>, fillcolor="#f2c09c"] ;
95 -> 97 ;
98 [label=<gini = 0.0<br/>samples = 1<br/>value = [2, 0]<br/>class = 0>, fillcolor="#e58139"] ;
97 -> 98 ;
99 [label=<gini = 0.0<br/>samples = 1<br/>value = [0, 1]<br/>class = 1>, fillcolor="#399de5"] ;
97 -> 99 ;
100 [label=<Age &le; 55.5<br/>gini = 0.494<br/>samples = 8<br/>value = [5, 4]<br/>class = 0>, fillcolor="#fae6d7"] ;
90 -> 100 ;
101 [label=<Glucose &le; 130.5<br/>gini = 0.32<br/>samples = 4<br/>value = [1, 4]<br/>class = 1>, fillcolor="#6ab6ec"] ;
100 -> 101 ;
102 [label=<gini = 0.0<br/>samples = 2<br/>value = [0, 3]<br/>class = 1>, fillcolor="#399de5"] ;
101 -> 102 ;
103 [label=<BMI &le; 27.75<br/>gini = 0.5<br/>samples = 2<br/>value = [1, 1]<br/>class = 0>, fillcolor="#ffffff"] ;
101 -> 103 ;
104 [label=<gini = 0.0<br/>samples = 1<br/>value = [1, 0]<br/>class = 0>, fillcolor="#e58139"] ;
103 -> 104 ;
105 [label=<gini = 0.0<br/>samples = 1<br/>value = [0, 1]<br/>class = 1>, fillcolor="#399de5"] ;
103 -> 105 ;
106 [label=<gini = 0.0<br/>samples = 4<br/>value = [4, 0]<br/>class = 0>, fillcolor="#e58139"] ;
100 -> 106 ;
107 [label=<Age &le; 42.5<br/>gini = 0.493<br/>samples = 120<br/>value = [106.0, 84.0]<br/>class = 0>, fillcolor="#fae5d6"] ;
59 -> 107 ;
108 [label=<Glucose &le; 127.5<br/>gini = 0.473<br/>samples = 102<br/>value = [98.0, 61.0]<br/>class = 0>, fillcolor="#f5cfb4"] ;
107 -> 108 ;
109 [label=<Age &le; 29.5<br/>gini = 0.428<br/>samples = 62<br/>value = [69, 31]<br/>class = 0>, fillcolor="#f1ba92"] ;
108 -> 109 ;
110 [label=<Pregnancies &le; 4.5<br/>gini = 0.338<br/>samples = 38<br/>value = [51, 14]<br/>class = 0>, fillcolor="#eca46f"] ;
109 -> 110 ;
111 [label=<Age &le; 21.5<br/>gini = 0.262<br/>samples = 34<br/>value = [49, 9]<br/>class = 0>, fillcolor="#ea985d"] ;
110 -> 111 ;
112 [label=<Pregnancies &le; 1.5<br/>gini = 0.375<br/>samples = 3<br/>value = [1, 3]<br/>class = 1>, fillcolor="#7bbeee"] ;
111 -> 112 ;
113 [label=<gini = 0.0<br/>samples = 1<br/>value = [0, 2]<br/>class = 1>, fillcolor="#399de5"] ;
112 -> 113 ;
114 [label=<Glucose &le; 116.5<br/>gini = 0.5<br/>samples = 2<br/>value = [1, 1]<br/>class = 0>, fillcolor="#ffffff"] ;
112 -> 114 ;
115 [label=<gini = 0.0<br/>samples = 1<br/>value = [1, 0]<br/>class = 0>, fillcolor="#e58139"] ;
114 -> 115 ;
116 [label=<gini = 0.0<br/>samples = 1<br/>value = [0, 1]<br/>class = 1>, fillcolor="#399de5"] ;
114 -> 116 ;
117 [label=<Pregnancies &le; 2.5<br/>gini = 0.198<br/>samples = 31<br/>value = [48, 6]<br/>class = 0>, fillcolor="#e89152"] ;
111 -> 117 ;
118 [label=<Pregnancies &le; 0.5<br/>gini = 0.051<br/>samples = 21<br/>value = [37, 1]<br/>class = 0>, fillcolor="#e6843e"] ;
117 -> 118 ;
119 [label=<Age &le; 24.5<br/>gini = 0.245<br/>samples = 6<br/>value = [6, 1]<br/>class = 0>, fillcolor="#e9965a"] ;
118 -> 119 ;
120 [label=<gini = 0.0<br/>samples = 4<br/>value = [5, 0]<br/>class = 0>, fillcolor="#e58139"] ;
119 -> 120 ;
121 [label=<Age &le; 25.5<br/>gini = 0.5<br/>samples = 2<br/>value = [1, 1]<br/>class = 0>, fillcolor="#ffffff"] ;
119 -> 121 ;
122 [label=<gini = 0.0<br/>samples = 1<br/>value = [0, 1]<br/>class = 1>, fillcolor="#399de5"] ;
121 -> 122 ;
123 [label=<gini = 0.0<br/>samples = 1<br/>value = [1, 0]<br/>class = 0>, fillcolor="#e58139"] ;
121 -> 123 ;
124 [label=<gini = 0.0<br/>samples = 15<br/>value = [31, 0]<br/>class = 0>, fillcolor="#e58139"] ;
118 -> 124 ;
125 [label=<Glucose &le; 113.5<br/>gini = 0.43<br/>samples = 10<br/>value = [11, 5]<br/>class = 0>, fillcolor="#f1ba93"] ;
117 -> 125 ;
126 [label=<gini = 0.0<br/>samples = 1<br/>value = [0, 3]<br/>class = 1>, fillcolor="#399de5"] ;
125 -> 126 ;
127 [label=<BMI &le; 32.75<br/>gini = 0.26<br/>samples = 9<br/>value = [11, 2]<br/>class = 0>, fillcolor="#ea985d"] ;
125 -> 127 ;
128 [label=<gini = 0.0<br/>samples = 1<br/>value = [0, 1]<br/>class = 1>, fillcolor="#399de5"] ;
127 -> 128 ;
129 [label=<Age &le; 25.5<br/>gini = 0.153<br/>samples = 8<br/>value = [11, 1]<br/>class = 0>, fillcolor="#e78c4b"] ;
127 -> 129 ;
130 [label=<BMI &le; 46.65<br/>gini = 0.32<br/>samples = 3<br/>value = [4, 1]<br/>class = 0>, fillcolor="#eca06a"] ;
129 -> 130 ;
131 [label=<Pregnancies &le; 3.5<br/>gini = 0.5<br/>samples = 2<br/>value = [1, 1]<br/>class = 0>, fillcolor="#ffffff"] ;
130 -> 131 ;
132 [label=<gini = 0.0<br/>samples = 1<br/>value = [0, 1]<br/>class = 1>, fillcolor="#399de5"] ;
131 -> 132 ;
133 [label=<gini = 0.0<br/>samples = 1<br/>value = [1, 0]<br/>class = 0>, fillcolor="#e58139"] ;
131 -> 133 ;
134 [label=<gini = 0.0<br/>samples = 1<br/>value = [3, 0]<br/>class = 0>, fillcolor="#e58139"] ;
130 -> 134 ;
135 [label=<gini = 0.0<br/>samples = 5<br/>value = [7, 0]<br/>class = 0>, fillcolor="#e58139"] ;
129 -> 135 ;
136 [label=<Glucose &le; 119.0<br/>gini = 0.408<br/>samples = 4<br/>value = [2, 5]<br/>class = 1>, fillcolor="#88c4ef"] ;
110 -> 136 ;
137 [label=<Pregnancies &le; 5.5<br/>gini = 0.278<br/>samples = 3<br/>value = [1, 5]<br/>class = 1>, fillcolor="#61b1ea"] ;
136 -> 137 ;
138 [label=<gini = 0.0<br/>samples = 2<br/>value = [0, 5]<br/>class = 1>, fillcolor="#399de5"] ;
137 -> 138 ;
139 [label=<gini = 0.0<br/>samples = 1<br/>value = [1, 0]<br/>class = 0>, fillcolor="#e58139"] ;
137 -> 139 ;
140 [label=<gini = 0.0<br/>samples = 1<br/>value = [1, 0]<br/>class = 0>, fillcolor="#e58139"] ;
136 -> 140 ;
141 [label=<Pregnancies &le; 1.5<br/>gini = 0.5<br/>samples = 24<br/>value = [18, 17]<br/>class = 0>, fillcolor="#fef8f4"] ;
109 -> 141 ;
142 [label=<Glucose &le; 118.5<br/>gini = 0.198<br/>samples = 5<br/>value = [1, 8]<br/>class = 1>, fillcolor="#52a9e8"] ;
141 -> 142 ;
143 [label=<gini = 0.0<br/>samples = 2<br/>value = [0, 5]<br/>class = 1>, fillcolor="#399de5"] ;
142 -> 143 ;
144 [label=<Age &le; 36.0<br/>gini = 0.375<br/>samples = 3<br/>value = [1, 3]<br/>class = 1>, fillcolor="#7bbeee"] ;
142 -> 144 ;
145 [label=<gini = 0.0<br/>samples = 2<br/>value = [0, 3]<br/>class = 1>, fillcolor="#399de5"] ;
144 -> 145 ;
146 [label=<gini = 0.0<br/>samples = 1<br/>value = [1, 0]<br/>class = 0>, fillcolor="#e58139"] ;
144 -> 146 ;
147 [label=<BMI &le; 33.75<br/>gini = 0.453<br/>samples = 19<br/>value = [17, 9]<br/>class = 0>, fillcolor="#f3c4a2"] ;
141 -> 147 ;
148 [label=<Age &le; 33.5<br/>gini = 0.498<br/>samples = 11<br/>value = [7, 8]<br/>class = 1>, fillcolor="#e6f3fc"] ;
147 -> 148 ;
149 [label=<Pregnancies &le; 3.5<br/>gini = 0.278<br/>samples = 4<br/>value = [1, 5]<br/>class = 1>, fillcolor="#61b1ea"] ;
148 -> 149 ;
150 [label=<gini = 0.0<br/>samples = 1<br/>value = [1, 0]<br/>class = 0>, fillcolor="#e58139"] ;
149 -> 150 ;
151 [label=<gini = 0.0<br/>samples = 3<br/>value = [0, 5]<br/>class = 1>, fillcolor="#399de5"] ;
149 -> 151 ;
152 [label=<BMI &le; 32.15<br/>gini = 0.444<br/>samples = 7<br/>value = [6, 3]<br/>class = 0>, fillcolor="#f2c09c"] ;
148 -> 152 ;
153 [label=<gini = 0.0<br/>samples = 3<br/>value = [5, 0]<br/>class = 0>, fillcolor="#e58139"] ;
152 -> 153 ;
154 [label=<BMI &le; 32.75<br/>gini = 0.375<br/>samples = 4<br/>value = [1, 3]<br/>class = 1>, fillcolor="#7bbeee"] ;
152 -> 154 ;
155 [label=<gini = 0.0<br/>samples = 2<br/>value = [0, 2]<br/>class = 1>, fillcolor="#399de5"] ;
154 -> 155 ;
156 [label=<Pregnancies &le; 7.5<br/>gini = 0.5<br/>samples = 2<br/>value = [1, 1]<br/>class = 0>, fillcolor="#ffffff"] ;
154 -> 156 ;
157 [label=<gini = 0.0<br/>samples = 1<br/>value = [0, 1]<br/>class = 1>, fillcolor="#399de5"] ;
156 -> 157 ;
158 [label=<gini = 0.0<br/>samples = 1<br/>value = [1, 0]<br/>class = 0>, fillcolor="#e58139"] ;
156 -> 158 ;
159 [label=<Age &le; 39.5<br/>gini = 0.165<br/>samples = 8<br/>value = [10, 1]<br/>class = 0>, fillcolor="#e88e4d"] ;
147 -> 159 ;
160 [label=<gini = 0.0<br/>samples = 6<br/>value = [9, 0]<br/>class = 0>, fillcolor="#e58139"] ;
159 -> 160 ;
161 [label=<Age &le; 41.5<br/>gini = 0.5<br/>samples = 2<br/>value = [1, 1]<br/>class = 0>, fillcolor="#ffffff"] ;
159 -> 161 ;
162 [label=<gini = 0.0<br/>samples = 1<br/>value = [0, 1]<br/>class = 1>, fillcolor="#399de5"] ;
161 -> 162 ;
163 [label=<gini = 0.0<br/>samples = 1<br/>value = [1, 0]<br/>class = 0>, fillcolor="#e58139"] ;
161 -> 163 ;
164 [label=<Pregnancies &le; 5.5<br/>gini = 0.5<br/>samples = 40<br/>value = [29, 30]<br/>class = 1>, fillcolor="#f8fcfe"] ;
108 -> 164 ;
165 [label=<Age &le; 24.5<br/>gini = 0.485<br/>samples = 32<br/>value = [19.0, 27.0]<br/>class = 1>, fillcolor="#c4e2f7"] ;
164 -> 165 ;
166 [label=<Pregnancies &le; 3.5<br/>gini = 0.465<br/>samples = 13<br/>value = [12, 7]<br/>class = 0>, fillcolor="#f4caac"] ;
165 -> 166 ;
167 [label=<Glucose &le; 131.5<br/>gini = 0.375<br/>samples = 9<br/>value = [9, 3]<br/>class = 0>, fillcolor="#eeab7b"] ;
166 -> 167 ;
168 [label=<BMI &le; 37.15<br/>gini = 0.444<br/>samples = 3<br/>value = [1, 2]<br/>class = 1>, fillcolor="#9ccef2"] ;
167 -> 168 ;
169 [label=<gini = 0.0<br/>samples = 1<br/>value = [0, 1]<br/>class = 1>, fillcolor="#399de5"] ;
168 -> 169 ;
170 [label=<Pregnancies &le; 1.5<br/>gini = 0.5<br/>samples = 2<br/>value = [1, 1]<br/>class = 0>, fillcolor="#ffffff"] ;
168 -> 170 ;
171 [label=<gini = 0.0<br/>samples = 1<br/>value = [0, 1]<br/>class = 1>, fillcolor="#399de5"] ;
170 -> 171 ;
172 [label=<gini = 0.0<br/>samples = 1<br/>value = [1, 0]<br/>class = 0>, fillcolor="#e58139"] ;
170 -> 172 ;
173 [label=<Glucose &le; 149.5<br/>gini = 0.198<br/>samples = 6<br/>value = [8, 1]<br/>class = 0>, fillcolor="#e89152"] ;
167 -> 173 ;
174 [label=<gini = 0.0<br/>samples = 5<br/>value = [8, 0]<br/>class = 0>, fillcolor="#e58139"] ;
173 -> 174 ;
175 [label=<gini = 0.0<br/>samples = 1<br/>value = [0, 1]<br/>class = 1>, fillcolor="#399de5"] ;
173 -> 175 ;
176 [label=<Glucose &le; 148.0<br/>gini = 0.49<br/>samples = 4<br/>value = [3, 4]<br/>class = 1>, fillcolor="#cee6f8"] ;
166 -> 176 ;
177 [label=<gini = 0.0<br/>samples = 3<br/>value = [0, 4]<br/>class = 1>, fillcolor="#399de5"] ;
176 -> 177 ;
178 [label=<gini = 0.0<br/>samples = 1<br/>value = [3, 0]<br/>class = 0>, fillcolor="#e58139"] ;
176 -> 178 ;
179 [label=<Glucose &le; 146.5<br/>gini = 0.384<br/>samples = 19<br/>value = [7, 20]<br/>class = 1>, fillcolor="#7ebfee"] ;
165 -> 179 ;
180 [label=<Age &le; 39.0<br/>gini = 0.18<br/>samples = 14<br/>value = [2, 18]<br/>class = 1>, fillcolor="#4fa8e8"] ;
179 -> 180 ;
181 [label=<Glucose &le; 137.5<br/>gini = 0.1<br/>samples = 13<br/>value = [1, 18]<br/>class = 1>, fillcolor="#44a2e6"] ;
180 -> 181 ;
182 [label=<gini = 0.0<br/>samples = 8<br/>value = [0, 10]<br/>class = 1>, fillcolor="#399de5"] ;
181 -> 182 ;
183 [label=<BMI &le; 39.3<br/>gini = 0.198<br/>samples = 5<br/>value = [1, 8]<br/>class = 1>, fillcolor="#52a9e8"] ;
181 -> 183 ;
184 [label=<gini = 0.0<br/>samples = 4<br/>value = [0, 8]<br/>class = 1>, fillcolor="#399de5"] ;
183 -> 184 ;
185 [label=<gini = 0.0<br/>samples = 1<br/>value = [1, 0]<br/>class = 0>, fillcolor="#e58139"] ;
183 -> 185 ;
186 [label=<gini = 0.0<br/>samples = 1<br/>value = [1, 0]<br/>class = 0>, fillcolor="#e58139"] ;
180 -> 186 ;
187 [label=<BMI &le; 45.4<br/>gini = 0.408<br/>samples = 5<br/>value = [5, 2]<br/>class = 0>, fillcolor="#efb388"] ;
179 -> 187 ;
188 [label=<Age &le; 26.0<br/>gini = 0.278<br/>samples = 4<br/>value = [5, 1]<br/>class = 0>, fillcolor="#ea9a61"] ;
187 -> 188 ;
189 [label=<gini = 0.0<br/>samples = 1<br/>value = [0, 1]<br/>class = 1>, fillcolor="#399de5"] ;
188 -> 189 ;
190 [label=<gini = 0.0<br/>samples = 3<br/>value = [5, 0]<br/>class = 0>, fillcolor="#e58139"] ;
188 -> 190 ;
191 [label=<gini = 0.0<br/>samples = 1<br/>value = [0, 1]<br/>class = 1>, fillcolor="#399de5"] ;
187 -> 191 ;
192 [label=<Pregnancies &le; 7.5<br/>gini = 0.355<br/>samples = 8<br/>value = [10, 3]<br/>class = 0>, fillcolor="#eda774"] ;
164 -> 192 ;
193 [label=<gini = 0.0<br/>samples = 4<br/>value = [8, 0]<br/>class = 0>, fillcolor="#e58139"] ;
192 -> 193 ;
194 [label=<Pregnancies &le; 11.5<br/>gini = 0.48<br/>samples = 4<br/>value = [2, 3]<br/>class = 1>, fillcolor="#bddef6"] ;
192 -> 194 ;
195 [label=<gini = 0.0<br/>samples = 3<br/>value = [0, 3]<br/>class = 1>, fillcolor="#399de5"] ;
194 -> 195 ;
196 [label=<gini = 0.0<br/>samples = 1<br/>value = [2, 0]<br/>class = 0>, fillcolor="#e58139"] ;
194 -> 196 ;
197 [label=<Age &le; 62.0<br/>gini = 0.383<br/>samples = 18<br/>value = [8, 23]<br/>class = 1>, fillcolor="#7ebfee"] ;
107 -> 197 ;
198 [label=<BMI &le; 36.95<br/>gini = 0.328<br/>samples = 17<br/>value = [6, 23]<br/>class = 1>, fillcolor="#6db7ec"] ;
197 -> 198 ;
199 [label=<BMI &le; 32.75<br/>gini = 0.105<br/>samples = 10<br/>value = [1, 17]<br/>class = 1>, fillcolor="#45a3e7"] ;
198 -> 199 ;
200 [label=<gini = 0.0<br/>samples = 6<br/>value = [0, 10]<br/>class = 1>, fillcolor="#399de5"] ;
199 -> 200 ;
201 [label=<BMI &le; 33.6<br/>gini = 0.219<br/>samples = 4<br/>value = [1, 7]<br/>class = 1>, fillcolor="#55abe9"] ;
199 -> 201 ;
202 [label=<gini = 0.0<br/>samples = 1<br/>value = [1, 0]<br/>class = 0>, fillcolor="#e58139"] ;
201 -> 202 ;
203 [label=<gini = 0.0<br/>samples = 3<br/>value = [0, 7]<br/>class = 1>, fillcolor="#399de5"] ;
201 -> 203 ;
204 [label=<Glucose &le; 130.0<br/>gini = 0.496<br/>samples = 7<br/>value = [5, 6]<br/>class = 1>, fillcolor="#deeffb"] ;
198 -> 204 ;
205 [label=<Glucose &le; 122.5<br/>gini = 0.32<br/>samples = 3<br/>value = [4, 1]<br/>class = 0>, fillcolor="#eca06a"] ;
204 -> 205 ;
206 [label=<gini = 0.0<br/>samples = 1<br/>value = [0, 1]<br/>class = 1>, fillcolor="#399de5"] ;
205 -> 206 ;
207 [label=<gini = 0.0<br/>samples = 2<br/>value = [4, 0]<br/>class = 0>, fillcolor="#e58139"] ;
205 -> 207 ;
208 [label=<Pregnancies &le; 0.5<br/>gini = 0.278<br/>samples = 4<br/>value = [1, 5]<br/>class = 1>, fillcolor="#61b1ea"] ;
204 -> 208 ;
209 [label=<gini = 0.0<br/>samples = 1<br/>value = [1, 0]<br/>class = 0>, fillcolor="#e58139"] ;
208 -> 209 ;
210 [label=<gini = 0.0<br/>samples = 3<br/>value = [0, 5]<br/>class = 1>, fillcolor="#399de5"] ;
208 -> 210 ;
211 [label=<gini = 0.0<br/>samples = 1<br/>value = [2, 0]<br/>class = 0>, fillcolor="#e58139"] ;
197 -> 211 ;
212 [label=<Glucose &le; 159.5<br/>gini = 0.282<br/>samples = 59<br/>value = [16, 78]<br/>class = 1>, fillcolor="#62b1ea"] ;
0 -> 212 [labeldistance=2.5, labelangle=-45, headlabel="False"] ;
213 [label=<Pregnancies &le; 2.5<br/>gini = 0.494<br/>samples = 7<br/>value = [4, 5]<br/>class = 1>, fillcolor="#d7ebfa"] ;
212 -> 213 ;
214 [label=<gini = 0.0<br/>samples = 2<br/>value = [2, 0]<br/>class = 0>, fillcolor="#e58139"] ;
213 -> 214 ;
215 [label=<Glucose &le; 158.5<br/>gini = 0.408<br/>samples = 5<br/>value = [2, 5]<br/>class = 1>, fillcolor="#88c4ef"] ;
213 -> 215 ;
216 [label=<gini = 0.0<br/>samples = 4<br/>value = [0, 5]<br/>class = 1>, fillcolor="#399de5"] ;
215 -> 216 ;
217 [label=<gini = 0.0<br/>samples = 1<br/>value = [2, 0]<br/>class = 0>, fillcolor="#e58139"] ;
215 -> 217 ;
218 [label=<Pregnancies &le; 9.5<br/>gini = 0.242<br/>samples = 52<br/>value = [12, 73]<br/>class = 1>, fillcolor="#5aade9"] ;
212 -> 218 ;
219 [label=<Glucose &le; 190.5<br/>gini = 0.204<br/>samples = 47<br/>value = [9, 69]<br/>class = 1>, fillcolor="#53aae8"] ;
218 -> 219 ;
220 [label=<Glucose &le; 179.5<br/>gini = 0.095<br/>samples = 38<br/>value = [3, 57]<br/>class = 1>, fillcolor="#43a2e6"] ;
219 -> 220 ;
221 [label=<Pregnancies &le; 0.5<br/>gini = 0.049<br/>samples = 23<br/>value = [1, 39]<br/>class = 1>, fillcolor="#3ea0e6"] ;
220 -> 221 ;
222 [label=<Age &le; 24.5<br/>gini = 0.245<br/>samples = 4<br/>value = [1, 6]<br/>class = 1>, fillcolor="#5aade9"] ;
221 -> 222 ;
223 [label=<gini = 0.0<br/>samples = 2<br/>value = [0, 3]<br/>class = 1>, fillcolor="#399de5"] ;
222 -> 223 ;
224 [label=<Glucose &le; 163.5<br/>gini = 0.375<br/>samples = 2<br/>value = [1, 3]<br/>class = 1>, fillcolor="#7bbeee"] ;
222 -> 224 ;
225 [label=<gini = 0.0<br/>samples = 1<br/>value = [0, 3]<br/>class = 1>, fillcolor="#399de5"] ;
224 -> 225 ;
226 [label=<gini = 0.0<br/>samples = 1<br/>value = [1, 0]<br/>class = 0>, fillcolor="#e58139"] ;
224 -> 226 ;
227 [label=<gini = 0.0<br/>samples = 19<br/>value = [0, 33]<br/>class = 1>, fillcolor="#399de5"] ;
221 -> 227 ;
228 [label=<Pregnancies &le; 2.0<br/>gini = 0.18<br/>samples = 15<br/>value = [2, 18]<br/>class = 1>, fillcolor="#4fa8e8"] ;
220 -> 228 ;
229 [label=<gini = 0.0<br/>samples = 5<br/>value = [0, 8]<br/>class = 1>, fillcolor="#399de5"] ;
228 -> 229 ;
230 [label=<Glucose &le; 180.5<br/>gini = 0.278<br/>samples = 10<br/>value = [2, 10]<br/>class = 1>, fillcolor="#61b1ea"] ;
228 -> 230 ;
231 [label=<gini = 0.0<br/>samples = 1<br/>value = [1, 0]<br/>class = 0>, fillcolor="#e58139"] ;
230 -> 231 ;
232 [label=<Glucose &le; 183.5<br/>gini = 0.165<br/>samples = 9<br/>value = [1, 10]<br/>class = 1>, fillcolor="#4da7e8"] ;
230 -> 232 ;
233 [label=<Pregnancies &le; 6.5<br/>gini = 0.32<br/>samples = 4<br/>value = [1, 4]<br/>class = 1>, fillcolor="#6ab6ec"] ;
232 -> 233 ;
234 [label=<Age &le; 37.0<br/>gini = 0.5<br/>samples = 2<br/>value = [1, 1]<br/>class = 0>, fillcolor="#ffffff"] ;
233 -> 234 ;
235 [label=<gini = 0.0<br/>samples = 1<br/>value = [0, 1]<br/>class = 1>, fillcolor="#399de5"] ;
234 -> 235 ;
236 [label=<gini = 0.0<br/>samples = 1<br/>value = [1, 0]<br/>class = 0>, fillcolor="#e58139"] ;
234 -> 236 ;
237 [label=<gini = 0.0<br/>samples = 2<br/>value = [0, 3]<br/>class = 1>, fillcolor="#399de5"] ;
233 -> 237 ;
238 [label=<gini = 0.0<br/>samples = 5<br/>value = [0, 6]<br/>class = 1>, fillcolor="#399de5"] ;
232 -> 238 ;
239 [label=<Glucose &le; 194.0<br/>gini = 0.444<br/>samples = 9<br/>value = [6, 12]<br/>class = 1>, fillcolor="#9ccef2"] ;
219 -> 239 ;
240 [label=<gini = 0.0<br/>samples = 2<br/>value = [5, 0]<br/>class = 0>, fillcolor="#e58139"] ;
239 -> 240 ;
241 [label=<Age &le; 35.0<br/>gini = 0.142<br/>samples = 7<br/>value = [1, 12]<br/>class = 1>, fillcolor="#49a5e7"] ;
239 -> 241 ;
242 [label=<Age &le; 29.5<br/>gini = 0.375<br/>samples = 3<br/>value = [1, 3]<br/>class = 1>, fillcolor="#7bbeee"] ;
241 -> 242 ;
243 [label=<gini = 0.0<br/>samples = 2<br/>value = [0, 3]<br/>class = 1>, fillcolor="#399de5"] ;
242 -> 243 ;
244 [label=<gini = 0.0<br/>samples = 1<br/>value = [1, 0]<br/>class = 0>, fillcolor="#e58139"] ;
242 -> 244 ;
245 [label=<gini = 0.0<br/>samples = 4<br/>value = [0, 9]<br/>class = 1>, fillcolor="#399de5"] ;
241 -> 245 ;
246 [label=<Age &le; 50.5<br/>gini = 0.49<br/>samples = 5<br/>value = [3, 4]<br/>class = 1>, fillcolor="#cee6f8"] ;
218 -> 246 ;
247 [label=<BMI &le; 34.35<br/>gini = 0.32<br/>samples = 4<br/>value = [1, 4]<br/>class = 1>, fillcolor="#6ab6ec"] ;
246 -> 247 ;
248 [label=<gini = 0.0<br/>samples = 2<br/>value = [0, 3]<br/>class = 1>, fillcolor="#399de5"] ;
247 -> 248 ;
249 [label=<BMI &le; 36.55<br/>gini = 0.5<br/>samples = 2<br/>value = [1, 1]<br/>class = 0>, fillcolor="#ffffff"] ;
247 -> 249 ;
250 [label=<gini = 0.0<br/>samples = 1<br/>value = [1, 0]<br/>class = 0>, fillcolor="#e58139"] ;
249 -> 250 ;
251 [label=<gini = 0.0<br/>samples = 1<br/>value = [0, 1]<br/>class = 1>, fillcolor="#399de5"] ;
249 -> 251 ;
252 [label=<gini = 0.0<br/>samples = 1<br/>value = [2, 0]<br/>class = 0>, fillcolor="#e58139"] ;
246 -> 252 ;
}