digraph Tree {
node [shape=box, style="filled, rounded", color="black", fontname="helvetica"] ;
edge [fontname="helvetica"] ;
0 [label=<Glucose &le; 128.5<br/>gini = 0.463<br/>samples = 376<br/>value = [390.0, 224.0]<br/>class = 0>, fillcolor="#f4c9ab"] ;
1 [label=<Glucose &le; 99.5<br/>gini = 0.316<br/>samples = 248<br/>value = [322, 79]<br/>class = 0>, fillcolor="#eba06a"] ;
0 -> 1 [labeldistance=2.5, labelangle=45, headlabel="True"] ;
2 [label=<Age &le; 25.5<br/>gini = 0.115<br/>samples = 98<br/>value = [154, 10]<br/>class = 0>, fillcolor="#e78946"] ;
1 -> 2 ;
3 [label=<Age &le; 22.5<br/>gini = 0.024<br/>samples = 52<br/>value = [82, 1]<br/>class = 0>, fillcolor="#e5833b"] ;
2 -> 3 ;
4 [label=<gini = 0.0<br/>samples = 30<br/>value = [49, 0]<br/>class = 0>, fillcolor="#e58139"] ;
3 -> 4 ;
5 [label=<Glucose &le; 92.5<br/>gini = 0.057<br/>samples = 22<br/>value = [33, 1]<br/>class = 0>, fillcolor="#e6853f"] ;
3 -> 5 ;
6 [label=<gini = 0.0<br/>samples = 17<br/>value = [28, 0]<br/>class = 0>, fillcolor="#e58139"] ;
5 -> 6 ;
7 [label=<Glucose &le; 93.5<br/>gini = 0.278<br/>samples = 5<br/>value = [5, 1]<br/>class = 0>, fillcolor="#ea9a61"] ;
5 -> 7 ;
8 [label=<gini = 0.0<br/>samples = 1<br/>value = [0, 1]<br/>class = 1>, fillcolor="#399de5"] ;
7 -> 8 ;
9 [label=<gini = 0.0<br/>samples = 4<br/>value = [5, 0]<br/>class = 0>, fillcolor="#e58139"] ;
7 -> 9 ;
10 [label=<Age &le; 27.5<br/>gini = 0.198<br/>samples = 46<br/>value = [72, 9]<br/>class = 0>, fillcolor="#e89152"] ;
2 -> 10 ;
11 [label=<Glucose &le; 80.5<br/>gini = 0.48<br/>samples = 8<br/>value = [9, 6]<br/>class = 0>, fillcolor="#f6d5bd"] ;
10 -> 11 ;
12 [label=<gini = 0.0<br/>samples = 1<br/>value = [0, 3]<br/>class = 1>, fillcolor="#399de5"] ;
11 -> 12 ;
13 [label=<BMI &le; 37.35<br/>gini = 0.375<br/>samples = 7<br/>value = [9, 3]<br/>class = 0>, fillcolor="#eeab7b"] ;
11 -> 13 ;
14 [label=<gini = 0.0<br/>samples = 5<br/>value = [8, 0]<br/>class = 0>, fillcolor="#e58139"] ;
13 -> 14 ;
15 [label=<Glucose &le; 87.5<br/>gini = 0.375<br/>samples = 2<br/>value = [1, 3]<br/>class = 1>, fillcolor="#7bbeee"] ;
13 -> 15 ;
16 [label=<gini = 0.0<br/>samples = 1<br/>value = [1, 0]<br/>class = 0>, fillcolor="#e58139"] ;
15 -> 16 ;
17 [label=<gini = 0.0<br/>samples = 1<br/>value = [0, 3]<br/>class = 1>, fillcolor="#399de5"] ;
15 -> 17 ;
18 [label=<Glucose &le; 28.5<br/>gini = 0.087<br/>samples = 38<br/>value = [63, 3]<br/>class = 0>, fillcolor="#e68742"] ;
10 -> 18 ;
19 [label=<gini = 0.0<br/>samples = 1<br/>value = [0, 2]<br/>class = 1>, fillcolor="#399de5"] ;
18 -> 19 ;
20 [label=<BMI &le; 39.5<br/>gini = 0.031<br/>samples = 37<br/>value = [63, 1]<br/>class = 0>, fillcolor="#e5833c"] ;
18 -> 20 ;
21 [label=<gini = 0.0<br/>samples = 33<br/>value = [53, 0]<br/>class = 0>, fillcolor="#e58139"] ;
20 -> 21 ;
22 [label=<BMI &le; 41.1<br/>gini = 0.165<br/>samples = 4<br/>value = [10, 1]<br/>class = 0>, fillcolor="#e88e4d"] ;
20 -> 22 ;
23 [label=<gini = 0.0<br/>samples = 1<br/>value = [0, 1]<br/>class = 1>, fillcolor="#399de5"] ;
22 -> 23 ;
24 [label=<gini = 0.0<br/>samples = 3<br/>value = [10, 0]<br/>class = 0>, fillcolor="#e58139"] ;
22 -> 24 ;
25 [label=<Age &le; 30.5<br/>gini = 0.413<br/>samples = 150<br/>value = [168, 69]<br/>class = 0>, fillcolor="#f0b58a"] ;
1 -> 25 ;
26 [label=<BMI &le; 29.5<br/>gini = 0.264<br/>samples = 80<br/>value = [108, 20]<br/>class = 0>, fillcolor="#ea985e"] ;
25 -> 26 ;
27 [label=<Pregnancies &le; 6.0<br/>gini = 0.061<br/>samples = 38<br/>value = [61, 2]<br/>class = 0>, fillcolor="#e6853f"] ;
26 -> 27 ;
28 [label=<gini = 0.0<br/>samples = 37<br/>value = [61, 0]<br/>class = 0>, fillcolor="#e58139"] ;
27 -> 28 ;
29 [label=<gini = 0.0<br/>samples = 1<br/>value = [0, 2]<br/>class = 1>, fillcolor="#399de5"] ;
27 -> 29 ;
30 [label=<BMI &le; 41.45<br/>gini = 0.4<br/>samples = 42<br/>value = [47, 18]<br/>class = 0>, fillcolor="#efb185"] ;
26 -> 30 ;
31 [label=<Age &le; 24.5<br/>gini = 0.352<br/>samples = 37<br/>value = [44, 13]<br/>class = 0>, fillcolor="#eda674"] ;
30 -> 31 ;
32 [label=<Pregnancies &le; 0.5<br/>gini = 0.153<br/>samples = 15<br/>value = [22, 2]<br/>class = 0>, fillcolor="#e78c4b"] ;
31 -> 32 ;
33 [label=<Age &le; 22.5<br/>gini = 0.32<br/>samples = 5<br/>value = [8, 2]<br/>class = 0>, fillcolor="#eca06a"] ;
32 -> 33 ;
34 [label=<gini = 0.0<br/>samples = 3<br/>value = [8, 0]<br/>class = 0>, fillcolor="#e58139"] ;
33 -> 34 ;
35 [label=<gini = 0.0<br/>samples = 2<br/>value = [0, 2]<br/>class = 1>, fillcolor="#399de5"] ;
33 -> 35 ;
36 [label=<gini = 0.0<br/>samples = 10<br/>value = [14, 0]<br/>class = 0>, fillcolor="#e58139"] ;
32 -> 36 ;
37 [label=<Glucose &le; 124.5<br/>gini = 0.444<br/>samples = 22<br/>value = [22, 11]<br/>class = 0>, fillcolor="#f2c09c"] ;
31 -> 37 ;
38 [label=<BMI &le; 33.75<br/>gini = 0.391<br/>samples = 19<br/>value = [22, 8]<br/>class = 0>, fillcolor="#eeaf81"] ;
37 -> 38 ;
39 [label=<Glucose &le; 118.5<br/>gini = 0.486<br/>samples = 8<br/>value = [5, 7]<br/>class = 1>, fillcolor="#c6e3f8"] ;
38 -> 39 ;
40 [label=<BMI &le; 32.65<br/>gini = 0.346<br/>samples = 6<br/>value = [2, 7]<br/>class = 1>, fillcolor="#72b9ec"] ;
39 -> 40 ;
41 [label=<BMI &le; 32.0<br/>gini = 0.444<br/>samples = 4<br/>value = [2, 4]<br/>class = 1>, fillcolor="#9ccef2"] ;
40 -> 41 ;
42 [label=<Glucose &le; 111.5<br/>gini = 0.32<br/>samples = 3<br/>value = [1, 4]<br/>class = 1>, fillcolor="#6ab6ec"] ;
41 -> 42 ;
43 [label=<gini = 0.0<br/>samples = 1<br/>value = [1, 0]<br/>class = 0>, fillcolor="#e58139"] ;
42 -> 43 ;
44 [label=<gini = 0.0<br/>samples = 2<br/>value = [0, 4]<br/>class = 1>, fillcolor="#399de5"] ;
42 -> 44 ;
45 [label=<gini = 0.0<br/>samples = 1<br/>value = [1, 0]<br/>class = 0>, fillcolor="#e58139"] ;
41 -> 45 ;
46 [label=<gini = 0.0<br/>samples = 2<br/>value = [0, 3]<br/>class = 1>, fillcolor="#399de5"] ;
40 -> 46 ;
47 [label=<gini = 0.0<br/>samples = 2<br/>value = [3, 0]<br/>class = 0>, fillcolor="#e58139"] ;
39 -> 47 ;
48 [label=<Age &le; 26.0<br/>gini = 0.105<br/>samples = 11<br/>value = [17, 1]<br/>class = 0>, fillcolor="#e78845"] ;
38 -> 48 ;
49 [label=<BMI &le; 36.35<br/>gini = 0.375<br/>samples = 3<br/>value = [3, 1]<br/>class = 0>, fillcolor="#eeab7b"] ;
48 -> 49 ;
50 [label=<gini = 0.0<br/>samples = 2<br/>value = [3, 0]<br/>class = 0>, fillcolor="#e58139"] ;
49 -> 50 ;
51 [label=<gini = 0.0<br/>samples = 1<br/>value = [0, 1]<br/>class = 1>, fillcolor="#399de5"] ;
49 -> 51 ;
52 [label=<gini = 0.0<br/>samples = 8<br/>value = [14, 0]<br/>class = 0>, fillcolor="#e58139"] ;
48 -> 52 ;
53 [label=<gini = 0.0<br/>samples = 3<br/>value = [0, 3]<br/>class = 1>, fillcolor="#399de5"] ;
37 -> 53 ;
54 [label=<Glucose &le; 111.0<br/>gini = 0.469<br/>samples = 5<br/>value = [3, 5]<br/>class = 1>, fillcolor="#b0d8f5"] ;
30 -> 54 ;
55 [label=<gini = 0.0<br/>samples = 1<br/>value = [1, 0]<br/>class = 0>, fillcolor="#e58139"] ;
54 -> 55 ;
56 [label=<Pregnancies &le; 2.5<br/>gini = 0.408<br/>samples = 4<br/>value = [2, 5]<br/>class = 1>, fillcolor="#88c4ef"] ;
54 -> 56 ;
57 [label=<gini = 0.0<br/>samples = 1<br/>value = [0, 4]<br/>class = 1>, fillcolor="#399de5"] ;
56 -> 57 ;
58 [label=<Pregnancies &le; 4.5<br/>gini = 0.444<br/>samples = 3<br/>value = [2, 1]<br/>class = 0>, fillcolor="#f2c09c"] ;
56 -> 58 ;
59 [label=<gini = 0.0<br/>samples = 2<br/>value = [2, 0]<br/>class = 0>, fillcolor="#e58139"] ;
58 -> 59 ;
60 [label=<gini = 0.0<br/>samples = 1<br/>value = [0, 1]<br/>class = 1>, fillcolor="#399de5"] ;
58 -> 60 ;
61 [label=<Age &le; 54.5<br/>gini = 0.495<br/>samples = 70<br/>value = [60, 49]<br/>class = 0>, fillcolor="#fae8db"] ;
25 -> 61 ;
62 [label=<BMI &le; 26.25<br/>gini = 0.5<br/>samples = 64<br/>value = [48, 48]<br/>class = 0>, fillcolor="#ffffff"] ;
61 -> 62 ;
63 [label=<Age &le; 51.0<br/>gini = 0.133<br/>samples = 12<br/>value = [13, 1]<br/>class = 0>, fillcolor="#e78b48"] ;
62 -> 63 ;
64 [label=<gini = 0.0<br/>samples = 11<br/>value = [13, 0]<br/>class = 0>, fillcolor="#e58139"] ;
63 -> 64 ;
65 [label=<gini = 0.0<br/>samples = 1<br/>value = [0, 1]<br/>class = 1>, fillcolor="#399de5"] ;
63 -> 65 ;
66 [label=<Pregnancies &le; 10.5<br/>gini = 0.489<br/>samples = 52<br/>value = [35.0, 47.0]<br/>class = 1>, fillcolor="#cce6f8"] ;
62 -> 66 ;
67 [label=<BMI &le; 29.25<br/>gini = 0.473<br/>samples = 46<br/>value = [28, 45]<br/>class = 1>, fillcolor="#b4daf5"] ;
66 -> 67 ;
68 [label=<Glucose &le; 120.5<br/>gini = 0.153<br/>samples = 7<br/>value = [1, 11]<br/>class = 1>, fillcolor="#4ba6e7"] ;
67 -> 68 ;
69 [label=<gini = 0.0<br/>samples = 4<br/>value = [0, 9]<br/>class = 1>, fillcolor="#399de5"] ;
68 -> 69 ;
70 [label=<Pregnancies &le; 8.0<br/>gini = 0.444<br/>samples = 3<br/>value = [1, 2]<br/>class = 1>, fillcolor="#9ccef2"] ;
68 -> 70 ;
71 [label=<gini = 0.0<br/>samples = 2<br/>value = [0, 2]<br/>class = 1>, fillcolor="#399de5"] ;
70 -> 71 ;
72 [label=<gini = 0.0<br/>samples = 1<br/>value = [1, 0]<br/>class = 0>, fillcolor="#e58139"] ;
70 -> 72 ;
73 [label=<Pregnancies &le; 8.5<br/>gini = 0.493<br/>samples = 39<br/>value = [27, 34]<br/>class = 1>, fillcolor="#d6ebfa"] ;
67 -> 73 ;
74 [label=<Age &le; 41.5<br/>gini = 0.5<br/>samples = 35<br/>value = [26, 26]<br/>class = 0>, fillcolor="#ffffff"] ;
73 -> 74 ;
75 [label=<Glucose &le; 127.0<br/>gini = 0.478<br/>samples = 22<br/>value = [13, 20]<br/>class = 1>, fillcolor="#baddf6"] ;
74 -> 75 ;
76 [label=<BMI &le; 33.9<br/>gini = 0.491<br/>samples = 20<br/>value = [13, 17]<br/>class = 1>, fillcolor="#d0e8f9"] ;
75 -> 76 ;
77 [label=<Glucose &le; 104.5<br/>gini = 0.444<br/>samples = 8<br/>value = [8, 4]<br/>class = 0>, fillcolor="#f2c09c"] ;
76 -> 77 ;
78 [label=<gini = 0.0<br/>samples = 2<br/>value = [0, 3]<br/>class = 1>, fillcolor="#399de5"] ;
77 -> 78 ;
79 [label=<Age &le; 34.5<br/>gini = 0.198<br/>samples = 6<br/>value = [8, 1]<br/>class = 0>, fillcolor="#e89152"] ;
77 -> 79 ;
80 [label=<gini = 0.0<br/>samples = 3<br/>value = [5, 0]<br/>class = 0>, fillcolor="#e58139"] ;
79 -> 80 ;
81 [label=<Glucose &le; 121.0<br/>gini = 0.375<br/>samples = 3<br/>value = [3, 1]<br/>class = 0>, fillcolor="#eeab7b"] ;
79 -> 81 ;
82 [label=<Glucose &le; 110.5<br/>gini = 0.5<br/>samples = 2<br/>value = [1, 1]<br/>class = 0>, fillcolor="#ffffff"] ;
81 -> 82 ;
83 [label=<gini = 0.0<br/>samples = 1<br/>value = [1, 0]<br/>class = 0>, fillcolor="#e58139"] ;
82 -> 83 ;
84 [label=<gini = 0.0<br/>samples = 1<br/>value = [0, 1]<br/>class = 1>, fillcolor="#399de5"] ;
82 -> 84 ;
85 [label=<gini = 0.0<br/>samples = 1<br/>value = [2, 0]<br/>class = 0>, fillcolor="#e58139"] ;
81 -> 85 ;
86 [label=<BMI &le; 39.3<br/>gini = 0.401<br/>samples = 12<br/>value = [5, 13]<br/>class = 1>, fillcolor="#85c3ef"] ;
76 -> 86 ;
87 [label=<BMI &le; 34.65<br/>gini = 0.245<br/>samples = 8<br/>value = [2, 12]<br/>class = 1>, fillcolor="#5aade9"] ;
86 -> 87 ;
88 [label=<gini = 0.0<br/>samples = 4<br/>value = [0, 8]<br/>class = 1>, fillcolor="#399de5"] ;
87 -> 88 ;
89 [label=<BMI &le; 36.25<br/>gini = 0.444<br/>samples = 4<br/>value = [2, 4]<br/>class = 1>, fillcolor="#9ccef2"] ;
87 -> 89 ;
90 [label=<gini = 0.0<br/>samples = 1<br/>value = [1, 0]<br/>class = 0>, fillcolor="#e58139"] ;
89 -> 90 ;
91 [label=<Age &le; 36.0<br/>gini = 0.32<br/>samples = 3<br/>value = [1, 4]<br/>class = 1>, fillcolor="#6ab6ec"] ;
89 -> 91 ;
92 [label=<gini = 0.0<br/>samples = 1<br/>value = [0, 2]<br/>class = 1>, fillcolor="#399de5"] ;
91 -> 92 ;
93 [label=<BMI &le; 38.35<br/>gini = 0.444<br/>samples = 2<br/>value = [1, 2]<br/>class = 1>, fillcolor="#9ccef2"] ;
91 -> 93 ;
94 [label=<gini = 0.0<br/>samples = 1<br/>value = [0, 2]<br/>class = 1>, fillcolor="#399de5"] ;
93 -> 94 ;
95 [label=<gini = 0.0<br/>samples = 1<br/>value = [1, 0]<br/>class = 0>, fillcolor="#e58139"] ;
93 -> 95 ;
96 [label=<Glucose &le; 114.0<br/>gini = 0.375<br/>samples = 4<br/>value = [3, 1]<br/>class = 0>, fillcolor="#eeab7b"] ;
86 -> 96 ;
97 [label=<gini = 0.0<br/>samples = 3<br/>value = [3, 0]<br/>class = 0>, fillcolor="#e58139"] ;
96 -> 97 ;
98 [label=<gini = 0.0<br/>samples = 1<br/>value = [0, 1]<br/>class = 1>, fillcolor="#399de5"] ;
96 -> 98 ;
99 [label=<gini = 0.0<br/>samples = 2<br/>value = [0, 3]<br/>class = 1>, fillcolor="#399de5"] ;
75 -> 99 ;
100 [label=<Age &le; 51.5<br/>gini = 0.432<br/>samples = 13<br/>value = [13, 6]<br/>class = 0>, fillcolor="#f1bb94"] ;
74 -> 100 ;
101 [label=<BMI &le; 39.25<br/>gini = 0.36<br/>samples = 11<br/>value = [13, 4]<br/>class = 0>, fillcolor="#eda876"] ;
100 -> 101 ;
102 [label=<Age &le; 46.5<br/>gini = 0.231<br/>samples = 9<br/>value = [13, 2]<br/>class = 0>, fillcolor="#e99457"] ;
101 -> 102 ;
103 [label=<gini = 0.0<br/>samples = 6<br/>value = [10, 0]<br/>class = 0>, fillcolor="#e58139"] ;
102 -> 103 ;
104 [label=<Age &le; 48.0<br/>gini = 0.48<br/>samples = 3<br/>value = [3, 2]<br/>class = 0>, fillcolor="#f6d5bd"] ;
102 -> 104 ;
105 [label=<gini = 0.0<br/>samples = 1<br/>value = [0, 2]<br/>class = 1>, fillcolor="#399de5"] ;
104 -> 105 ;
106 [label=<gini = 0.0<br/>samples = 2<br/>value = [3, 0]<br/>class = 0>, fillcolor="#e58139"] ;
104 -> 106 ;
107 [label=<gini = 0.0<br/>samples = 2<br/>value = [0, 2]<br/>class = 1>, fillcolor="#399de5"] ;
101 -> 107 ;
108 [label=<gini = 0.0<br/>samples = 2<br/>value = [0, 2]<br/>class = 1>, fillcolor="#399de5"] ;
100 -> 108 ;
109 [label=<Glucose &le; 116.0<br/>gini = 0.198<br/>samples = 4<br/>value = [1, 8]<br/>class = 1>, fillcolor="#52a9e8"] ;
73 -> 109 ;
110 [label=<gini = 0.0<br/>samples = 2<br/>value = [0, 7]<br/>class = 1>, fillcolor="#399de5"] ;
109 -> 110 ;
111 [label=<BMI &le; 33.25<br/>gini = 0.5<br/>samples = 2<br/>value = [1, 1]<br/>class = 0>, fillcolor="#ffffff"] ;
109 -> 111 ;
112 [label=<gini = 0.0<br/>samples = 1<br/>value = [0, 1]<br/>class = 1>, fillcolor="#399de5"] ;
111 -> 112 ;
113 [label=<gini = 0.0<br/>samples = 1<br/>value = [1, 0]<br/>class = 0>, fillcolor="#e58139"] ;
111 -> 113 ;
114 [label=<Age &le; 44.0<br/>gini = 0.346<br/>samples = 6<br/>value = [7, 2]<br/>class = 0>, fillcolor="#eca572"] ;
66 -> 114 ;
115 [label=<gini = 0.0<br/>samples = 1<br/>value = [3, 0]<br/>class = 0>, fillcolor="#e58139"] ;
114 -> 115 ;
116 [label=<BMI &le; 40.65<br/>gini = 0.444<br/>samples = 5<br/>value = [4, 2]<br/>class = 0>, fillcolor="#f2c09c"] ;
114 -> 116 ;
117 [label=<Pregnancies &le; 13.5<br/>gini = 0.32<br/>samples = 4<br/>value = [4, 1]<br/>class = 0>, fillcolor="#eca06a"] ;
116 -> 117 ;
118 [label=<gini = 0.0<br/>samples = 3<br/>value = [4, 0]<br/>class = 0>, fillcolor="#e58139"] ;
117 -> 118 ;
119 [label=<gini = 0.0<br/>samples = 1<br/>value = [0, 1]<br/>class = 1>, fillcolor="#399de5"] ;
117 -> 119 ;
120 [label=<gini = 0.0<br/>samples = 1<br/>value = [0, 1]<br/>class = 1>, fillcolor="#399de5"] ;
116 -> 120 ;
121 [label=<BMI &le; 27.85<br/>gini = 0.142<br/>samples = 6<br/>value = [12, 1]<br/>class = 0>, fillcolor="#e78c49"] ;
61 -> 121 ;
122 [label=<gini = 0.0<br/>samples = 5<br/>value = [12, 0]<br/>class = 0>, fillcolor="#e58139"] ;
121 -> 122 ;
123 [label=<gini = 0.0<br/>samples = 1<br/>value = [0, 1]<br/>class = 1>, fillcolor="#399de5"] ;
121 -> 123 ;
124 [label=<BMI &le; 29.1<br/>gini = 0.435<br/>samples = 128<br/>value = [68, 145]<br/>class = 1>, fillcolor="#96cbf1"] ;
0 -> 124 [labeldistance=2.5, labelangle=-45, headlabel="False"] ;
125 [label=<BMI &le; 26.7<br/>gini = 0.427<br/>samples = 33<br/>value = [38, 17]<br/>class = 0>, fillcolor="#f1b992"] ;
124 -> 125 ;
126 [label=<Glucose &le; 152.5<br/>gini = 0.5<br/>samples = 20<br/>value = [17, 16]<br/>class = 0>, fillcolor="#fdf8f3"] ;
125 -> 126 ;
127 [label=<BMI &le; 26.3<br/>gini = 0.36<br/>samples = 11<br/>value = [13, 4]<br/>class = 0>, fillcolor="#eda876"] ;
126 -> 127 ;
128 [label=<Age &le; 58.5<br/>gini = 0.133<br/>samples = 10<br/>value = [13, 1]<br/>class = 0>, fillcolor="#e78b48"] ;
127 -> 128 ;
129 [label=<gini = 0.0<br/>samples = 8<br/>value = [12, 0]<br/>class = 0>, fillcolor="#e58139"] ;
128 -> 129 ;
130 [label=<Glucose &le; 135.0<br/>gini = 0.5<br/>samples = 2<br/>value = [1, 1]<br/>class = 0>, fillcolor="#ffffff"] ;
128 -> 130 ;
131 [label=<gini = 0.0<br/>samples = 1<br/>value = [0, 1]<br/>class = 1>, fillcolor="#399de5"] ;
130 -> 131 ;
132 [label=<gini = 0.0<br/>samples = 1<br/>value = [1, 0]<br/>class = 0>, fillcolor="#e58139"] ;
130 -> 132 ;
133 [label=<gini = 0.0<br/>samples = 1<br/>value = [0, 3]<br/>class = 1>, fillcolor="#399de5"] ;
127 -> 133 ;
134 [label=<Glucose &le; 194.5<br/>gini = 0.375<br/>samples = 9<br/>value = [4, 12]<br/>class = 1>, fillcolor="#7bbeee"] ;
126 -> 134 ;
135 [label=<BMI &le; 25.55<br/>gini = 0.444<br/>samples = 7<br/>value = [4, 8]<br/>class = 1>, fillcolor="#9ccef2"] ;
134 -> 135 ;
136 [label=<gini = 0.0<br/>samples = 3<br/>value = [0, 5]<br/>class = 1>, fillcolor="#399de5"] ;
135 -> 136 ;
137 [label=<Glucose &le; 156.0<br/>gini = 0.49<br/>samples = 4<br/>value = [4, 3]<br/>class = 0>, fillcolor="#f8e0ce"] ;
135 -> 137 ;
138 [label=<gini = 0.0<br/>samples = 1<br/>value = [0, 2]<br/>class = 1>, fillcolor="#399de5"] ;
137 -> 138 ;
139 [label=<Glucose &le; 161.5<br/>gini = 0.32<br/>samples = 3<br/>value = [4, 1]<br/>class = 0>, fillcolor="#eca06a"] ;
137 -> 139 ;
140 [label=<gini = 0.0<br/>samples = 1<br/>value = [2, 0]<br/>class = 0>, fillcolor="#e58139"] ;
139 -> 140 ;
141 [label=<Pregnancies &le; 6.5<br/>gini = 0.444<br/>samples = 2<br/>value = [2, 1]<br/>class = 0>, fillcolor="#f2c09c"] ;
139 -> 141 ;
142 [label=<gini = 0.0<br/>samples = 1<br/>value = [0, 1]<br/>class = 1>, fillcolor="#399de5"] ;
141 -> 142 ;
143 [label=<gini = 0.0<br/>samples = 1<br/>value = [2, 0]<br/>class = 0>, fillcolor="#e58139"] ;
141 -> 143 ;
144 [label=<gini = 0.0<br/>samples = 2<br/>value = [0, 4]<br/>class = 1>, fillcolor="#399de5"] ;
134 -> 144 ;
145 [label=<Age &le; 32.0<br/>gini = 0.087<br/>samples = 13<br/>value = [21, 1]<br/>class = 0>, fillcolor="#e68742"] ;
125 -> 145 ;
146 [label=<BMI &le; 28.05<br/>gini = 0.32<br/>samples = 5<br/>value = [4, 1]<br/>class = 0>, fillcolor="#eca06a"] ;
145 -> 146 ;
147 [label=<gini = 0.0<br/>samples = 1<br/>value = [0, 1]<br/>class = 1>, fillcolor="#399de5"] ;
146 -> 147 ;
148 [label=<gini = 0.0<br/>samples = 4<br/>value = [4, 0]<br/>class = 0>, fillcolor="#e58139"] ;
146 -> 148 ;
149 [label=<gini = 0.0<br/>samples = 8<br/>value = [17, 0]<br/>class = 0>, fillcolor="#e58139"] ;
145 -> 149 ;
150 [label=<BMI &le; 32.45<br/>gini = 0.308<br/>samples = 95<br/>value = [30.0, 128.0]<br/>class = 1>, fillcolor="#67b4eb"] ;
124 -> 150 ;
151 [label=<Glucose &le; 159.5<br/>gini = 0.469<br/>samples = 26<br/>value = [15, 25]<br/>class = 1>, fillcolor="#b0d8f5"] ;
150 -> 151 ;
152 [label=<Age &le; 40.5<br/>gini = 0.48<br/>samples = 19<br/>value = [15, 10]<br/>class = 0>, fillcolor="#f6d5bd"] ;
151 -> 152 ;
153 [label=<Glucose &le; 131.5<br/>gini = 0.32<br/>samples = 12<br/>value = [12, 3]<br/>class = 0>, fillcolor="#eca06a"] ;
152 -> 153 ;
154 [label=<gini = 0.0<br/>samples = 1<br/>value = [0, 1]<br/>class = 1>, fillcolor="#399de5"] ;
153 -> 154 ;
155 [label=<Glucose &le; 139.0<br/>gini = 0.245<br/>samples = 11<br/>value = [12, 2]<br/>class = 0>, fillcolor="#e9965a"] ;
153 -> 155 ;
156 [label=<gini = 0.0<br/>samples = 4<br/>value = [6, 0]<br/>class = 0>, fillcolor="#e58139"] ;
155 -> 156 ;
157 [label=<BMI &le; 31.4<br/>gini = 0.375<br/>samples = 7<br/>value = [6, 2]<br/>class = 0>, fillcolor="#eeab7b"] ;
155 -> 157 ;
158 [label=<BMI &le; 29.95<br/>gini = 0.245<br/>samples = 6<br/>value = [6, 1]<br/>class = 0>, fillcolor="#e9965a"] ;
157 -> 158 ;
159 [label=<gini = 0.0<br/>samples = 3<br/>value = [4, 0]<br/>class = 0>, fillcolor="#e58139"] ;
158 -> 159 ;
160 [label=<Glucose &le; 142.0<br/>gini = 0.444<br/>samples = 3<br/>value = [2, 1]<br/>class = 0>, fillcolor="#f2c09c"] ;
158 -> 160 ;
161 [label=<gini = 0.0<br/>samples = 1<br/>value = [0, 1]<br/>class = 1>, fillcolor="#399de5"] ;
160 -> 161 ;
162 [label=<gini = 0.0<br/>samples = 2<br/>value = [2, 0]<br/>class = 0>, fillcolor="#e58139"] ;
160 -> 162 ;
163 [label=<gini = 0.0<br/>samples = 1<br/>value = [0, 1]<br/>class = 1>, fillcolor="#399de5"] ;
157 -> 163 ;
164 [label=<BMI &le; 30.65<br/>gini = 0.42<br/>samples = 7<br/>value = [3, 7]<br/>class = 1>, fillcolor="#8ec7f0"] ;
152 -> 164 ;
165 [label=<gini = 0.0<br/>samples = 3<br/>value = [0, 5]<br/>class = 1>, fillcolor="#399de5"] ;
164 -> 165 ;
166 [label=<BMI &le; 31.25<br/>gini = 0.48<br/>samples = 4<br/>value = [3, 2]<br/>class = 0>, fillcolor="#f6d5bd"] ;
164 -> 166 ;
167 [label=<gini = 0.0<br/>samples = 1<br/>value = [2, 0]<br/>class = 0>, fillcolor="#e58139"] ;
166 -> 167 ;
168 [label=<Pregnancies &le; 2.5<br/>gini = 0.444<br/>samples = 3<br/>value = [1, 2]<br/>class = 1>, fillcolor="#9ccef2"] ;
166 -> 168 ;
169 [label=<gini = 0.0<br/>samples = 1<br/>value = [0, 1]<br/>class = 1>, fillcolor="#399de5"] ;
168 -> 169 ;
170 [label=<Age &le; 60.5<br/>gini = 0.5<br/>samples = 2<br/>value = [1, 1]<br/>class = 0>, fillcolor="#ffffff"] ;
168 -> 170 ;
171 [label=<gini = 0.0<br/>samples = 1<br/>value = [0, 1]<br/>class = 1>, fillcolor="#399de5"] ;
170 -> 171 ;
172 [label=<gini = 0.0<br/>samples = 1<br/>value = [1, 0]<br/>class = 0>, fillcolor="#e58139"] ;
170 -> 172 ;
173 [label=<gini = 0.0<br/>samples = 7<br/>value = [0, 15]<br/>class = 1>, fillcolor="#399de5"] ;
151 -> 173 ;
174 [label=<Age &le; 30.5<br/>gini = 0.222<br/>samples = 69<br/>value = [15, 103]<br/>class = 1>, fillcolor="#56abe9"] ;
150 -> 174 ;
175 [label=<BMI &le; 34.15<br/>gini = 0.325<br/>samples = 27<br/>value = [9, 35]<br/>class = 1>, fillcolor="#6cb6ec"] ;
174 -> 175 ;
176 [label=<gini = 0.0<br/>samples = 2<br/>value = [2, 0]<br/>class = 0>, fillcolor="#e58139"] ;
175 -> 176 ;
177 [label=<Glucose &le; 165.5<br/>gini = 0.278<br/>samples = 25<br/>value = [7, 35]<br/>class = 1>, fillcolor="#61b1ea"] ;
175 -> 177 ;
178 [label=<Glucose &le; 146.5<br/>gini = 0.444<br/>samples = 13<br/>value = [7, 14]<br/>class = 1>, fillcolor="#9ccef2"] ;
177 -> 178 ;
179 [label=<Age &le; 27.0<br/>gini = 0.153<br/>samples = 7<br/>value = [1, 11]<br/>class = 1>, fillcolor="#4ba6e7"] ;
178 -> 179 ;
180 [label=<gini = 0.0<br/>samples = 6<br/>value = [0, 11]<br/>class = 1>, fillcolor="#399de5"] ;
179 -> 180 ;
181 [label=<gini = 0.0<br/>samples = 1<br/>value = [1, 0]<br/>class = 0>, fillcolor="#e58139"] ;
179 -> 181 ;
182 [label=<Age &le; 26.5<br/>gini = 0.444<br/>samples = 6<br/>value = [6, 3]<br/>class = 0>, fillcolor="#f2c09c"] ;
178 -> 182 ;
183 [label=<BMI &le; 48.75<br/>gini = 0.375<br/>samples = 2<br/>value = [1, 3]<br/>class = 1>, fillcolor="#7bbeee"] ;
182 -> 183 ;
184 [label=<gini = 0.0<br/>samples = 1<br/>value = [1, 0]<br/>class = 0>, fillcolor="#e58139"] ;
183 -> 184 ;
185 [label=<gini = 0.0<br/>samples = 1<br/>value = [0, 3]<br/>class = 1>, fillcolor="#399de5"] ;
183 -> 185 ;
186 [label=<gini = 0.0<br/>samples = 4<br/>value = [5, 0]<br/>class = 0>, fillcolor="#e58139"] ;
182 -> 186 ;
187 [label=<gini = 0.0<br/>samples = 12<br/>value = [0, 21]<br/>class = 1>, fillcolor="#399de5"] ;
177 -> 187 ;
188 [label=<BMI &le; 44.6<br/>gini = 0.149<br/>samples = 42<br/>value = [6, 68]<br/>class = 1>, fillcolor="#4aa6e7"] ;
174 -> 188 ;
189 [label=<Age &le; 37.5<br/>gini = 0.111<br/>samples = 39<br/>value = [4, 64]<br/>class = 1>, fillcolor="#45a3e7"] ;
188 -> 189 ;
190 [label=<Pregnancies &le; 9.0<br/>gini = 0.227<br/>samples = 11<br/>value = [3, 20]<br/>class = 1>, fillcolor="#57ace9"] ;
189 -> 190 ;
191 [label=<Age &le; 36.5<br/>gini = 0.095<br/>samples = 8<br/>value = [1, 19]<br/>class = 1>, fillcolor="#43a2e6"] ;
190 -> 191 ;
192 [label=<gini = 0.0<br/>samples = 6<br/>value = [0, 16]<br/>class = 1>, fillcolor="#399de5"] ;
191 -> 192 ;
193 [label=<Glucose &le; 131.5<br/>gini = 0.375<br/>samples = 2<br/>value = [1, 3]<br/>class = 1>, fillcolor="#7bbeee"] ;
191 -> 193 ;
194 [label=<gini = 0.0<br/>samples = 1<br/>value = [0, 3]<br/>class = 1>, fillcolor="#399de5"] ;
193 -> 194 ;
195 [label=<gini = 0.0<br/>samples = 1<br/>value = [1, 0]<br/>class = 0>, fillcolor="#e58139"] ;
193 -> 195 ;
196 [label=<BMI &le; 36.55<br/>gini = 0.444<br/>samples = 3<br/>value = [2, 1]<br/>class = 0>, fillcolor="#f2c09c"] ;
190 -> 196 ;
197 [label=<gini = 0.0<br/>samples = 2<br/>value = [2, 0]<br/>class = 0>, fillcolor="#e58139"] ;
196 -> 197 ;
198 [label=<gini = 0.0<br/>samples = 1<br/>value = [0, 1]<br/>class = 1>, fillcolor="#399de5"] ;
196 -> 198 ;
199 [label=<Glucose &le; 182.0<br/>gini = 0.043<br/>samples = 28<br/>value = [1, 44]<br/>class = 1>, fillcolor="#3d9fe6"] ;
189 -> 199 ;
200 [label=<gini = 0.0<br/>samples = 22<br/>value = [0, 37]<br/>class = 1>, fillcolor="#399de5"] ;
199 -> 200 ;
201 [label=<BMI &le; 39.25<br/>gini = 0.219<br/>samples = 6<br/>value = [1, 7]<br/>class = 1>, fillcolor="#55abe9"] ;
199 -> 201 ;
202 [label=<gini = 0.0<br/>samples = 4<br/>value = [0, 6]<br/>class = 1>, fillcolor="#399de5"] ;
201 -> 202 ;
203 [label=<Pregnancies &le; 5.5<br/>gini = 0.5<br/>samples = 2<br/>value = [1, 1]<br/>class = 0>, fillcolor="#ffffff"] ;
201 -> 203 ;
204 [label=<gini = 0.0<br/>samples = 1<br/>value = [0, 1]<br/>class = 1>, fillcolor="#399de5"] ;
203 -> 204 ;
205 [label=<gini = 0.0<br/>samples = 1<br/>value = [1, 0]<br/>class = 0>, fillcolor="#e58139"] ;
203 -> 205 ;
206 [label=<BMI &le; 45.6<br/>gini = 0.444<br/>samples = 3<br/>value = [2, 4]<br/>class = 1>, fillcolor="#9ccef2"] ;
188 -> 206 ;
207 [label=<gini = 0.0<br/>samples = 1<br/>value = [2, 0]<br/>class = 0>, fillcolor="#e58139"] ;
206 -> 207 ;
208 [label=<gini = 0.0<br/>samples = 2<br/>value = [0, 4]<br/>class = 1>, fillcolor="#399de5"] ;
206 -> 208 ;
}